digraph Tree {
node [shape=box] ;
0 [label="Savings <= 0.5\nentropy = 1.0\nsamples = 400\nvalue = [200, 200]"] ;
1 [label="termdays <= 45.0\nentropy = 0.965\nsamples = 136\nvalue = [53, 83]"] ;
0 -> 1 [labeldistance=2.5, labelangle=45, headlabel="True"] ;
2 [label="avgloanamtrank <= 1.5\nentropy = 0.912\nsamples = 101\nvalue = [33, 68]"] ;
1 -> 2 ;
3 [label="entropy = 0.0\nsamples = 4\nvalue = [0, 4]"] ;
2 -> 3 ;
4 [label="Unemployed <= 0.5\nentropy = 0.925\nsamples = 97\nvalue = [33, 64]"] ;
2 -> 4 ;
5 [label="rankloannum <= 2.5\nentropy = 0.938\nsamples = 93\nvalue = [33, 60]"] ;
4 -> 5 ;
6 [label="Stanbic IBTC <= 0.5\nentropy = 0.948\nsamples = 90\nvalue = [33, 57]"] ;
5 -> 6 ;
7 [label="repaymentrank <= 1.5\nentropy = 0.958\nsamples = 87\nvalue = [33, 54]"] ;
6 -> 7 ;
8 [label="entropy = 0.0\nsamples = 1\nvalue = [1, 0]"] ;
7 -> 8 ;
9 [label="agerank <= 1.5\nentropy = 0.952\nsamples = 86\nvalue = [32, 54]"] ;
7 -> 9 ;
10 [label="Zenith Bank <= 0.5\nentropy = 0.997\nsamples = 32\nvalue = [15, 17]"] ;
9 -> 10 ;
11 [label="Other <= 0.5\nentropy = 0.999\nsamples = 29\nvalue = [15, 14]"] ;
10 -> 11 ;
12 [label="entropy = 0.0\nsamples = 2\nvalue = [0, 2]"] ;
11 -> 12 ;
13 [label="First Bank <= 0.5\nentropy = 0.991\nsamples = 27\nvalue = [15, 12]"] ;
11 -> 13 ;
14 [label="Access Bank <= 0.5\nentropy = 1.0\nsamples = 24\nvalue = [12, 12]"] ;
13 -> 14 ;
15 [label="Student <= 0.5\nentropy = 0.994\nsamples = 22\nvalue = [12, 10]"] ;
14 -> 15 ;
16 [label="termdays <= 22.5\nentropy = 0.937\nsamples = 17\nvalue = [11, 6]"] ;
15 -> 16 ;
17 [label="entropy = 0.0\nsamples = 4\nvalue = [4, 0]"] ;
16 -> 17 ;
18 [label="rankloannum <= 1.5\nentropy = 0.996\nsamples = 13\nvalue = [7, 6]"] ;
16 -> 18 ;
19 [label="totalduerank <= 1.5\nentropy = 0.863\nsamples = 7\nvalue = [5, 2]"] ;
18 -> 19 ;
20 [label="rankloanamt <= 1.5\nentropy = 0.971\nsamples = 5\nvalue = [3, 2]"] ;
19 -> 20 ;
21 [label="entropy = 0.0\nsamples = 2\nvalue = [2, 0]"] ;
20 -> 21 ;
22 [label="FCMB <= 0.5\nentropy = 0.918\nsamples = 3\nvalue = [1, 2]"] ;
20 -> 22 ;
23 [label="entropy = 0.0\nsamples = 2\nvalue = [0, 2]"] ;
22 -> 23 ;
24 [label="entropy = 0.0\nsamples = 1\nvalue = [1, 0]"] ;
22 -> 24 ;
25 [label="entropy = 0.0\nsamples = 2\nvalue = [2, 0]"] ;
19 -> 25 ;
26 [label="avgloanamtrank <= 2.5\nentropy = 0.918\nsamples = 6\nvalue = [2, 4]"] ;
18 -> 26 ;
27 [label="entropy = 0.0\nsamples = 3\nvalue = [0, 3]"] ;
26 -> 27 ;
28 [label="Permanent <= 0.5\nentropy = 0.918\nsamples = 3\nvalue = [2, 1]"] ;
26 -> 28 ;
29 [label="entropy = 0.0\nsamples = 1\nvalue = [1, 0]"] ;
28 -> 29 ;
30 [label="Diamond Bank <= 0.5\nentropy = 1.0\nsamples = 2\nvalue = [1, 1]"] ;
28 -> 30 ;
31 [label="entropy = 0.0\nsamples = 1\nvalue = [1, 0]"] ;
30 -> 31 ;
32 [label="entropy = 0.0\nsamples = 1\nvalue = [0, 1]"] ;
30 -> 32 ;
33 [label="rankloanamt <= 2.5\nentropy = 0.722\nsamples = 5\nvalue = [1, 4]"] ;
15 -> 33 ;
34 [label="entropy = 0.0\nsamples = 4\nvalue = [0, 4]"] ;
33 -> 34 ;
35 [label="entropy = 0.0\nsamples = 1\nvalue = [1, 0]"] ;
33 -> 35 ;
36 [label="entropy = 0.0\nsamples = 2\nvalue = [0, 2]"] ;
14 -> 36 ;
37 [label="entropy = 0.0\nsamples = 3\nvalue = [3, 0]"] ;
13 -> 37 ;
38 [label="entropy = 0.0\nsamples = 3\nvalue = [0, 3]"] ;
10 -> 38 ;
39 [label="Sterling Bank <= 0.5\nentropy = 0.899\nsamples = 54\nvalue = [17, 37]"] ;
9 -> 39 ;
40 [label="GT Bank <= 0.5\nentropy = 0.884\nsamples = 53\nvalue = [16, 37]"] ;
39 -> 40 ;
41 [label="repaymentrank <= 2.5\nentropy = 0.935\nsamples = 37\nvalue = [13, 24]"] ;
40 -> 41 ;
42 [label="rankloanamt <= 1.5\nentropy = 0.946\nsamples = 11\nvalue = [7, 4]"] ;
41 -> 42 ;
43 [label="Standard Chartered <= 0.5\nentropy = 1.0\nsamples = 8\nvalue = [4, 4]"] ;
42 -> 43 ;
44 [label="Zenith Bank <= 0.5\nentropy = 0.985\nsamples = 7\nvalue = [3, 4]"] ;
43 -> 44 ;
45 [label="Self-Employed <= 0.5\nentropy = 0.918\nsamples = 6\nvalue = [2, 4]"] ;
44 -> 45 ;
46 [label="entropy = 0.0\nsamples = 3\nvalue = [0, 3]"] ;
45 -> 46 ;
47 [label="termdays <= 22.5\nentropy = 0.918\nsamples = 3\nvalue = [2, 1]"] ;
45 -> 47 ;
48 [label="entropy = 0.0\nsamples = 1\nvalue = [0, 1]"] ;
47 -> 48 ;
49 [label="entropy = 0.0\nsamples = 2\nvalue = [2, 0]"] ;
47 -> 49 ;
50 [label="entropy = 0.0\nsamples = 1\nvalue = [1, 0]"] ;
44 -> 50 ;
51 [label="entropy = 0.0\nsamples = 1\nvalue = [1, 0]"] ;
43 -> 51 ;
52 [label="entropy = 0.0\nsamples = 3\nvalue = [3, 0]"] ;
42 -> 52 ;
53 [label="UBA <= 0.5\nentropy = 0.779\nsamples = 26\nvalue = [6, 20]"] ;
41 -> 53 ;
54 [label="Zenith Bank <= 0.5\nentropy = 0.667\nsamples = 23\nvalue = [4, 19]"] ;
53 -> 54 ;
55 [label="agerank <= 2.5\nentropy = 0.764\nsamples = 18\nvalue = [4, 14]"] ;
54 -> 55 ;
56 [label="totalduerank <= 1.5\nentropy = 0.837\nsamples = 15\nvalue = [4, 11]"] ;
55 -> 56 ;
57 [label="Other <= 0.5\nentropy = 0.544\nsamples = 8\nvalue = [1, 7]"] ;
56 -> 57 ;
58 [label="termdays <= 22.5\nentropy = 0.918\nsamples = 3\nvalue = [1, 2]"] ;
57 -> 58 ;
59 [label="entropy = 0.0\nsamples = 1\nvalue = [1, 0]"] ;
58 -> 59 ;
60 [label="entropy = 0.0\nsamples = 2\nvalue = [0, 2]"] ;
58 -> 60 ;
61 [label="entropy = 0.0\nsamples = 5\nvalue = [0, 5]"] ;
57 -> 61 ;
62 [label="First Bank <= 0.5\nentropy = 0.985\nsamples = 7\nvalue = [3, 4]"] ;
56 -> 62 ;
63 [label="rankloanamt <= 2.5\nentropy = 0.918\nsamples = 6\nvalue = [2, 4]"] ;
62 -> 63 ;
64 [label="Permanent <= 0.5\nentropy = 1.0\nsamples = 4\nvalue = [2, 2]"] ;
63 -> 64 ;
65 [label="entropy = 0.0\nsamples = 1\nvalue = [1, 0]"] ;
64 -> 65 ;
66 [label="rankloannum <= 1.5\nentropy = 0.918\nsamples = 3\nvalue = [1, 2]"] ;
64 -> 66 ;
67 [label="entropy = 0.0\nsamples = 2\nvalue = [0, 2]"] ;
66 -> 67 ;
68 [label="entropy = 0.0\nsamples = 1\nvalue = [1, 0]"] ;
66 -> 68 ;
69 [label="entropy = 0.0\nsamples = 2\nvalue = [0, 2]"] ;
63 -> 69 ;
70 [label="entropy = 0.0\nsamples = 1\nvalue = [1, 0]"] ;
62 -> 70 ;
71 [label="entropy = 0.0\nsamples = 3\nvalue = [0, 3]"] ;
55 -> 71 ;
72 [label="entropy = 0.0\nsamples = 5\nvalue = [0, 5]"] ;
54 -> 72 ;
73 [label="Permanent <= 0.5\nentropy = 0.918\nsamples = 3\nvalue = [2, 1]"] ;
53 -> 73 ;
74 [label="entropy = 0.0\nsamples = 1\nvalue = [0, 1]"] ;
73 -> 74 ;
75 [label="entropy = 0.0\nsamples = 2\nvalue = [2, 0]"] ;
73 -> 75 ;
76 [label="Permanent <= 0.5\nentropy = 0.696\nsamples = 16\nvalue = [3, 13]"] ;
40 -> 76 ;
77 [label="repaymentrank <= 2.5\nentropy = 0.918\nsamples = 9\nvalue = [3, 6]"] ;
76 -> 77 ;
78 [label="entropy = 0.0\nsamples = 3\nvalue = [0, 3]"] ;
77 -> 78 ;
79 [label="rankloanamt <= 2.5\nentropy = 1.0\nsamples = 6\nvalue = [3, 3]"] ;
77 -> 79 ;
80 [label="rankloanamt <= 1.5\nentropy = 0.811\nsamples = 4\nvalue = [3, 1]"] ;
79 -> 80 ;
81 [label="termdays <= 22.5\nentropy = 1.0\nsamples = 2\nvalue = [1, 1]"] ;
80 -> 81 ;
82 [label="entropy = 0.0\nsamples = 1\nvalue = [1, 0]"] ;
81 -> 82 ;
83 [label="entropy = 0.0\nsamples = 1\nvalue = [0, 1]"] ;
81 -> 83 ;
84 [label="entropy = 0.0\nsamples = 2\nvalue = [2, 0]"] ;
80 -> 84 ;
85 [label="entropy = 0.0\nsamples = 2\nvalue = [0, 2]"] ;
79 -> 85 ;
86 [label="entropy = 0.0\nsamples = 7\nvalue = [0, 7]"] ;
76 -> 86 ;
87 [label="entropy = 0.0\nsamples = 1\nvalue = [1, 0]"] ;
39 -> 87 ;
88 [label="entropy = 0.0\nsamples = 3\nvalue = [0, 3]"] ;
6 -> 88 ;
89 [label="entropy = 0.0\nsamples = 3\nvalue = [0, 3]"] ;
5 -> 89 ;
90 [label="entropy = 0.0\nsamples = 4\nvalue = [0, 4]"] ;
4 -> 90 ;
91 [label="repaymentrank <= 2.5\nentropy = 0.985\nsamples = 35\nvalue = [20, 15]"] ;
1 -> 91 ;
92 [label="entropy = 0.0\nsamples = 3\nvalue = [0, 3]"] ;
91 -> 92 ;
93 [label="First Bank <= 0.5\nentropy = 0.954\nsamples = 32\nvalue = [20, 12]"] ;
91 -> 93 ;
94 [label="Self-Employed <= 0.5\nentropy = 0.906\nsamples = 28\nvalue = [19, 9]"] ;
93 -> 94 ;
95 [label="avgloanamtrank <= 2.5\nentropy = 0.696\nsamples = 16\nvalue = [13, 3]"] ;
94 -> 95 ;
96 [label="GT Bank <= 0.5\nentropy = 0.954\nsamples = 8\nvalue = [5, 3]"] ;
95 -> 96 ;
97 [label="entropy = 0.0\nsamples = 2\nvalue = [2, 0]"] ;
96 -> 97 ;
98 [label="rankloannum <= 1.5\nentropy = 1.0\nsamples = 6\nvalue = [3, 3]"] ;
96 -> 98 ;
99 [label="agerank <= 1.5\nentropy = 0.811\nsamples = 4\nvalue = [3, 1]"] ;
98 -> 99 ;
100 [label="entropy = 0.0\nsamples = 2\nvalue = [2, 0]"] ;
99 -> 100 ;
101 [label="entropy = 1.0\nsamples = 2\nvalue = [1, 1]"] ;
99 -> 101 ;
102 [label="entropy = 0.0\nsamples = 2\nvalue = [0, 2]"] ;
98 -> 102 ;
103 [label="entropy = 0.0\nsamples = 8\nvalue = [8, 0]"] ;
95 -> 103 ;
104 [label="GT Bank <= 0.5\nentropy = 1.0\nsamples = 12\nvalue = [6, 6]"] ;
94 -> 104 ;
105 [label="Fidelity Bank <= 0.5\nentropy = 0.722\nsamples = 5\nvalue = [1, 4]"] ;
104 -> 105 ;
106 [label="entropy = 0.0\nsamples = 4\nvalue = [0, 4]"] ;
105 -> 106 ;
107 [label="entropy = 0.0\nsamples = 1\nvalue = [1, 0]"] ;
105 -> 107 ;
108 [label="rankloannum <= 2.5\nentropy = 0.863\nsamples = 7\nvalue = [5, 2]"] ;
104 -> 108 ;
109 [label="rankloanamt <= 2.5\nentropy = 0.65\nsamples = 6\nvalue = [5, 1]"] ;
108 -> 109 ;
110 [label="entropy = 1.0\nsamples = 2\nvalue = [1, 1]"] ;
109 -> 110 ;
111 [label="entropy = 0.0\nsamples = 4\nvalue = [4, 0]"] ;
109 -> 111 ;
112 [label="entropy = 0.0\nsamples = 1\nvalue = [0, 1]"] ;
108 -> 112 ;
113 [label="rankloanamt <= 2.5\nentropy = 0.811\nsamples = 4\nvalue = [1, 3]"] ;
93 -> 113 ;
114 [label="Self-Employed <= 0.5\nentropy = 1.0\nsamples = 2\nvalue = [1, 1]"] ;
113 -> 114 ;
115 [label="entropy = 0.0\nsamples = 1\nvalue = [1, 0]"] ;
114 -> 115 ;
116 [label="entropy = 0.0\nsamples = 1\nvalue = [0, 1]"] ;
114 -> 116 ;
117 [label="entropy = 0.0\nsamples = 2\nvalue = [0, 2]"] ;
113 -> 117 ;
118 [label="EcoBank <= 0.5\nentropy = 0.991\nsamples = 264\nvalue = [147, 117]"] ;
0 -> 118 [labeldistance=2.5, labelangle=-45, headlabel="False"] ;
119 [label="rankloannum <= 1.5\nentropy = 0.994\nsamples = 252\nvalue = [137, 115]"] ;
118 -> 119 ;
120 [label="Access Bank <= 0.5\nentropy = 0.983\nsamples = 206\nvalue = [119, 87]"] ;
119 -> 120 ;
121 [label="UBA <= 0.5\nentropy = 0.99\nsamples = 181\nvalue = [101, 80]"] ;
120 -> 121 ;
122 [label="Heritage Bank <= 0.5\nentropy = 0.996\nsamples = 160\nvalue = [86, 74]"] ;
121 -> 122 ;
123 [label="Standard Chartered <= 0.5\nentropy = 0.997\nsamples = 158\nvalue = [84, 74]"] ;
122 -> 123 ;
124 [label="Keystone Bank <= 0.5\nentropy = 0.996\nsamples = 157\nvalue = [84, 73]"] ;
123 -> 124 ;
125 [label="First Bank <= 0.5\nentropy = 0.996\nsamples = 156\nvalue = [84, 72]"] ;
124 -> 125 ;
126 [label="Self-Employed <= 0.5\nentropy = 0.999\nsamples = 131\nvalue = [68, 63]"] ;
125 -> 126 ;
127 [label="termdays <= 45.0\nentropy = 0.994\nsamples = 112\nvalue = [61, 51]"] ;
126 -> 127 ;
128 [label="avgloanamtrank <= 2.5\nentropy = 0.998\nsamples = 104\nvalue = [55, 49]"] ;
127 -> 128 ;
129 [label="Fidelity Bank <= 0.5\nentropy = 0.996\nsamples = 102\nvalue = [55, 47]"] ;
128 -> 129 ;
130 [label="Unemployed <= 0.5\nentropy = 0.99\nsamples = 95\nvalue = [53, 42]"] ;
129 -> 130 ;
131 [label="isreffered <= 0.5\nentropy = 0.985\nsamples = 91\nvalue = [52, 39]"] ;
130 -> 131 ;
132 [label="repaymentrank <= 2.5\nentropy = 0.997\nsamples = 66\nvalue = [35, 31]"] ;
131 -> 132 ;
133 [label="Zenith Bank <= 0.5\nentropy = 0.946\nsamples = 22\nvalue = [14, 8]"] ;
132 -> 133 ;
134 [label="totalduerank <= 1.5\nentropy = 0.881\nsamples = 20\nvalue = [14, 6]"] ;
133 -> 134 ;
135 [label="GT Bank <= 0.5\nentropy = 0.831\nsamples = 19\nvalue = [14, 5]"] ;
134 -> 135 ;
136 [label="rankloanamt <= 1.5\nentropy = 0.961\nsamples = 13\nvalue = [8, 5]"] ;
135 -> 136 ;
137 [label="Wema Bank <= 0.5\nentropy = 0.845\nsamples = 11\nvalue = [8, 3]"] ;
136 -> 137 ;
138 [label="Diamond Bank <= 0.5\nentropy = 0.722\nsamples = 10\nvalue = [8, 2]"] ;
137 -> 138 ;
139 [label="Skye Bank <= 0.5\nentropy = 0.544\nsamples = 8\nvalue = [7, 1]"] ;
138 -> 139 ;
140 [label="entropy = 0.0\nsamples = 5\nvalue = [5, 0]"] ;
139 -> 140 ;
141 [label="agerank <= 1.5\nentropy = 0.918\nsamples = 3\nvalue = [2, 1]"] ;
139 -> 141 ;
142 [label="entropy = 0.0\nsamples = 2\nvalue = [2, 0]"] ;
141 -> 142 ;
143 [label="entropy = 0.0\nsamples = 1\nvalue = [0, 1]"] ;
141 -> 143 ;
144 [label="Student <= 0.5\nentropy = 1.0\nsamples = 2\nvalue = [1, 1]"] ;
138 -> 144 ;
145 [label="entropy = 0.0\nsamples = 1\nvalue = [0, 1]"] ;
144 -> 145 ;
146 [label="entropy = 0.0\nsamples = 1\nvalue = [1, 0]"] ;
144 -> 146 ;
147 [label="entropy = 0.0\nsamples = 1\nvalue = [0, 1]"] ;
137 -> 147 ;
148 [label="entropy = 0.0\nsamples = 2\nvalue = [0, 2]"] ;
136 -> 148 ;
149 [label="entropy = 0.0\nsamples = 6\nvalue = [6, 0]"] ;
135 -> 149 ;
150 [label="entropy = 0.0\nsamples = 1\nvalue = [0, 1]"] ;
134 -> 150 ;
151 [label="entropy = 0.0\nsamples = 2\nvalue = [0, 2]"] ;
133 -> 151 ;
152 [label="Zenith Bank <= 0.5\nentropy = 0.999\nsamples = 44\nvalue = [21, 23]"] ;
132 -> 152 ;
153 [label="Diamond Bank <= 0.5\nentropy = 0.98\nsamples = 36\nvalue = [15, 21]"] ;
152 -> 153 ;
154 [label="termdays <= 22.5\nentropy = 0.938\nsamples = 31\nvalue = [11, 20]"] ;
153 -> 154 ;
155 [label="Skye Bank <= 0.5\nentropy = 0.991\nsamples = 9\nvalue = [5, 4]"] ;
154 -> 155 ;
156 [label="agerank <= 1.5\nentropy = 0.985\nsamples = 7\nvalue = [3, 4]"] ;
155 -> 156 ;
157 [label="entropy = 0.0\nsamples = 2\nvalue = [0, 2]"] ;
156 -> 157 ;
158 [label="FCMB <= 0.5\nentropy = 0.971\nsamples = 5\nvalue = [3, 2]"] ;
156 -> 158 ;
159 [label="agerank <= 2.5\nentropy = 1.0\nsamples = 4\nvalue = [2, 2]"] ;
158 -> 159 ;
160 [label="GT Bank <= 0.5\nentropy = 0.918\nsamples = 3\nvalue = [1, 2]"] ;
159 -> 160 ;
161 [label="rankloanamt <= 1.5\nentropy = 1.0\nsamples = 2\nvalue = [1, 1]"] ;
160 -> 161 ;
162 [label="entropy = 0.0\nsamples = 1\nvalue = [1, 0]"] ;
161 -> 162 ;
163 [label="entropy = 0.0\nsamples = 1\nvalue = [0, 1]"] ;
161 -> 163 ;
164 [label="entropy = 0.0\nsamples = 1\nvalue = [0, 1]"] ;
160 -> 164 ;
165 [label="entropy = 0.0\nsamples = 1\nvalue = [1, 0]"] ;
159 -> 165 ;
166 [label="entropy = 0.0\nsamples = 1\nvalue = [1, 0]"] ;
158 -> 166 ;
167 [label="entropy = 0.0\nsamples = 2\nvalue = [2, 0]"] ;
155 -> 167 ;
168 [label="Wema Bank <= 0.5\nentropy = 0.845\nsamples = 22\nvalue = [6, 16]"] ;
154 -> 168 ;
169 [label="agerank <= 1.5\nentropy = 0.792\nsamples = 21\nvalue = [5, 16]"] ;
168 -> 169 ;
170 [label="totalduerank <= 1.5\nentropy = 0.985\nsamples = 7\nvalue = [3, 4]"] ;
169 -> 170 ;
171 [label="GT Bank <= 0.5\nentropy = 0.811\nsamples = 4\nvalue = [1, 3]"] ;
170 -> 171 ;
172 [label="entropy = 0.0\nsamples = 3\nvalue = [0, 3]"] ;
171 -> 172 ;
173 [label="entropy = 0.0\nsamples = 1\nvalue = [1, 0]"] ;
171 -> 173 ;
174 [label="Sterling Bank <= 0.5\nentropy = 0.918\nsamples = 3\nvalue = [2, 1]"] ;
170 -> 174 ;
175 [label="entropy = 1.0\nsamples = 2\nvalue = [1, 1]"] ;
174 -> 175 ;
176 [label="entropy = 0.0\nsamples = 1\nvalue = [1, 0]"] ;
174 -> 176 ;
177 [label="agerank <= 2.5\nentropy = 0.592\nsamples = 14\nvalue = [2, 12]"] ;
169 -> 177 ;
178 [label="entropy = 0.0\nsamples = 8\nvalue = [0, 8]"] ;
177 -> 178 ;
179 [label="rankloanamt <= 1.5\nentropy = 0.918\nsamples = 6\nvalue = [2, 4]"] ;
177 -> 179 ;
180 [label="Skye Bank <= 0.5\nentropy = 1.0\nsamples = 4\nvalue = [2, 2]"] ;
179 -> 180 ;
181 [label="Stanbic IBTC <= 0.5\nentropy = 0.918\nsamples = 3\nvalue = [2, 1]"] ;
180 -> 181 ;
182 [label="entropy = 0.0\nsamples = 1\nvalue = [1, 0]"] ;
181 -> 182 ;
183 [label="entropy = 1.0\nsamples = 2\nvalue = [1, 1]"] ;
181 -> 183 ;
184 [label="entropy = 0.0\nsamples = 1\nvalue = [0, 1]"] ;
180 -> 184 ;
185 [label="entropy = 0.0\nsamples = 2\nvalue = [0, 2]"] ;
179 -> 185 ;
186 [label="entropy = 0.0\nsamples = 1\nvalue = [1, 0]"] ;
168 -> 186 ;
187 [label="agerank <= 2.5\nentropy = 0.722\nsamples = 5\nvalue = [4, 1]"] ;
153 -> 187 ;
188 [label="entropy = 0.0\nsamples = 3\nvalue = [3, 0]"] ;
187 -> 188 ;
189 [label="entropy = 1.0\nsamples = 2\nvalue = [1, 1]"] ;
187 -> 189 ;
190 [label="totalduerank <= 1.5\nentropy = 0.811\nsamples = 8\nvalue = [6, 2]"] ;
152 -> 190 ;
191 [label="agerank <= 1.5\nentropy = 0.65\nsamples = 6\nvalue = [5, 1]"] ;
190 -> 191 ;
192 [label="termdays <= 22.5\nentropy = 1.0\nsamples = 2\nvalue = [1, 1]"] ;
191 -> 192 ;
193 [label="entropy = 0.0\nsamples = 1\nvalue = [0, 1]"] ;
192 -> 193 ;
194 [label="entropy = 0.0\nsamples = 1\nvalue = [1, 0]"] ;
192 -> 194 ;
195 [label="entropy = 0.0\nsamples = 4\nvalue = [4, 0]"] ;
191 -> 195 ;
196 [label="agerank <= 1.5\nentropy = 1.0\nsamples = 2\nvalue = [1, 1]"] ;
190 -> 196 ;
197 [label="entropy = 0.0\nsamples = 1\nvalue = [1, 0]"] ;
196 -> 197 ;
198 [label="entropy = 0.0\nsamples = 1\nvalue = [0, 1]"] ;
196 -> 198 ;
199 [label="repaymentrank <= 2.5\nentropy = 0.904\nsamples = 25\nvalue = [17, 8]"] ;
131 -> 199 ;
200 [label="Stanbic IBTC <= 0.5\nentropy = 0.918\nsamples = 6\nvalue = [2, 4]"] ;
199 -> 200 ;
201 [label="termdays <= 22.5\nentropy = 0.722\nsamples = 5\nvalue = [1, 4]"] ;
200 -> 201 ;
202 [label="entropy = 1.0\nsamples = 2\nvalue = [1, 1]"] ;
201 -> 202 ;
203 [label="entropy = 0.0\nsamples = 3\nvalue = [0, 3]"] ;
201 -> 203 ;
204 [label="entropy = 0.0\nsamples = 1\nvalue = [1, 0]"] ;
200 -> 204 ;
205 [label="termdays <= 22.5\nentropy = 0.742\nsamples = 19\nvalue = [15, 4]"] ;
199 -> 205 ;
206 [label="agerank <= 1.5\nentropy = 1.0\nsamples = 4\nvalue = [2, 2]"] ;
205 -> 206 ;
207 [label="entropy = 0.0\nsamples = 1\nvalue = [0, 1]"] ;
206 -> 207 ;
208 [label="Zenith Bank <= 0.5\nentropy = 0.918\nsamples = 3\nvalue = [2, 1]"] ;
206 -> 208 ;
209 [label="entropy = 0.0\nsamples = 1\nvalue = [1, 0]"] ;
208 -> 209 ;
210 [label="rankloanamt <= 1.5\nentropy = 1.0\nsamples = 2\nvalue = [1, 1]"] ;
208 -> 210 ;
211 [label="entropy = 0.0\nsamples = 1\nvalue = [1, 0]"] ;
210 -> 211 ;
212 [label="entropy = 0.0\nsamples = 1\nvalue = [0, 1]"] ;
210 -> 212 ;
213 [label="Diamond Bank <= 0.5\nentropy = 0.567\nsamples = 15\nvalue = [13, 2]"] ;
205 -> 213 ;
214 [label="GT Bank <= 0.5\nentropy = 0.371\nsamples = 14\nvalue = [13, 1]"] ;
213 -> 214 ;
215 [label="entropy = 0.0\nsamples = 9\nvalue = [9, 0]"] ;
214 -> 215 ;
216 [label="rankloanamt <= 1.5\nentropy = 0.722\nsamples = 5\nvalue = [4, 1]"] ;
214 -> 216 ;
217 [label="agerank <= 1.5\nentropy = 0.918\nsamples = 3\nvalue = [2, 1]"] ;
216 -> 217 ;
218 [label="entropy = 0.0\nsamples = 1\nvalue = [1, 0]"] ;
217 -> 218 ;
219 [label="entropy = 1.0\nsamples = 2\nvalue = [1, 1]"] ;
217 -> 219 ;
220 [label="entropy = 0.0\nsamples = 2\nvalue = [2, 0]"] ;
216 -> 220 ;
221 [label="entropy = 0.0\nsamples = 1\nvalue = [0, 1]"] ;
213 -> 221 ;
222 [label="GT Bank <= 0.5\nentropy = 0.811\nsamples = 4\nvalue = [1, 3]"] ;
130 -> 222 ;
223 [label="entropy = 0.0\nsamples = 1\nvalue = [1, 0]"] ;
222 -> 223 ;
224 [label="entropy = 0.0\nsamples = 3\nvalue = [0, 3]"] ;
222 -> 224 ;
225 [label="termdays <= 22.5\nentropy = 0.863\nsamples = 7\nvalue = [2, 5]"] ;
129 -> 225 ;
226 [label="entropy = 0.0\nsamples = 2\nvalue = [0, 2]"] ;
225 -> 226 ;
227 [label="repaymentrank <= 2.5\nentropy = 0.971\nsamples = 5\nvalue = [2, 3]"] ;
225 -> 227 ;
228 [label="entropy = 0.0\nsamples = 1\nvalue = [1, 0]"] ;
227 -> 228 ;
229 [label="agerank <= 1.5\nentropy = 0.811\nsamples = 4\nvalue = [1, 3]"] ;
227 -> 229 ;
230 [label="Student <= 0.5\nentropy = 0.918\nsamples = 3\nvalue = [1, 2]"] ;
229 -> 230 ;
231 [label="entropy = 1.0\nsamples = 2\nvalue = [1, 1]"] ;
230 -> 231 ;
232 [label="entropy = 0.0\nsamples = 1\nvalue = [0, 1]"] ;
230 -> 232 ;
233 [label="entropy = 0.0\nsamples = 1\nvalue = [0, 1]"] ;
229 -> 233 ;
234 [label="entropy = 0.0\nsamples = 2\nvalue = [0, 2]"] ;
128 -> 234 ;
235 [label="agerank <= 1.5\nentropy = 0.811\nsamples = 8\nvalue = [6, 2]"] ;
127 -> 235 ;
236 [label="entropy = 0.0\nsamples = 4\nvalue = [4, 0]"] ;
235 -> 236 ;
237 [label="GT Bank <= 0.5\nentropy = 1.0\nsamples = 4\nvalue = [2, 2]"] ;
235 -> 237 ;
238 [label="entropy = 0.0\nsamples = 2\nvalue = [0, 2]"] ;
237 -> 238 ;
239 [label="entropy = 0.0\nsamples = 2\nvalue = [2, 0]"] ;
237 -> 239 ;
240 [label="agerank <= 1.5\nentropy = 0.949\nsamples = 19\nvalue = [7, 12]"] ;
126 -> 240 ;
241 [label="entropy = 0.0\nsamples = 4\nvalue = [0, 4]"] ;
240 -> 241 ;
242 [label="repaymentrank <= 2.5\nentropy = 0.997\nsamples = 15\nvalue = [7, 8]"] ;
240 -> 242 ;
243 [label="rankloanamt <= 1.5\nentropy = 0.722\nsamples = 5\nvalue = [4, 1]"] ;
242 -> 243 ;
244 [label="entropy = 0.0\nsamples = 4\nvalue = [4, 0]"] ;
243 -> 244 ;
245 [label="entropy = 0.0\nsamples = 1\nvalue = [0, 1]"] ;
243 -> 245 ;
246 [label="Zenith Bank <= 0.5\nentropy = 0.881\nsamples = 10\nvalue = [3, 7]"] ;
242 -> 246 ;
247 [label="Diamond Bank <= 0.5\nentropy = 0.918\nsamples = 9\nvalue = [3, 6]"] ;
246 -> 247 ;
248 [label="rankloanamt <= 2.5\nentropy = 0.954\nsamples = 8\nvalue = [3, 5]"] ;
247 -> 248 ;
249 [label="termdays <= 45.0\nentropy = 0.985\nsamples = 7\nvalue = [3, 4]"] ;
248 -> 249 ;
250 [label="isreffered <= 0.5\nentropy = 0.918\nsamples = 6\nvalue = [2, 4]"] ;
249 -> 250 ;
251 [label="totalduerank <= 1.5\nentropy = 0.971\nsamples = 5\nvalue = [2, 3]"] ;
250 -> 251 ;
252 [label="GT Bank <= 0.5\nentropy = 1.0\nsamples = 4\nvalue = [2, 2]"] ;
251 -> 252 ;
253 [label="entropy = 1.0\nsamples = 2\nvalue = [1, 1]"] ;
252 -> 253 ;
254 [label="entropy = 1.0\nsamples = 2\nvalue = [1, 1]"] ;
252 -> 254 ;
255 [label="entropy = 0.0\nsamples = 1\nvalue = [0, 1]"] ;
251 -> 255 ;
256 [label="entropy = 0.0\nsamples = 1\nvalue = [0, 1]"] ;
250 -> 256 ;
257 [label="entropy = 0.0\nsamples = 1\nvalue = [1, 0]"] ;
249 -> 257 ;
258 [label="entropy = 0.0\nsamples = 1\nvalue = [0, 1]"] ;
248 -> 258 ;
259 [label="entropy = 0.0\nsamples = 1\nvalue = [0, 1]"] ;
247 -> 259 ;
260 [label="entropy = 0.0\nsamples = 1\nvalue = [0, 1]"] ;
246 -> 260 ;
261 [label="agerank <= 1.5\nentropy = 0.943\nsamples = 25\nvalue = [16, 9]"] ;
125 -> 261 ;
262 [label="Permanent <= 0.5\nentropy = 0.954\nsamples = 8\nvalue = [3, 5]"] ;
261 -> 262 ;
263 [label="entropy = 0.0\nsamples = 2\nvalue = [0, 2]"] ;
262 -> 263 ;
264 [label="avgloanamtrank <= 1.5\nentropy = 1.0\nsamples = 6\nvalue = [3, 3]"] ;
262 -> 264 ;
265 [label="entropy = 0.0\nsamples = 1\nvalue = [1, 0]"] ;
264 -> 265 ;
266 [label="avgloanamtrank <= 2.5\nentropy = 0.971\nsamples = 5\nvalue = [2, 3]"] ;
264 -> 266 ;
267 [label="repaymentrank <= 2.5\nentropy = 1.0\nsamples = 4\nvalue = [2, 2]"] ;
266 -> 267 ;
268 [label="entropy = 0.0\nsamples = 1\nvalue = [0, 1]"] ;
267 -> 268 ;
269 [label="totalduerank <= 1.5\nentropy = 0.918\nsamples = 3\nvalue = [2, 1]"] ;
267 -> 269 ;
270 [label="isreffered <= 0.5\nentropy = 1.0\nsamples = 2\nvalue = [1, 1]"] ;
269 -> 270 ;
271 [label="entropy = 0.0\nsamples = 1\nvalue = [0, 1]"] ;
270 -> 271 ;
272 [label="entropy = 0.0\nsamples = 1\nvalue = [1, 0]"] ;
270 -> 272 ;
273 [label="entropy = 0.0\nsamples = 1\nvalue = [1, 0]"] ;
269 -> 273 ;
274 [label="entropy = 0.0\nsamples = 1\nvalue = [0, 1]"] ;
266 -> 274 ;
275 [label="termdays <= 22.5\nentropy = 0.787\nsamples = 17\nvalue = [13, 4]"] ;
261 -> 275 ;
276 [label="entropy = 0.0\nsamples = 3\nvalue = [3, 0]"] ;
275 -> 276 ;
277 [label="isreffered <= 0.5\nentropy = 0.863\nsamples = 14\nvalue = [10, 4]"] ;
275 -> 277 ;
278 [label="rankloanamt <= 1.5\nentropy = 0.722\nsamples = 10\nvalue = [8, 2]"] ;
277 -> 278 ;
279 [label="entropy = 0.0\nsamples = 4\nvalue = [4, 0]"] ;
278 -> 279 ;
280 [label="repaymentrank <= 2.5\nentropy = 0.918\nsamples = 6\nvalue = [4, 2]"] ;
278 -> 280 ;
281 [label="entropy = 0.0\nsamples = 2\nvalue = [2, 0]"] ;
280 -> 281 ;
282 [label="totalduerank <= 1.5\nentropy = 1.0\nsamples = 4\nvalue = [2, 2]"] ;
280 -> 282 ;
283 [label="Self-Employed <= 0.5\nentropy = 0.918\nsamples = 3\nvalue = [2, 1]"] ;
282 -> 283 ;
284 [label="entropy = 1.0\nsamples = 2\nvalue = [1, 1]"] ;
283 -> 284 ;
285 [label="entropy = 0.0\nsamples = 1\nvalue = [1, 0]"] ;
283 -> 285 ;
286 [label="entropy = 0.0\nsamples = 1\nvalue = [0, 1]"] ;
282 -> 286 ;
287 [label="repaymentrank <= 2.5\nentropy = 1.0\nsamples = 4\nvalue = [2, 2]"] ;
277 -> 287 ;
288 [label="entropy = 1.0\nsamples = 2\nvalue = [1, 1]"] ;
287 -> 288 ;
289 [label="entropy = 1.0\nsamples = 2\nvalue = [1, 1]"] ;
287 -> 289 ;
290 [label="entropy = 0.0\nsamples = 1\nvalue = [0, 1]"] ;
124 -> 290 ;
291 [label="entropy = 0.0\nsamples = 1\nvalue = [0, 1]"] ;
123 -> 291 ;
292 [label="entropy = 0.0\nsamples = 2\nvalue = [2, 0]"] ;
122 -> 292 ;
293 [label="rankloanamt <= 1.5\nentropy = 0.863\nsamples = 21\nvalue = [15, 6]"] ;
121 -> 293 ;
294 [label="termdays <= 22.5\nentropy = 0.672\nsamples = 17\nvalue = [14, 3]"] ;
293 -> 294 ;
295 [label="entropy = 0.0\nsamples = 4\nvalue = [4, 0]"] ;
294 -> 295 ;
296 [label="agerank <= 1.5\nentropy = 0.779\nsamples = 13\nvalue = [10, 3]"] ;
294 -> 296 ;
297 [label="Student <= 0.5\nentropy = 0.592\nsamples = 7\nvalue = [6, 1]"] ;
296 -> 297 ;
298 [label="entropy = 0.0\nsamples = 4\nvalue = [4, 0]"] ;
297 -> 298 ;
299 [label="repaymentrank <= 2.5\nentropy = 0.918\nsamples = 3\nvalue = [2, 1]"] ;
297 -> 299 ;
300 [label="entropy = 0.0\nsamples = 1\nvalue = [1, 0]"] ;
299 -> 300 ;
301 [label="entropy = 1.0\nsamples = 2\nvalue = [1, 1]"] ;
299 -> 301 ;
302 [label="agerank <= 2.5\nentropy = 0.918\nsamples = 6\nvalue = [4, 2]"] ;
296 -> 302 ;
303 [label="repaymentrank <= 1.5\nentropy = 0.971\nsamples = 5\nvalue = [3, 2]"] ;
302 -> 303 ;
304 [label="entropy = 0.0\nsamples = 1\nvalue = [1, 0]"] ;
303 -> 304 ;
305 [label="repaymentrank <= 2.5\nentropy = 1.0\nsamples = 4\nvalue = [2, 2]"] ;
303 -> 305 ;
306 [label="entropy = 0.0\nsamples = 1\nvalue = [0, 1]"] ;
305 -> 306 ;
307 [label="isreffered <= 0.5\nentropy = 0.918\nsamples = 3\nvalue = [2, 1]"] ;
305 -> 307 ;
308 [label="entropy = 1.0\nsamples = 2\nvalue = [1, 1]"] ;
307 -> 308 ;
309 [label="entropy = 0.0\nsamples = 1\nvalue = [1, 0]"] ;
307 -> 309 ;
310 [label="entropy = 0.0\nsamples = 1\nvalue = [1, 0]"] ;
302 -> 310 ;
311 [label="agerank <= 1.5\nentropy = 0.811\nsamples = 4\nvalue = [1, 3]"] ;
293 -> 311 ;
312 [label="entropy = 0.0\nsamples = 1\nvalue = [1, 0]"] ;
311 -> 312 ;
313 [label="entropy = 0.0\nsamples = 3\nvalue = [0, 3]"] ;
311 -> 313 ;
314 [label="termdays <= 22.5\nentropy = 0.855\nsamples = 25\nvalue = [18, 7]"] ;
120 -> 314 ;
315 [label="rankloanamt <= 1.5\nentropy = 1.0\nsamples = 10\nvalue = [5, 5]"] ;
314 -> 315 ;
316 [label="repaymentrank <= 2.5\nentropy = 0.954\nsamples = 8\nvalue = [5, 3]"] ;
315 -> 316 ;
317 [label="agerank <= 1.5\nentropy = 0.918\nsamples = 3\nvalue = [1, 2]"] ;
316 -> 317 ;
318 [label="Unemployed <= 0.5\nentropy = 1.0\nsamples = 2\nvalue = [1, 1]"] ;
317 -> 318 ;
319 [label="entropy = 0.0\nsamples = 1\nvalue = [1, 0]"] ;
318 -> 319 ;
320 [label="entropy = 0.0\nsamples = 1\nvalue = [0, 1]"] ;
318 -> 320 ;
321 [label="entropy = 0.0\nsamples = 1\nvalue = [0, 1]"] ;
317 -> 321 ;
322 [label="Permanent <= 0.5\nentropy = 0.722\nsamples = 5\nvalue = [4, 1]"] ;
316 -> 322 ;
323 [label="entropy = 0.0\nsamples = 3\nvalue = [3, 0]"] ;
322 -> 323 ;
324 [label="entropy = 1.0\nsamples = 2\nvalue = [1, 1]"] ;
322 -> 324 ;
325 [label="entropy = 0.0\nsamples = 2\nvalue = [0, 2]"] ;
315 -> 325 ;
326 [label="repaymentrank <= 2.5\nentropy = 0.567\nsamples = 15\nvalue = [13, 2]"] ;
314 -> 326 ;
327 [label="entropy = 0.0\nsamples = 6\nvalue = [6, 0]"] ;
326 -> 327 ;
328 [label="agerank <= 2.5\nentropy = 0.764\nsamples = 9\nvalue = [7, 2]"] ;
326 -> 328 ;
329 [label="isreffered <= 0.5\nentropy = 0.544\nsamples = 8\nvalue = [7, 1]"] ;
328 -> 329 ;
330 [label="entropy = 0.0\nsamples = 5\nvalue = [5, 0]"] ;
329 -> 330 ;
331 [label="rankloanamt <= 1.5\nentropy = 0.918\nsamples = 3\nvalue = [2, 1]"] ;
329 -> 331 ;
332 [label="entropy = 1.0\nsamples = 2\nvalue = [1, 1]"] ;
331 -> 332 ;
333 [label="entropy = 0.0\nsamples = 1\nvalue = [1, 0]"] ;
331 -> 333 ;
334 [label="entropy = 0.0\nsamples = 1\nvalue = [0, 1]"] ;
328 -> 334 ;
335 [label="FCMB <= 0.5\nentropy = 0.966\nsamples = 46\nvalue = [18, 28]"] ;
119 -> 335 ;
336 [label="agerank <= 2.5\nentropy = 0.985\nsamples = 42\nvalue = [18, 24]"] ;
335 -> 336 ;
337 [label="Unemployed <= 0.5\nentropy = 0.993\nsamples = 40\nvalue = [18, 22]"] ;
336 -> 337 ;
338 [label="avgloanamtrank <= 2.5\nentropy = 0.988\nsamples = 39\nvalue = [17, 22]"] ;
337 -> 338 ;
339 [label="repaymentrank <= 2.5\nentropy = 0.932\nsamples = 23\nvalue = [8, 15]"] ;
338 -> 339 ;
340 [label="Permanent <= 0.5\nentropy = 0.918\nsamples = 6\nvalue = [4, 2]"] ;
339 -> 340 ;
341 [label="GT Bank <= 0.5\nentropy = 0.918\nsamples = 3\nvalue = [1, 2]"] ;
340 -> 341 ;
342 [label="entropy = 0.0\nsamples = 2\nvalue = [0, 2]"] ;
341 -> 342 ;
343 [label="entropy = 0.0\nsamples = 1\nvalue = [1, 0]"] ;
341 -> 343 ;
344 [label="entropy = 0.0\nsamples = 3\nvalue = [3, 0]"] ;
340 -> 344 ;
345 [label="Access Bank <= 0.5\nentropy = 0.787\nsamples = 17\nvalue = [4, 13]"] ;
339 -> 345 ;
346 [label="Zenith Bank <= 0.5\nentropy = 0.89\nsamples = 13\nvalue = [4, 9]"] ;
345 -> 346 ;
347 [label="Self-Employed <= 0.5\nentropy = 0.946\nsamples = 11\nvalue = [4, 7]"] ;
346 -> 347 ;
348 [label="First Bank <= 0.5\nentropy = 0.971\nsamples = 10\nvalue = [4, 6]"] ;
347 -> 348 ;
349 [label="rankloanamt <= 2.5\nentropy = 0.918\nsamples = 9\nvalue = [3, 6]"] ;
348 -> 349 ;
350 [label="termdays <= 45.0\nentropy = 0.954\nsamples = 8\nvalue = [3, 5]"] ;
349 -> 350 ;
351 [label="Diamond Bank <= 0.5\nentropy = 0.863\nsamples = 7\nvalue = [2, 5]"] ;
350 -> 351 ;
352 [label="Stanbic IBTC <= 0.5\nentropy = 0.918\nsamples = 6\nvalue = [2, 4]"] ;
351 -> 352 ;
353 [label="GT Bank <= 0.5\nentropy = 0.971\nsamples = 5\nvalue = [2, 3]"] ;
352 -> 353 ;
354 [label="entropy = 1.0\nsamples = 2\nvalue = [1, 1]"] ;
353 -> 354 ;
355 [label="totalduerank <= 1.5\nentropy = 0.918\nsamples = 3\nvalue = [1, 2]"] ;
353 -> 355 ;
356 [label="agerank <= 1.5\nentropy = 1.0\nsamples = 2\nvalue = [1, 1]"] ;
355 -> 356 ;
357 [label="entropy = 0.0\nsamples = 1\nvalue = [1, 0]"] ;
356 -> 357 ;
358 [label="entropy = 0.0\nsamples = 1\nvalue = [0, 1]"] ;
356 -> 358 ;
359 [label="entropy = 0.0\nsamples = 1\nvalue = [0, 1]"] ;
355 -> 359 ;
360 [label="entropy = 0.0\nsamples = 1\nvalue = [0, 1]"] ;
352 -> 360 ;
361 [label="entropy = 0.0\nsamples = 1\nvalue = [0, 1]"] ;
351 -> 361 ;
362 [label="entropy = 0.0\nsamples = 1\nvalue = [1, 0]"] ;
350 -> 362 ;
363 [label="entropy = 0.0\nsamples = 1\nvalue = [0, 1]"] ;
349 -> 363 ;
364 [label="entropy = 0.0\nsamples = 1\nvalue = [1, 0]"] ;
348 -> 364 ;
365 [label="entropy = 0.0\nsamples = 1\nvalue = [0, 1]"] ;
347 -> 365 ;
366 [label="entropy = 0.0\nsamples = 2\nvalue = [0, 2]"] ;
346 -> 366 ;
367 [label="entropy = 0.0\nsamples = 4\nvalue = [0, 4]"] ;
345 -> 367 ;
368 [label="Stanbic IBTC <= 0.5\nentropy = 0.989\nsamples = 16\nvalue = [9, 7]"] ;
338 -> 368 ;
369 [label="Keystone Bank <= 0.5\nentropy = 0.971\nsamples = 15\nvalue = [9, 6]"] ;
368 -> 369 ;
370 [label="Wema Bank <= 0.5\nentropy = 0.94\nsamples = 14\nvalue = [9, 5]"] ;
369 -> 370 ;
371 [label="repaymentrank <= 2.5\nentropy = 0.89\nsamples = 13\nvalue = [9, 4]"] ;
370 -> 371 ;
372 [label="entropy = 0.0\nsamples = 1\nvalue = [0, 1]"] ;
371 -> 372 ;
373 [label="rankloanamt <= 2.5\nentropy = 0.811\nsamples = 12\nvalue = [9, 3]"] ;
371 -> 373 ;
374 [label="entropy = 0.0\nsamples = 3\nvalue = [3, 0]"] ;
373 -> 374 ;
375 [label="GT Bank <= 0.5\nentropy = 0.918\nsamples = 9\nvalue = [6, 3]"] ;
373 -> 375 ;
376 [label="rankloanamt <= 3.5\nentropy = 0.722\nsamples = 5\nvalue = [4, 1]"] ;
375 -> 376 ;
377 [label="entropy = 0.0\nsamples = 4\nvalue = [4, 0]"] ;
376 -> 377 ;
378 [label="entropy = 0.0\nsamples = 1\nvalue = [0, 1]"] ;
376 -> 378 ;
379 [label="rankloanamt <= 3.5\nentropy = 1.0\nsamples = 4\nvalue = [2, 2]"] ;
375 -> 379 ;
380 [label="agerank <= 1.5\nentropy = 0.918\nsamples = 3\nvalue = [1, 2]"] ;
379 -> 380 ;
381 [label="entropy = 1.0\nsamples = 2\nvalue = [1, 1]"] ;
380 -> 381 ;
382 [label="entropy = 0.0\nsamples = 1\nvalue = [0, 1]"] ;
380 -> 382 ;
383 [label="entropy = 0.0\nsamples = 1\nvalue = [1, 0]"] ;
379 -> 383 ;
384 [label="entropy = 0.0\nsamples = 1\nvalue = [0, 1]"] ;
370 -> 384 ;
385 [label="entropy = 0.0\nsamples = 1\nvalue = [0, 1]"] ;
369 -> 385 ;
386 [label="entropy = 0.0\nsamples = 1\nvalue = [0, 1]"] ;
368 -> 386 ;
387 [label="entropy = 0.0\nsamples = 1\nvalue = [1, 0]"] ;
337 -> 387 ;
388 [label="entropy = 0.0\nsamples = 2\nvalue = [0, 2]"] ;
336 -> 388 ;
389 [label="entropy = 0.0\nsamples = 4\nvalue = [0, 4]"] ;
335 -> 389 ;
390 [label="Student <= 0.5\nentropy = 0.65\nsamples = 12\nvalue = [10, 2]"] ;
118 -> 390 ;
391 [label="rankloanamt <= 1.5\nentropy = 0.439\nsamples = 11\nvalue = [10, 1]"] ;
390 -> 391 ;
392 [label="entropy = 0.0\nsamples = 5\nvalue = [5, 0]"] ;
391 -> 392 ;
393 [label="rankloannum <= 1.5\nentropy = 0.65\nsamples = 6\nvalue = [5, 1]"] ;
391 -> 393 ;
394 [label="termdays <= 22.5\nentropy = 0.918\nsamples = 3\nvalue = [2, 1]"] ;
393 -> 394 ;
395 [label="entropy = 0.0\nsamples = 1\nvalue = [1, 0]"] ;
394 -> 395 ;
396 [label="isreffered <= 0.5\nentropy = 1.0\nsamples = 2\nvalue = [1, 1]"] ;
394 -> 396 ;
397 [label="entropy = 0.0\nsamples = 1\nvalue = [0, 1]"] ;
396 -> 397 ;
398 [label="entropy = 0.0\nsamples = 1\nvalue = [1, 0]"] ;
396 -> 398 ;
399 [label="entropy = 0.0\nsamples = 3\nvalue = [3, 0]"] ;
393 -> 399 ;
400 [label="entropy = 0.0\nsamples = 1\nvalue = [0, 1]"] ;
390 -> 400 ;
}