digraph Tree {
node [shape=box] ;
0 [label="Savings <= 0.5\ngini = 0.5\nsamples = 400\nvalue = [200, 200]"] ;
1 [label="Zenith Bank <= 0.5\ngini = 0.455\nsamples = 123\nvalue = [43, 80]"] ;
0 -> 1 [labeldistance=2.5, labelangle=45, headlabel="True"] ;
2 [label="avgloanamtrank <= 1.5\ngini = 0.472\nsamples = 110\nvalue = [42, 68]"] ;
1 -> 2 ;
3 [label="gini = 0.0\nsamples = 3\nvalue = [0, 3]"] ;
2 -> 3 ;
4 [label="Unemployed <= 0.5\ngini = 0.477\nsamples = 107\nvalue = [42, 65]"] ;
2 -> 4 ;
5 [label="rankloanamt <= 1.5\ngini = 0.482\nsamples = 104\nvalue = [42, 62]"] ;
4 -> 5 ;
6 [label="agerank <= 2.5\ngini = 0.5\nsamples = 30\nvalue = [15, 15]"] ;
5 -> 6 ;
7 [label="repaymentrank <= 2.5\ngini = 0.497\nsamples = 28\nvalue = [15, 13]"] ;
6 -> 7 ;
8 [label="UBA <= 0.5\ngini = 0.459\nsamples = 14\nvalue = [9, 5]"] ;
7 -> 8 ;
9 [label="rankloannum <= 1.5\ngini = 0.375\nsamples = 12\nvalue = [9, 3]"] ;
8 -> 9 ;
10 [label="Permanent <= 0.5\ngini = 0.298\nsamples = 11\nvalue = [9, 2]"] ;
9 -> 10 ;
11 [label="GT Bank <= 0.5\ngini = 0.5\nsamples = 4\nvalue = [2, 2]"] ;
10 -> 11 ;
12 [label="gini = 0.0\nsamples = 2\nvalue = [2, 0]"] ;
11 -> 12 ;
13 [label="gini = 0.0\nsamples = 2\nvalue = [0, 2]"] ;
11 -> 13 ;
14 [label="gini = 0.0\nsamples = 7\nvalue = [7, 0]"] ;
10 -> 14 ;
15 [label="gini = 0.0\nsamples = 1\nvalue = [0, 1]"] ;
9 -> 15 ;
16 [label="gini = 0.0\nsamples = 2\nvalue = [0, 2]"] ;
8 -> 16 ;
17 [label="UBA <= 0.5\ngini = 0.49\nsamples = 14\nvalue = [6, 8]"] ;
7 -> 17 ;
18 [label="Access Bank <= 0.5\ngini = 0.473\nsamples = 13\nvalue = [5, 8]"] ;
17 -> 18 ;
19 [label="Current <= 0.5\ngini = 0.42\nsamples = 10\nvalue = [3, 7]"] ;
18 -> 19 ;
20 [label="agerank <= 1.5\ngini = 0.469\nsamples = 8\nvalue = [3, 5]"] ;
19 -> 20 ;
21 [label="gini = 0.0\nsamples = 1\nvalue = [1, 0]"] ;
20 -> 21 ;
22 [label="GT Bank <= 0.5\ngini = 0.408\nsamples = 7\nvalue = [2, 5]"] ;
20 -> 22 ;
23 [label="Permanent <= 0.5\ngini = 0.375\nsamples = 4\nvalue = [1, 3]"] ;
22 -> 23 ;
24 [label="gini = 0.0\nsamples = 1\nvalue = [0, 1]"] ;
23 -> 24 ;
25 [label="termdays <= 22.5\ngini = 0.444\nsamples = 3\nvalue = [1, 2]"] ;
23 -> 25 ;
26 [label="gini = 0.0\nsamples = 1\nvalue = [0, 1]"] ;
25 -> 26 ;
27 [label="gini = 0.5\nsamples = 2\nvalue = [1, 1]"] ;
25 -> 27 ;
28 [label="Self-Employed <= 0.5\ngini = 0.444\nsamples = 3\nvalue = [1, 2]"] ;
22 -> 28 ;
29 [label="gini = 0.0\nsamples = 1\nvalue = [0, 1]"] ;
28 -> 29 ;
30 [label="termdays <= 22.5\ngini = 0.5\nsamples = 2\nvalue = [1, 1]"] ;
28 -> 30 ;
31 [label="gini = 0.0\nsamples = 1\nvalue = [1, 0]"] ;
30 -> 31 ;
32 [label="gini = 0.0\nsamples = 1\nvalue = [0, 1]"] ;
30 -> 32 ;
33 [label="gini = 0.0\nsamples = 2\nvalue = [0, 2]"] ;
19 -> 33 ;
34 [label="termdays <= 22.5\ngini = 0.444\nsamples = 3\nvalue = [2, 1]"] ;
18 -> 34 ;
35 [label="Current <= 0.5\ngini = 0.5\nsamples = 2\nvalue = [1, 1]"] ;
34 -> 35 ;
36 [label="gini = 0.0\nsamples = 1\nvalue = [0, 1]"] ;
35 -> 36 ;
37 [label="gini = 0.0\nsamples = 1\nvalue = [1, 0]"] ;
35 -> 37 ;
38 [label="gini = 0.0\nsamples = 1\nvalue = [1, 0]"] ;
34 -> 38 ;
39 [label="gini = 0.0\nsamples = 1\nvalue = [1, 0]"] ;
17 -> 39 ;
40 [label="gini = 0.0\nsamples = 2\nvalue = [0, 2]"] ;
6 -> 40 ;
41 [label="termdays <= 45.0\ngini = 0.463\nsamples = 74\nvalue = [27, 47]"] ;
5 -> 41 ;
42 [label="First Bank <= 0.5\ngini = 0.42\nsamples = 50\nvalue = [15, 35]"] ;
41 -> 42 ;
43 [label="Sterling Bank <= 0.5\ngini = 0.395\nsamples = 48\nvalue = [13, 35]"] ;
42 -> 43 ;
44 [label="Self-Employed <= 0.5\ngini = 0.38\nsamples = 47\nvalue = [12, 35]"] ;
43 -> 44 ;
45 [label="EcoBank <= 0.5\ngini = 0.26\nsamples = 26\nvalue = [4, 22]"] ;
44 -> 45 ;
46 [label="UBA <= 0.5\ngini = 0.172\nsamples = 21\nvalue = [2, 19]"] ;
45 -> 46 ;
47 [label="Student <= 0.5\ngini = 0.1\nsamples = 19\nvalue = [1, 18]"] ;
46 -> 47 ;
48 [label="gini = 0.0\nsamples = 15\nvalue = [0, 15]"] ;
47 -> 48 ;
49 [label="rankloanamt <= 2.5\ngini = 0.375\nsamples = 4\nvalue = [1, 3]"] ;
47 -> 49 ;
50 [label="gini = 0.0\nsamples = 3\nvalue = [0, 3]"] ;
49 -> 50 ;
51 [label="gini = 0.0\nsamples = 1\nvalue = [1, 0]"] ;
49 -> 51 ;
52 [label="rankloannum <= 1.5\ngini = 0.5\nsamples = 2\nvalue = [1, 1]"] ;
46 -> 52 ;
53 [label="gini = 0.0\nsamples = 1\nvalue = [0, 1]"] ;
52 -> 53 ;
54 [label="gini = 0.0\nsamples = 1\nvalue = [1, 0]"] ;
52 -> 54 ;
55 [label="totalduerank <= 1.5\ngini = 0.48\nsamples = 5\nvalue = [2, 3]"] ;
45 -> 55 ;
56 [label="gini = 0.0\nsamples = 2\nvalue = [2, 0]"] ;
55 -> 56 ;
57 [label="gini = 0.0\nsamples = 3\nvalue = [0, 3]"] ;
55 -> 57 ;
58 [label="repaymentrank <= 2.5\ngini = 0.472\nsamples = 21\nvalue = [8, 13]"] ;
44 -> 58 ;
59 [label="avgloanamtrank <= 2.5\ngini = 0.444\nsamples = 6\nvalue = [4, 2]"] ;
58 -> 59 ;
60 [label="totalduerank <= 1.5\ngini = 0.32\nsamples = 5\nvalue = [4, 1]"] ;
59 -> 60 ;
61 [label="gini = 0.0\nsamples = 4\nvalue = [4, 0]"] ;
60 -> 61 ;
62 [label="gini = 0.0\nsamples = 1\nvalue = [0, 1]"] ;
60 -> 62 ;
63 [label="gini = 0.0\nsamples = 1\nvalue = [0, 1]"] ;
59 -> 63 ;
64 [label="Diamond Bank <= 0.5\ngini = 0.391\nsamples = 15\nvalue = [4, 11]"] ;
58 -> 64 ;
65 [label="avgloanamtrank <= 3.5\ngini = 0.337\nsamples = 14\nvalue = [3, 11]"] ;
64 -> 65 ;
66 [label="rankloannum <= 1.5\ngini = 0.278\nsamples = 12\nvalue = [2, 10]"] ;
65 -> 66 ;
67 [label="gini = 0.0\nsamples = 3\nvalue = [0, 3]"] ;
66 -> 67 ;
68 [label="UBA <= 0.5\ngini = 0.346\nsamples = 9\nvalue = [2, 7]"] ;
66 -> 68 ;
69 [label="GT Bank <= 0.5\ngini = 0.245\nsamples = 7\nvalue = [1, 6]"] ;
68 -> 69 ;
70 [label="gini = 0.0\nsamples = 3\nvalue = [0, 3]"] ;
69 -> 70 ;
71 [label="avgloanamtrank <= 2.5\ngini = 0.375\nsamples = 4\nvalue = [1, 3]"] ;
69 -> 71 ;
72 [label="rankloanamt <= 2.5\ngini = 0.5\nsamples = 2\nvalue = [1, 1]"] ;
71 -> 72 ;
73 [label="gini = 0.0\nsamples = 1\nvalue = [1, 0]"] ;
72 -> 73 ;
74 [label="gini = 0.0\nsamples = 1\nvalue = [0, 1]"] ;
72 -> 74 ;
75 [label="gini = 0.0\nsamples = 2\nvalue = [0, 2]"] ;
71 -> 75 ;
76 [label="avgloanamtrank <= 2.5\ngini = 0.5\nsamples = 2\nvalue = [1, 1]"] ;
68 -> 76 ;
77 [label="gini = 0.0\nsamples = 1\nvalue = [0, 1]"] ;
76 -> 77 ;
78 [label="gini = 0.0\nsamples = 1\nvalue = [1, 0]"] ;
76 -> 78 ;
79 [label="rankloannum <= 2.5\ngini = 0.5\nsamples = 2\nvalue = [1, 1]"] ;
65 -> 79 ;
80 [label="gini = 0.0\nsamples = 1\nvalue = [1, 0]"] ;
79 -> 80 ;
81 [label="gini = 0.0\nsamples = 1\nvalue = [0, 1]"] ;
79 -> 81 ;
82 [label="gini = 0.0\nsamples = 1\nvalue = [1, 0]"] ;
64 -> 82 ;
83 [label="gini = 0.0\nsamples = 1\nvalue = [1, 0]"] ;
43 -> 83 ;
84 [label="gini = 0.0\nsamples = 2\nvalue = [2, 0]"] ;
42 -> 84 ;
85 [label="GT Bank <= 0.5\ngini = 0.5\nsamples = 24\nvalue = [12, 12]"] ;
41 -> 85 ;
86 [label="Permanent <= 0.5\ngini = 0.463\nsamples = 11\nvalue = [4, 7]"] ;
85 -> 86 ;
87 [label="gini = 0.0\nsamples = 4\nvalue = [0, 4]"] ;
86 -> 87 ;
88 [label="UBA <= 0.5\ngini = 0.49\nsamples = 7\nvalue = [4, 3]"] ;
86 -> 88 ;
89 [label="rankloannum <= 1.5\ngini = 0.444\nsamples = 6\nvalue = [4, 2]"] ;
88 -> 89 ;
90 [label="rankloanamt <= 2.5\ngini = 0.5\nsamples = 4\nvalue = [2, 2]"] ;
89 -> 90 ;
91 [label="agerank <= 1.5\ngini = 0.444\nsamples = 3\nvalue = [2, 1]"] ;
90 -> 91 ;
92 [label="gini = 0.0\nsamples = 1\nvalue = [1, 0]"] ;
91 -> 92 ;
93 [label="gini = 0.5\nsamples = 2\nvalue = [1, 1]"] ;
91 -> 93 ;
94 [label="gini = 0.0\nsamples = 1\nvalue = [0, 1]"] ;
90 -> 94 ;
95 [label="gini = 0.0\nsamples = 2\nvalue = [2, 0]"] ;
89 -> 95 ;
96 [label="gini = 0.0\nsamples = 1\nvalue = [0, 1]"] ;
88 -> 96 ;
97 [label="rankloannum <= 2.5\ngini = 0.473\nsamples = 13\nvalue = [8, 5]"] ;
85 -> 97 ;
98 [label="Self-Employed <= 0.5\ngini = 0.444\nsamples = 12\nvalue = [8, 4]"] ;
97 -> 98 ;
99 [label="agerank <= 1.5\ngini = 0.5\nsamples = 8\nvalue = [4, 4]"] ;
98 -> 99 ;
100 [label="rankloannum <= 1.5\ngini = 0.444\nsamples = 6\nvalue = [4, 2]"] ;
99 -> 100 ;
101 [label="rankloanamt <= 2.5\ngini = 0.375\nsamples = 4\nvalue = [3, 1]"] ;
100 -> 101 ;
102 [label="avgloanamtrank <= 2.5\ngini = 0.5\nsamples = 2\nvalue = [1, 1]"] ;
101 -> 102 ;
103 [label="gini = 0.0\nsamples = 1\nvalue = [1, 0]"] ;
102 -> 103 ;
104 [label="gini = 0.0\nsamples = 1\nvalue = [0, 1]"] ;
102 -> 104 ;
105 [label="gini = 0.0\nsamples = 2\nvalue = [2, 0]"] ;
101 -> 105 ;
106 [label="avgloanamtrank <= 2.5\ngini = 0.5\nsamples = 2\nvalue = [1, 1]"] ;
100 -> 106 ;
107 [label="gini = 0.0\nsamples = 1\nvalue = [0, 1]"] ;
106 -> 107 ;
108 [label="gini = 0.0\nsamples = 1\nvalue = [1, 0]"] ;
106 -> 108 ;
109 [label="gini = 0.0\nsamples = 2\nvalue = [0, 2]"] ;
99 -> 109 ;
110 [label="gini = 0.0\nsamples = 4\nvalue = [4, 0]"] ;
98 -> 110 ;
111 [label="gini = 0.0\nsamples = 1\nvalue = [0, 1]"] ;
97 -> 111 ;
112 [label="gini = 0.0\nsamples = 3\nvalue = [0, 3]"] ;
4 -> 112 ;
113 [label="totalduerank <= 1.5\ngini = 0.142\nsamples = 13\nvalue = [1, 12]"] ;
1 -> 113 ;
114 [label="gini = 0.0\nsamples = 7\nvalue = [0, 7]"] ;
113 -> 114 ;
115 [label="avgloanamtrank <= 2.5\ngini = 0.278\nsamples = 6\nvalue = [1, 5]"] ;
113 -> 115 ;
116 [label="Permanent <= 0.5\ngini = 0.5\nsamples = 2\nvalue = [1, 1]"] ;
115 -> 116 ;
117 [label="gini = 0.0\nsamples = 1\nvalue = [1, 0]"] ;
116 -> 117 ;
118 [label="gini = 0.0\nsamples = 1\nvalue = [0, 1]"] ;
116 -> 118 ;
119 [label="gini = 0.0\nsamples = 4\nvalue = [0, 4]"] ;
115 -> 119 ;
120 [label="rankloanamt <= 1.5\ngini = 0.491\nsamples = 277\nvalue = [157, 120]"] ;
0 -> 120 [labeldistance=2.5, labelangle=-45, headlabel="False"] ;
121 [label="rankloannum <= 1.5\ngini = 0.459\nsamples = 151\nvalue = [97, 54]"] ;
120 -> 121 ;
122 [label="Diamond Bank <= 0.5\ngini = 0.446\nsamples = 146\nvalue = [97, 49]"] ;
121 -> 122 ;
123 [label="GT Bank <= 0.5\ngini = 0.431\nsamples = 137\nvalue = [94, 43]"] ;
122 -> 123 ;
124 [label="Fidelity Bank <= 0.5\ngini = 0.398\nsamples = 113\nvalue = [82, 31]"] ;
123 -> 124 ;
125 [label="Standard Chartered <= 0.5\ngini = 0.384\nsamples = 108\nvalue = [80, 28]"] ;
124 -> 125 ;
126 [label="repaymentrank <= 2.5\ngini = 0.377\nsamples = 107\nvalue = [80, 27]"] ;
125 -> 126 ;
127 [label="Unemployed <= 0.5\ngini = 0.282\nsamples = 47\nvalue = [39, 8]"] ;
126 -> 127 ;
128 [label="isreffered <= 0.5\ngini = 0.258\nsamples = 46\nvalue = [39, 7]"] ;
127 -> 128 ;
129 [label="Stanbic IBTC <= 0.5\ngini = 0.198\nsamples = 36\nvalue = [32, 4]"] ;
128 -> 129 ;
130 [label="agerank <= 2.5\ngini = 0.124\nsamples = 30\nvalue = [28, 2]"] ;
129 -> 130 ;
131 [label="First Bank <= 0.5\ngini = 0.071\nsamples = 27\nvalue = [26, 1]"] ;
130 -> 131 ;
132 [label="gini = 0.0\nsamples = 24\nvalue = [24, 0]"] ;
131 -> 132 ;
133 [label="termdays <= 22.5\ngini = 0.444\nsamples = 3\nvalue = [2, 1]"] ;
131 -> 133 ;
134 [label="gini = 0.0\nsamples = 2\nvalue = [2, 0]"] ;
133 -> 134 ;
135 [label="gini = 0.0\nsamples = 1\nvalue = [0, 1]"] ;
133 -> 135 ;
136 [label="First Bank <= 0.5\ngini = 0.444\nsamples = 3\nvalue = [2, 1]"] ;
130 -> 136 ;
137 [label="termdays <= 22.5\ngini = 0.5\nsamples = 2\nvalue = [1, 1]"] ;
136 -> 137 ;
138 [label="gini = 0.0\nsamples = 1\nvalue = [1, 0]"] ;
137 -> 138 ;
139 [label="gini = 0.0\nsamples = 1\nvalue = [0, 1]"] ;
137 -> 139 ;
140 [label="gini = 0.0\nsamples = 1\nvalue = [1, 0]"] ;
136 -> 140 ;
141 [label="agerank <= 1.5\ngini = 0.444\nsamples = 6\nvalue = [4, 2]"] ;
129 -> 141 ;
142 [label="termdays <= 22.5\ngini = 0.444\nsamples = 3\nvalue = [1, 2]"] ;
141 -> 142 ;
143 [label="gini = 0.0\nsamples = 1\nvalue = [0, 1]"] ;
142 -> 143 ;
144 [label="gini = 0.5\nsamples = 2\nvalue = [1, 1]"] ;
142 -> 144 ;
145 [label="gini = 0.0\nsamples = 3\nvalue = [3, 0]"] ;
141 -> 145 ;
146 [label="agerank <= 1.5\ngini = 0.42\nsamples = 10\nvalue = [7, 3]"] ;
128 -> 146 ;
147 [label="gini = 0.0\nsamples = 3\nvalue = [3, 0]"] ;
146 -> 147 ;
148 [label="UBA <= 0.5\ngini = 0.49\nsamples = 7\nvalue = [4, 3]"] ;
146 -> 148 ;
149 [label="Union Bank <= 0.5\ngini = 0.444\nsamples = 6\nvalue = [4, 2]"] ;
148 -> 149 ;
150 [label="First Bank <= 0.5\ngini = 0.48\nsamples = 5\nvalue = [3, 2]"] ;
149 -> 150 ;
151 [label="termdays <= 22.5\ngini = 0.5\nsamples = 2\nvalue = [1, 1]"] ;
150 -> 151 ;
152 [label="gini = 0.0\nsamples = 1\nvalue = [0, 1]"] ;
151 -> 152 ;
153 [label="gini = 0.0\nsamples = 1\nvalue = [1, 0]"] ;
151 -> 153 ;
154 [label="termdays <= 22.5\ngini = 0.444\nsamples = 3\nvalue = [2, 1]"] ;
150 -> 154 ;
155 [label="gini = 0.0\nsamples = 1\nvalue = [1, 0]"] ;
154 -> 155 ;
156 [label="gini = 0.5\nsamples = 2\nvalue = [1, 1]"] ;
154 -> 156 ;
157 [label="gini = 0.0\nsamples = 1\nvalue = [1, 0]"] ;
149 -> 157 ;
158 [label="gini = 0.0\nsamples = 1\nvalue = [0, 1]"] ;
148 -> 158 ;
159 [label="gini = 0.0\nsamples = 1\nvalue = [0, 1]"] ;
127 -> 159 ;
160 [label="Union Bank <= 0.5\ngini = 0.433\nsamples = 60\nvalue = [41, 19]"] ;
126 -> 160 ;
161 [label="termdays <= 22.5\ngini = 0.424\nsamples = 59\nvalue = [41, 18]"] ;
160 -> 161 ;
162 [label="agerank <= 1.5\ngini = 0.48\nsamples = 20\nvalue = [12, 8]"] ;
161 -> 162 ;
163 [label="EcoBank <= 0.5\ngini = 0.463\nsamples = 11\nvalue = [4, 7]"] ;
162 -> 163 ;
164 [label="isreffered <= 0.5\ngini = 0.42\nsamples = 10\nvalue = [3, 7]"] ;
163 -> 164 ;
165 [label="Permanent <= 0.5\ngini = 0.245\nsamples = 7\nvalue = [1, 6]"] ;
164 -> 165 ;
166 [label="First Bank <= 0.5\ngini = 0.5\nsamples = 2\nvalue = [1, 1]"] ;
165 -> 166 ;
167 [label="gini = 0.0\nsamples = 1\nvalue = [1, 0]"] ;
166 -> 167 ;
168 [label="gini = 0.0\nsamples = 1\nvalue = [0, 1]"] ;
166 -> 168 ;
169 [label="gini = 0.0\nsamples = 5\nvalue = [0, 5]"] ;
165 -> 169 ;
170 [label="Stanbic IBTC <= 0.5\ngini = 0.444\nsamples = 3\nvalue = [2, 1]"] ;
164 -> 170 ;
171 [label="gini = 0.0\nsamples = 2\nvalue = [2, 0]"] ;
170 -> 171 ;
172 [label="gini = 0.0\nsamples = 1\nvalue = [0, 1]"] ;
170 -> 172 ;
173 [label="gini = 0.0\nsamples = 1\nvalue = [1, 0]"] ;
163 -> 173 ;
174 [label="EcoBank <= 0.5\ngini = 0.198\nsamples = 9\nvalue = [8, 1]"] ;
162 -> 174 ;
175 [label="gini = 0.0\nsamples = 8\nvalue = [8, 0]"] ;
174 -> 175 ;
176 [label="gini = 0.0\nsamples = 1\nvalue = [0, 1]"] ;
174 -> 176 ;
177 [label="agerank <= 1.5\ngini = 0.381\nsamples = 39\nvalue = [29, 10]"] ;
161 -> 177 ;
178 [label="Skye Bank <= 0.5\ngini = 0.142\nsamples = 13\nvalue = [12, 1]"] ;
177 -> 178 ;
179 [label="gini = 0.0\nsamples = 10\nvalue = [10, 0]"] ;
178 -> 179 ;
180 [label="isreffered <= 0.5\ngini = 0.444\nsamples = 3\nvalue = [2, 1]"] ;
178 -> 180 ;
181 [label="gini = 0.5\nsamples = 2\nvalue = [1, 1]"] ;
180 -> 181 ;
182 [label="gini = 0.0\nsamples = 1\nvalue = [1, 0]"] ;
180 -> 182 ;
183 [label="Keystone Bank <= 0.5\ngini = 0.453\nsamples = 26\nvalue = [17, 9]"] ;
177 -> 183 ;
184 [label="FCMB <= 0.5\ngini = 0.435\nsamples = 25\nvalue = [17, 8]"] ;
183 -> 184 ;
185 [label="avgloanamtrank <= 1.5\ngini = 0.454\nsamples = 23\nvalue = [15, 8]"] ;
184 -> 185 ;
186 [label="gini = 0.0\nsamples = 2\nvalue = [2, 0]"] ;
185 -> 186 ;
187 [label="Self-Employed <= 0.5\ngini = 0.472\nsamples = 21\nvalue = [13, 8]"] ;
185 -> 187 ;
188 [label="Zenith Bank <= 0.5\ngini = 0.455\nsamples = 20\nvalue = [13, 7]"] ;
187 -> 188 ;
189 [label="Wema Bank <= 0.5\ngini = 0.465\nsamples = 19\nvalue = [12, 7]"] ;
188 -> 189 ;
190 [label="First Bank <= 0.5\ngini = 0.475\nsamples = 18\nvalue = [11, 7]"] ;
189 -> 190 ;
191 [label="isreffered <= 0.5\ngini = 0.49\nsamples = 14\nvalue = [8, 6]"] ;
190 -> 191 ;
192 [label="Access Bank <= 0.5\ngini = 0.5\nsamples = 10\nvalue = [5, 5]"] ;
191 -> 192 ;
193 [label="Permanent <= 0.5\ngini = 0.494\nsamples = 9\nvalue = [4, 5]"] ;
192 -> 193 ;
194 [label="gini = 0.0\nsamples = 2\nvalue = [0, 2]"] ;
193 -> 194 ;
195 [label="Skye Bank <= 0.5\ngini = 0.49\nsamples = 7\nvalue = [4, 3]"] ;
193 -> 195 ;
196 [label="Stanbic IBTC <= 0.5\ngini = 0.444\nsamples = 6\nvalue = [4, 2]"] ;
195 -> 196 ;
197 [label="EcoBank <= 0.5\ngini = 0.48\nsamples = 5\nvalue = [3, 2]"] ;
196 -> 197 ;
198 [label="Sterling Bank <= 0.5\ngini = 0.5\nsamples = 4\nvalue = [2, 2]"] ;
197 -> 198 ;
199 [label="gini = 0.5\nsamples = 2\nvalue = [1, 1]"] ;
198 -> 199 ;
200 [label="gini = 0.5\nsamples = 2\nvalue = [1, 1]"] ;
198 -> 200 ;
201 [label="gini = 0.0\nsamples = 1\nvalue = [1, 0]"] ;
197 -> 201 ;
202 [label="gini = 0.0\nsamples = 1\nvalue = [1, 0]"] ;
196 -> 202 ;
203 [label="gini = 0.0\nsamples = 1\nvalue = [0, 1]"] ;
195 -> 203 ;
204 [label="gini = 0.0\nsamples = 1\nvalue = [1, 0]"] ;
192 -> 204 ;
205 [label="Access Bank <= 0.5\ngini = 0.375\nsamples = 4\nvalue = [3, 1]"] ;
191 -> 205 ;
206 [label="gini = 0.0\nsamples = 3\nvalue = [3, 0]"] ;
205 -> 206 ;
207 [label="gini = 0.0\nsamples = 1\nvalue = [0, 1]"] ;
205 -> 207 ;
208 [label="isreffered <= 0.5\ngini = 0.375\nsamples = 4\nvalue = [3, 1]"] ;
190 -> 208 ;
209 [label="gini = 0.0\nsamples = 2\nvalue = [2, 0]"] ;
208 -> 209 ;
210 [label="gini = 0.5\nsamples = 2\nvalue = [1, 1]"] ;
208 -> 210 ;
211 [label="gini = 0.0\nsamples = 1\nvalue = [1, 0]"] ;
189 -> 211 ;
212 [label="gini = 0.0\nsamples = 1\nvalue = [1, 0]"] ;
188 -> 212 ;
213 [label="gini = 0.0\nsamples = 1\nvalue = [0, 1]"] ;
187 -> 213 ;
214 [label="gini = 0.0\nsamples = 2\nvalue = [2, 0]"] ;
184 -> 214 ;
215 [label="gini = 0.0\nsamples = 1\nvalue = [0, 1]"] ;
183 -> 215 ;
216 [label="gini = 0.0\nsamples = 1\nvalue = [0, 1]"] ;
160 -> 216 ;
217 [label="gini = 0.0\nsamples = 1\nvalue = [0, 1]"] ;
125 -> 217 ;
218 [label="agerank <= 1.5\ngini = 0.48\nsamples = 5\nvalue = [2, 3]"] ;
124 -> 218 ;
219 [label="gini = 0.0\nsamples = 2\nvalue = [0, 2]"] ;
218 -> 219 ;
220 [label="termdays <= 22.5\ngini = 0.444\nsamples = 3\nvalue = [2, 1]"] ;
218 -> 220 ;
221 [label="repaymentrank <= 2.5\ngini = 0.5\nsamples = 2\nvalue = [1, 1]"] ;
220 -> 221 ;
222 [label="gini = 0.0\nsamples = 1\nvalue = [0, 1]"] ;
221 -> 222 ;
223 [label="gini = 0.0\nsamples = 1\nvalue = [1, 0]"] ;
221 -> 223 ;
224 [label="gini = 0.0\nsamples = 1\nvalue = [1, 0]"] ;
220 -> 224 ;
225 [label="Retired <= 0.5\ngini = 0.5\nsamples = 24\nvalue = [12, 12]"] ;
123 -> 225 ;
226 [label="isreffered <= 0.5\ngini = 0.499\nsamples = 23\nvalue = [11, 12]"] ;
225 -> 226 ;
227 [label="repaymentrank <= 2.5\ngini = 0.48\nsamples = 15\nvalue = [6, 9]"] ;
226 -> 227 ;
228 [label="Unemployed <= 0.5\ngini = 0.48\nsamples = 5\nvalue = [3, 2]"] ;
227 -> 228 ;
229 [label="gini = 0.0\nsamples = 3\nvalue = [3, 0]"] ;
228 -> 229 ;
230 [label="gini = 0.0\nsamples = 2\nvalue = [0, 2]"] ;
228 -> 230 ;
231 [label="Unemployed <= 0.5\ngini = 0.42\nsamples = 10\nvalue = [3, 7]"] ;
227 -> 231 ;
232 [label="agerank <= 1.5\ngini = 0.346\nsamples = 9\nvalue = [2, 7]"] ;
231 -> 232 ;
233 [label="Permanent <= 0.5\ngini = 0.48\nsamples = 5\nvalue = [2, 3]"] ;
232 -> 233 ;
234 [label="termdays <= 22.5\ngini = 0.375\nsamples = 4\nvalue = [1, 3]"] ;
233 -> 234 ;
235 [label="Self-Employed <= 0.5\ngini = 0.444\nsamples = 3\nvalue = [1, 2]"] ;
234 -> 235 ;
236 [label="gini = 0.0\nsamples = 1\nvalue = [0, 1]"] ;
235 -> 236 ;
237 [label="gini = 0.5\nsamples = 2\nvalue = [1, 1]"] ;
235 -> 237 ;
238 [label="gini = 0.0\nsamples = 1\nvalue = [0, 1]"] ;
234 -> 238 ;
239 [label="gini = 0.0\nsamples = 1\nvalue = [1, 0]"] ;
233 -> 239 ;
240 [label="gini = 0.0\nsamples = 4\nvalue = [0, 4]"] ;
232 -> 240 ;
241 [label="gini = 0.0\nsamples = 1\nvalue = [1, 0]"] ;
231 -> 241 ;
242 [label="termdays <= 22.5\ngini = 0.469\nsamples = 8\nvalue = [5, 3]"] ;
226 -> 242 ;
243 [label="Self-Employed <= 0.5\ngini = 0.5\nsamples = 4\nvalue = [2, 2]"] ;
242 -> 243 ;
244 [label="repaymentrank <= 2.5\ngini = 0.5\nsamples = 2\nvalue = [1, 1]"] ;
243 -> 244 ;
245 [label="gini = 0.0\nsamples = 1\nvalue = [0, 1]"] ;
244 -> 245 ;
246 [label="gini = 0.0\nsamples = 1\nvalue = [1, 0]"] ;
244 -> 246 ;
247 [label="repaymentrank <= 2.5\ngini = 0.5\nsamples = 2\nvalue = [1, 1]"] ;
243 -> 247 ;
248 [label="gini = 0.0\nsamples = 1\nvalue = [1, 0]"] ;
247 -> 248 ;
249 [label="gini = 0.0\nsamples = 1\nvalue = [0, 1]"] ;
247 -> 249 ;
250 [label="agerank <= 1.5\ngini = 0.375\nsamples = 4\nvalue = [3, 1]"] ;
242 -> 250 ;
251 [label="repaymentrank <= 2.5\ngini = 0.5\nsamples = 2\nvalue = [1, 1]"] ;
250 -> 251 ;
252 [label="gini = 0.0\nsamples = 1\nvalue = [0, 1]"] ;
251 -> 252 ;
253 [label="gini = 0.0\nsamples = 1\nvalue = [1, 0]"] ;
251 -> 253 ;
254 [label="gini = 0.0\nsamples = 2\nvalue = [2, 0]"] ;
250 -> 254 ;
255 [label="gini = 0.0\nsamples = 1\nvalue = [1, 0]"] ;
225 -> 255 ;
256 [label="repaymentrank <= 2.5\ngini = 0.444\nsamples = 9\nvalue = [3, 6]"] ;
122 -> 256 ;
257 [label="agerank <= 1.5\ngini = 0.48\nsamples = 5\nvalue = [3, 2]"] ;
256 -> 257 ;
258 [label="termdays <= 22.5\ngini = 0.444\nsamples = 3\nvalue = [1, 2]"] ;
257 -> 258 ;
259 [label="gini = 0.0\nsamples = 1\nvalue = [1, 0]"] ;
258 -> 259 ;
260 [label="gini = 0.0\nsamples = 2\nvalue = [0, 2]"] ;
258 -> 260 ;
261 [label="gini = 0.0\nsamples = 2\nvalue = [2, 0]"] ;
257 -> 261 ;
262 [label="gini = 0.0\nsamples = 4\nvalue = [0, 4]"] ;
256 -> 262 ;
263 [label="gini = 0.0\nsamples = 5\nvalue = [0, 5]"] ;
121 -> 263 ;
264 [label="First Bank <= 0.5\ngini = 0.499\nsamples = 126\nvalue = [60, 66]"] ;
120 -> 264 ;
265 [label="Student <= 0.5\ngini = 0.495\nsamples = 115\nvalue = [52, 63]"] ;
264 -> 265 ;
266 [label="termdays <= 22.5\ngini = 0.491\nsamples = 109\nvalue = [47, 62]"] ;
265 -> 266 ;
267 [label="Permanent <= 0.5\ngini = 0.444\nsamples = 12\nvalue = [8, 4]"] ;
266 -> 267 ;
268 [label="gini = 0.0\nsamples = 1\nvalue = [0, 1]"] ;
267 -> 268 ;
269 [label="Stanbic IBTC <= 0.5\ngini = 0.397\nsamples = 11\nvalue = [8, 3]"] ;
267 -> 269 ;
270 [label="UBA <= 0.5\ngini = 0.32\nsamples = 10\nvalue = [8, 2]"] ;
269 -> 270 ;
271 [label="rankloannum <= 1.5\ngini = 0.219\nsamples = 8\nvalue = [7, 1]"] ;
270 -> 271 ;
272 [label="gini = 0.0\nsamples = 6\nvalue = [6, 0]"] ;
271 -> 272 ;
273 [label="repaymentrank <= 2.5\ngini = 0.5\nsamples = 2\nvalue = [1, 1]"] ;
271 -> 273 ;
274 [label="gini = 0.0\nsamples = 1\nvalue = [1, 0]"] ;
273 -> 274 ;
275 [label="gini = 0.0\nsamples = 1\nvalue = [0, 1]"] ;
273 -> 275 ;
276 [label="gini = 0.5\nsamples = 2\nvalue = [1, 1]"] ;
270 -> 276 ;
277 [label="gini = 0.0\nsamples = 1\nvalue = [0, 1]"] ;
269 -> 277 ;
278 [label="termdays <= 45.0\ngini = 0.481\nsamples = 97\nvalue = [39, 58]"] ;
266 -> 278 ;
279 [label="EcoBank <= 0.5\ngini = 0.465\nsamples = 79\nvalue = [29, 50]"] ;
278 -> 279 ;
280 [label="Heritage Bank <= 0.5\ngini = 0.45\nsamples = 73\nvalue = [25, 48]"] ;
279 -> 280 ;
281 [label="Self-Employed <= 0.5\ngini = 0.444\nsamples = 72\nvalue = [24, 48]"] ;
280 -> 281 ;
282 [label="Zenith Bank <= 0.5\ngini = 0.468\nsamples = 59\nvalue = [22, 37]"] ;
281 -> 282 ;
283 [label="repaymentrank <= 3.5\ngini = 0.449\nsamples = 53\nvalue = [18, 35]"] ;
282 -> 283 ;
284 [label="FCMB <= 0.5\ngini = 0.44\nsamples = 52\nvalue = [17, 35]"] ;
283 -> 284 ;
285 [label="agerank <= 2.5\ngini = 0.418\nsamples = 47\nvalue = [14, 33]"] ;
284 -> 285 ;
286 [label="Sterling Bank <= 0.5\ngini = 0.444\nsamples = 39\nvalue = [13, 26]"] ;
285 -> 286 ;
287 [label="Fidelity Bank <= 0.5\ngini = 0.432\nsamples = 38\nvalue = [12, 26]"] ;
286 -> 287 ;
288 [label="agerank <= 1.5\ngini = 0.418\nsamples = 37\nvalue = [11, 26]"] ;
287 -> 288 ;
289 [label="UBA <= 0.5\ngini = 0.346\nsamples = 18\nvalue = [4, 14]"] ;
288 -> 289 ;
290 [label="repaymentrank <= 2.5\ngini = 0.305\nsamples = 16\nvalue = [3, 13]"] ;
289 -> 290 ;
291 [label="rankloannum <= 1.5\ngini = 0.408\nsamples = 7\nvalue = [2, 5]"] ;
290 -> 291 ;
292 [label="GT Bank <= 0.5\ngini = 0.278\nsamples = 6\nvalue = [1, 5]"] ;
291 -> 292 ;
293 [label="gini = 0.0\nsamples = 2\nvalue = [0, 2]"] ;
292 -> 293 ;
294 [label="totalduerank <= 1.5\ngini = 0.375\nsamples = 4\nvalue = [1, 3]"] ;
292 -> 294 ;
295 [label="Unemployed <= 0.5\ngini = 0.444\nsamples = 3\nvalue = [1, 2]"] ;
294 -> 295 ;
296 [label="gini = 0.5\nsamples = 2\nvalue = [1, 1]"] ;
295 -> 296 ;
297 [label="gini = 0.0\nsamples = 1\nvalue = [0, 1]"] ;
295 -> 297 ;
298 [label="gini = 0.0\nsamples = 1\nvalue = [0, 1]"] ;
294 -> 298 ;
299 [label="gini = 0.0\nsamples = 1\nvalue = [1, 0]"] ;
291 -> 299 ;
300 [label="totalduerank <= 1.5\ngini = 0.198\nsamples = 9\nvalue = [1, 8]"] ;
290 -> 300 ;
301 [label="Stanbic IBTC <= 0.5\ngini = 0.5\nsamples = 2\nvalue = [1, 1]"] ;
300 -> 301 ;
302 [label="gini = 0.0\nsamples = 1\nvalue = [0, 1]"] ;
301 -> 302 ;
303 [label="gini = 0.0\nsamples = 1\nvalue = [1, 0]"] ;
301 -> 303 ;
304 [label="gini = 0.0\nsamples = 7\nvalue = [0, 7]"] ;
300 -> 304 ;
305 [label="totalduerank <= 1.5\ngini = 0.5\nsamples = 2\nvalue = [1, 1]"] ;
289 -> 305 ;
306 [label="gini = 0.0\nsamples = 1\nvalue = [0, 1]"] ;
305 -> 306 ;
307 [label="gini = 0.0\nsamples = 1\nvalue = [1, 0]"] ;
305 -> 307 ;
308 [label="Skye Bank <= 0.5\ngini = 0.465\nsamples = 19\nvalue = [7, 12]"] ;
288 -> 308 ;
309 [label="Stanbic IBTC <= 0.5\ngini = 0.444\nsamples = 18\nvalue = [6, 12]"] ;
308 -> 309 ;
310 [label="rankloannum <= 1.5\ngini = 0.469\nsamples = 16\nvalue = [6, 10]"] ;
309 -> 310 ;
311 [label="GT Bank <= 0.5\ngini = 0.397\nsamples = 11\nvalue = [3, 8]"] ;
310 -> 311 ;
312 [label="Access Bank <= 0.5\ngini = 0.245\nsamples = 7\nvalue = [1, 6]"] ;
311 -> 312 ;
313 [label="gini = 0.0\nsamples = 5\nvalue = [0, 5]"] ;
312 -> 313 ;
314 [label="gini = 0.5\nsamples = 2\nvalue = [1, 1]"] ;
312 -> 314 ;
315 [label="avgloanamtrank <= 2.5\ngini = 0.5\nsamples = 4\nvalue = [2, 2]"] ;
311 -> 315 ;
316 [label="isreffered <= 0.5\ngini = 0.444\nsamples = 3\nvalue = [2, 1]"] ;
315 -> 316 ;
317 [label="gini = 0.0\nsamples = 2\nvalue = [2, 0]"] ;
316 -> 317 ;
318 [label="gini = 0.0\nsamples = 1\nvalue = [0, 1]"] ;
316 -> 318 ;
319 [label="gini = 0.0\nsamples = 1\nvalue = [0, 1]"] ;
315 -> 319 ;
320 [label="GT Bank <= 0.5\ngini = 0.48\nsamples = 5\nvalue = [3, 2]"] ;
310 -> 320 ;
321 [label="Keystone Bank <= 0.5\ngini = 0.375\nsamples = 4\nvalue = [3, 1]"] ;
320 -> 321 ;
322 [label="gini = 0.0\nsamples = 2\nvalue = [2, 0]"] ;
321 -> 322 ;
323 [label="gini = 0.5\nsamples = 2\nvalue = [1, 1]"] ;
321 -> 323 ;
324 [label="gini = 0.0\nsamples = 1\nvalue = [0, 1]"] ;
320 -> 324 ;
325 [label="gini = 0.0\nsamples = 2\nvalue = [0, 2]"] ;
309 -> 325 ;
326 [label="gini = 0.0\nsamples = 1\nvalue = [1, 0]"] ;
308 -> 326 ;
327 [label="gini = 0.0\nsamples = 1\nvalue = [1, 0]"] ;
287 -> 327 ;
328 [label="gini = 0.0\nsamples = 1\nvalue = [1, 0]"] ;
286 -> 328 ;
329 [label="repaymentrank <= 2.5\ngini = 0.219\nsamples = 8\nvalue = [1, 7]"] ;
285 -> 329 ;
330 [label="gini = 0.0\nsamples = 1\nvalue = [1, 0]"] ;
329 -> 330 ;
331 [label="gini = 0.0\nsamples = 7\nvalue = [0, 7]"] ;
329 -> 331 ;
332 [label="isreffered <= 0.5\ngini = 0.48\nsamples = 5\nvalue = [3, 2]"] ;
284 -> 332 ;
333 [label="avgloanamtrank <= 2.5\ngini = 0.444\nsamples = 3\nvalue = [1, 2]"] ;
332 -> 333 ;
334 [label="gini = 0.0\nsamples = 1\nvalue = [0, 1]"] ;
333 -> 334 ;
335 [label="gini = 0.5\nsamples = 2\nvalue = [1, 1]"] ;
333 -> 335 ;
336 [label="gini = 0.0\nsamples = 2\nvalue = [2, 0]"] ;
332 -> 336 ;
337 [label="gini = 0.0\nsamples = 1\nvalue = [1, 0]"] ;
283 -> 337 ;
338 [label="repaymentrank <= 2.5\ngini = 0.444\nsamples = 6\nvalue = [4, 2]"] ;
282 -> 338 ;
339 [label="gini = 0.0\nsamples = 1\nvalue = [0, 1]"] ;
338 -> 339 ;
340 [label="avgloanamtrank <= 2.5\ngini = 0.32\nsamples = 5\nvalue = [4, 1]"] ;
338 -> 340 ;
341 [label="gini = 0.0\nsamples = 2\nvalue = [2, 0]"] ;
340 -> 341 ;
342 [label="rankloannum <= 1.5\ngini = 0.444\nsamples = 3\nvalue = [2, 1]"] ;
340 -> 342 ;
343 [label="gini = 0.0\nsamples = 1\nvalue = [0, 1]"] ;
342 -> 343 ;
344 [label="gini = 0.0\nsamples = 2\nvalue = [2, 0]"] ;
342 -> 344 ;
345 [label="Diamond Bank <= 0.5\ngini = 0.26\nsamples = 13\nvalue = [2, 11]"] ;
281 -> 345 ;
346 [label="repaymentrank <= 2.5\ngini = 0.153\nsamples = 12\nvalue = [1, 11]"] ;
345 -> 346 ;
347 [label="GT Bank <= 0.5\ngini = 0.375\nsamples = 4\nvalue = [1, 3]"] ;
346 -> 347 ;
348 [label="gini = 0.0\nsamples = 3\nvalue = [0, 3]"] ;
347 -> 348 ;
349 [label="gini = 0.0\nsamples = 1\nvalue = [1, 0]"] ;
347 -> 349 ;
350 [label="gini = 0.0\nsamples = 8\nvalue = [0, 8]"] ;
346 -> 350 ;
351 [label="gini = 0.0\nsamples = 1\nvalue = [1, 0]"] ;
345 -> 351 ;
352 [label="gini = 0.0\nsamples = 1\nvalue = [1, 0]"] ;
280 -> 352 ;
353 [label="avgloanamtrank <= 1.5\ngini = 0.444\nsamples = 6\nvalue = [4, 2]"] ;
279 -> 353 ;
354 [label="gini = 0.0\nsamples = 1\nvalue = [0, 1]"] ;
353 -> 354 ;
355 [label="totalduerank <= 1.5\ngini = 0.32\nsamples = 5\nvalue = [4, 1]"] ;
353 -> 355 ;
356 [label="agerank <= 1.5\ngini = 0.444\nsamples = 3\nvalue = [2, 1]"] ;
355 -> 356 ;
357 [label="isreffered <= 0.5\ngini = 0.5\nsamples = 2\nvalue = [1, 1]"] ;
356 -> 357 ;
358 [label="gini = 0.0\nsamples = 1\nvalue = [0, 1]"] ;
357 -> 358 ;
359 [label="gini = 0.0\nsamples = 1\nvalue = [1, 0]"] ;
357 -> 359 ;
360 [label="gini = 0.0\nsamples = 1\nvalue = [1, 0]"] ;
356 -> 360 ;
361 [label="gini = 0.0\nsamples = 2\nvalue = [2, 0]"] ;
355 -> 361 ;
362 [label="rankloanamt <= 2.5\ngini = 0.494\nsamples = 18\nvalue = [10, 8]"] ;
278 -> 362 ;
363 [label="Diamond Bank <= 0.5\ngini = 0.397\nsamples = 11\nvalue = [8, 3]"] ;
362 -> 363 ;
364 [label="Union Bank <= 0.5\ngini = 0.198\nsamples = 9\nvalue = [8, 1]"] ;
363 -> 364 ;
365 [label="gini = 0.0\nsamples = 8\nvalue = [8, 0]"] ;
364 -> 365 ;
366 [label="gini = 0.0\nsamples = 1\nvalue = [0, 1]"] ;
364 -> 366 ;
367 [label="gini = 0.0\nsamples = 2\nvalue = [0, 2]"] ;
363 -> 367 ;
368 [label="Zenith Bank <= 0.5\ngini = 0.408\nsamples = 7\nvalue = [2, 5]"] ;
362 -> 368 ;
369 [label="GT Bank <= 0.5\ngini = 0.278\nsamples = 6\nvalue = [1, 5]"] ;
368 -> 369 ;
370 [label="gini = 0.0\nsamples = 3\nvalue = [0, 3]"] ;
369 -> 370 ;
371 [label="rankloannum <= 1.5\ngini = 0.444\nsamples = 3\nvalue = [1, 2]"] ;
369 -> 371 ;
372 [label="gini = 0.0\nsamples = 2\nvalue = [0, 2]"] ;
371 -> 372 ;
373 [label="gini = 0.0\nsamples = 1\nvalue = [1, 0]"] ;
371 -> 373 ;
374 [label="gini = 0.0\nsamples = 1\nvalue = [1, 0]"] ;
368 -> 374 ;
375 [label="totalduerank <= 1.5\ngini = 0.278\nsamples = 6\nvalue = [5, 1]"] ;
265 -> 375 ;
376 [label="isreffered <= 0.5\ngini = 0.5\nsamples = 2\nvalue = [1, 1]"] ;
375 -> 376 ;
377 [label="gini = 0.0\nsamples = 1\nvalue = [0, 1]"] ;
376 -> 377 ;
378 [label="gini = 0.0\nsamples = 1\nvalue = [1, 0]"] ;
376 -> 378 ;
379 [label="gini = 0.0\nsamples = 4\nvalue = [4, 0]"] ;
375 -> 379 ;
380 [label="repaymentrank <= 2.5\ngini = 0.397\nsamples = 11\nvalue = [8, 3]"] ;
264 -> 380 ;
381 [label="gini = 0.0\nsamples = 4\nvalue = [4, 0]"] ;
380 -> 381 ;
382 [label="agerank <= 1.5\ngini = 0.49\nsamples = 7\nvalue = [4, 3]"] ;
380 -> 382 ;
383 [label="gini = 0.0\nsamples = 1\nvalue = [0, 1]"] ;
382 -> 383 ;
384 [label="Self-Employed <= 0.5\ngini = 0.444\nsamples = 6\nvalue = [4, 2]"] ;
382 -> 384 ;
385 [label="termdays <= 45.0\ngini = 0.48\nsamples = 5\nvalue = [3, 2]"] ;
384 -> 385 ;
386 [label="rankloanamt <= 2.5\ngini = 0.5\nsamples = 4\nvalue = [2, 2]"] ;
385 -> 386 ;
387 [label="agerank <= 2.5\ngini = 0.444\nsamples = 3\nvalue = [2, 1]"] ;
386 -> 387 ;
388 [label="avgloanamtrank <= 2.5\ngini = 0.5\nsamples = 2\nvalue = [1, 1]"] ;
387 -> 388 ;
389 [label="gini = 0.0\nsamples = 1\nvalue = [0, 1]"] ;
388 -> 389 ;
390 [label="gini = 0.0\nsamples = 1\nvalue = [1, 0]"] ;
388 -> 390 ;
391 [label="gini = 0.0\nsamples = 1\nvalue = [1, 0]"] ;
387 -> 391 ;
392 [label="gini = 0.0\nsamples = 1\nvalue = [0, 1]"] ;
386 -> 392 ;
393 [label="gini = 0.0\nsamples = 1\nvalue = [1, 0]"] ;
385 -> 393 ;
394 [label="gini = 0.0\nsamples = 1\nvalue = [1, 0]"] ;
384 -> 394 ;
}