digraph Tree {
node [shape=box] ;
0 [label="Savings <= 0.5\ngini = 0.5\nsamples = 400\nvalue = [200, 200]"] ;
1 [label="Diamond Bank <= 0.5\ngini = 0.434\nsamples = 138\nvalue = [44, 94]"] ;
0 -> 1 [labeldistance=2.5, labelangle=45, headlabel="True"] ;
2 [label="agerank <= 2.5\ngini = 0.446\nsamples = 131\nvalue = [44, 87]"] ;
1 -> 2 ;
3 [label="rankloannum <= 2.5\ngini = 0.458\nsamples = 124\nvalue = [44, 80]"] ;
2 -> 3 ;
4 [label="Unemployed <= 0.5\ngini = 0.464\nsamples = 120\nvalue = [44, 76]"] ;
3 -> 4 ;
5 [label="rankloanamt <= 2.5\ngini = 0.471\nsamples = 116\nvalue = [44, 72]"] ;
4 -> 5 ;
6 [label="rankloanamt <= 1.5\ngini = 0.452\nsamples = 87\nvalue = [30, 57]"] ;
5 -> 6 ;
7 [label="First Bank <= 0.5\ngini = 0.495\nsamples = 31\nvalue = [14, 17]"] ;
6 -> 7 ;
8 [label="Permanent <= 0.5\ngini = 0.469\nsamples = 24\nvalue = [9, 15]"] ;
7 -> 8 ;
9 [label="repaymentrank <= 2.5\ngini = 0.278\nsamples = 6\nvalue = [1, 5]"] ;
8 -> 9 ;
10 [label="gini = 0.0\nsamples = 3\nvalue = [0, 3]"] ;
9 -> 10 ;
11 [label="termdays <= 22.5\ngini = 0.444\nsamples = 3\nvalue = [1, 2]"] ;
9 -> 11 ;
12 [label="gini = 0.0\nsamples = 1\nvalue = [1, 0]"] ;
11 -> 12 ;
13 [label="gini = 0.0\nsamples = 2\nvalue = [0, 2]"] ;
11 -> 13 ;
14 [label="rankloannum <= 1.5\ngini = 0.494\nsamples = 18\nvalue = [8, 10]"] ;
8 -> 14 ;
15 [label="Access Bank <= 0.5\ngini = 0.484\nsamples = 17\nvalue = [7, 10]"] ;
14 -> 15 ;
16 [label="GT Bank <= 0.5\ngini = 0.444\nsamples = 12\nvalue = [4, 8]"] ;
15 -> 16 ;
17 [label="Stanbic IBTC <= 0.5\ngini = 0.346\nsamples = 9\nvalue = [2, 7]"] ;
16 -> 17 ;
18 [label="agerank <= 1.5\ngini = 0.245\nsamples = 7\nvalue = [1, 6]"] ;
17 -> 18 ;
19 [label="UBA <= 0.5\ngini = 0.5\nsamples = 2\nvalue = [1, 1]"] ;
18 -> 19 ;
20 [label="gini = 0.0\nsamples = 1\nvalue = [0, 1]"] ;
19 -> 20 ;
21 [label="gini = 0.0\nsamples = 1\nvalue = [1, 0]"] ;
19 -> 21 ;
22 [label="gini = 0.0\nsamples = 5\nvalue = [0, 5]"] ;
18 -> 22 ;
23 [label="agerank <= 1.5\ngini = 0.5\nsamples = 2\nvalue = [1, 1]"] ;
17 -> 23 ;
24 [label="gini = 0.0\nsamples = 1\nvalue = [0, 1]"] ;
23 -> 24 ;
25 [label="gini = 0.0\nsamples = 1\nvalue = [1, 0]"] ;
23 -> 25 ;
26 [label="agerank <= 1.5\ngini = 0.444\nsamples = 3\nvalue = [2, 1]"] ;
16 -> 26 ;
27 [label="gini = 0.0\nsamples = 1\nvalue = [1, 0]"] ;
26 -> 27 ;
28 [label="gini = 0.5\nsamples = 2\nvalue = [1, 1]"] ;
26 -> 28 ;
29 [label="repaymentrank <= 2.5\ngini = 0.48\nsamples = 5\nvalue = [3, 2]"] ;
15 -> 29 ;
30 [label="gini = 0.0\nsamples = 1\nvalue = [1, 0]"] ;
29 -> 30 ;
31 [label="termdays <= 22.5\ngini = 0.5\nsamples = 4\nvalue = [2, 2]"] ;
29 -> 31 ;
32 [label="Other <= 0.5\ngini = 0.5\nsamples = 2\nvalue = [1, 1]"] ;
31 -> 32 ;
33 [label="gini = 0.0\nsamples = 1\nvalue = [1, 0]"] ;
32 -> 33 ;
34 [label="gini = 0.0\nsamples = 1\nvalue = [0, 1]"] ;
32 -> 34 ;
35 [label="Current <= 0.5\ngini = 0.5\nsamples = 2\nvalue = [1, 1]"] ;
31 -> 35 ;
36 [label="gini = 0.0\nsamples = 1\nvalue = [1, 0]"] ;
35 -> 36 ;
37 [label="gini = 0.0\nsamples = 1\nvalue = [0, 1]"] ;
35 -> 37 ;
38 [label="gini = 0.0\nsamples = 1\nvalue = [1, 0]"] ;
14 -> 38 ;
39 [label="repaymentrank <= 2.5\ngini = 0.408\nsamples = 7\nvalue = [5, 2]"] ;
7 -> 39 ;
40 [label="gini = 0.0\nsamples = 3\nvalue = [3, 0]"] ;
39 -> 40 ;
41 [label="agerank <= 1.5\ngini = 0.5\nsamples = 4\nvalue = [2, 2]"] ;
39 -> 41 ;
42 [label="gini = 0.0\nsamples = 1\nvalue = [1, 0]"] ;
41 -> 42 ;
43 [label="Permanent <= 0.5\ngini = 0.444\nsamples = 3\nvalue = [1, 2]"] ;
41 -> 43 ;
44 [label="gini = 0.0\nsamples = 1\nvalue = [0, 1]"] ;
43 -> 44 ;
45 [label="gini = 0.5\nsamples = 2\nvalue = [1, 1]"] ;
43 -> 45 ;
46 [label="Self-Employed <= 0.5\ngini = 0.408\nsamples = 56\nvalue = [16, 40]"] ;
6 -> 46 ;
47 [label="termdays <= 45.0\ngini = 0.339\nsamples = 37\nvalue = [8, 29]"] ;
46 -> 47 ;
48 [label="EcoBank <= 0.5\ngini = 0.245\nsamples = 28\nvalue = [4, 24]"] ;
47 -> 48 ;
49 [label="totalduerank <= 1.5\ngini = 0.204\nsamples = 26\nvalue = [3, 23]"] ;
48 -> 49 ;
50 [label="UBA <= 0.5\ngini = 0.305\nsamples = 16\nvalue = [3, 13]"] ;
49 -> 50 ;
51 [label="repaymentrank <= 2.5\ngini = 0.231\nsamples = 15\nvalue = [2, 13]"] ;
50 -> 51 ;
52 [label="Zenith Bank <= 0.5\ngini = 0.408\nsamples = 7\nvalue = [2, 5]"] ;
51 -> 52 ;
53 [label="First Bank <= 0.5\ngini = 0.278\nsamples = 6\nvalue = [1, 5]"] ;
52 -> 53 ;
54 [label="gini = 0.0\nsamples = 5\nvalue = [0, 5]"] ;
53 -> 54 ;
55 [label="gini = 0.0\nsamples = 1\nvalue = [1, 0]"] ;
53 -> 55 ;
56 [label="gini = 0.0\nsamples = 1\nvalue = [1, 0]"] ;
52 -> 56 ;
57 [label="gini = 0.0\nsamples = 8\nvalue = [0, 8]"] ;
51 -> 57 ;
58 [label="gini = 0.0\nsamples = 1\nvalue = [1, 0]"] ;
50 -> 58 ;
59 [label="gini = 0.0\nsamples = 10\nvalue = [0, 10]"] ;
49 -> 59 ;
60 [label="rankloannum <= 1.5\ngini = 0.5\nsamples = 2\nvalue = [1, 1]"] ;
48 -> 60 ;
61 [label="gini = 0.0\nsamples = 1\nvalue = [0, 1]"] ;
60 -> 61 ;
62 [label="gini = 0.0\nsamples = 1\nvalue = [1, 0]"] ;
60 -> 62 ;
63 [label="Zenith Bank <= 0.5\ngini = 0.494\nsamples = 9\nvalue = [4, 5]"] ;
47 -> 63 ;
64 [label="Access Bank <= 0.5\ngini = 0.469\nsamples = 8\nvalue = [3, 5]"] ;
63 -> 64 ;
65 [label="rankloannum <= 1.5\ngini = 0.408\nsamples = 7\nvalue = [2, 5]"] ;
64 -> 65 ;
66 [label="avgloanamtrank <= 2.5\ngini = 0.5\nsamples = 4\nvalue = [2, 2]"] ;
65 -> 66 ;
67 [label="agerank <= 1.5\ngini = 0.444\nsamples = 3\nvalue = [2, 1]"] ;
66 -> 67 ;
68 [label="gini = 0.0\nsamples = 2\nvalue = [2, 0]"] ;
67 -> 68 ;
69 [label="gini = 0.0\nsamples = 1\nvalue = [0, 1]"] ;
67 -> 69 ;
70 [label="gini = 0.0\nsamples = 1\nvalue = [0, 1]"] ;
66 -> 70 ;
71 [label="gini = 0.0\nsamples = 3\nvalue = [0, 3]"] ;
65 -> 71 ;
72 [label="gini = 0.0\nsamples = 1\nvalue = [1, 0]"] ;
64 -> 72 ;
73 [label="gini = 0.0\nsamples = 1\nvalue = [1, 0]"] ;
63 -> 73 ;
74 [label="termdays <= 45.0\ngini = 0.488\nsamples = 19\nvalue = [8, 11]"] ;
46 -> 74 ;
75 [label="UBA <= 0.5\ngini = 0.5\nsamples = 16\nvalue = [8, 8]"] ;
74 -> 75 ;
76 [label="agerank <= 1.5\ngini = 0.49\nsamples = 14\nvalue = [8, 6]"] ;
75 -> 76 ;
77 [label="termdays <= 22.5\ngini = 0.375\nsamples = 4\nvalue = [1, 3]"] ;
76 -> 77 ;
78 [label="Skye Bank <= 0.5\ngini = 0.5\nsamples = 2\nvalue = [1, 1]"] ;
77 -> 78 ;
79 [label="gini = 0.0\nsamples = 1\nvalue = [0, 1]"] ;
78 -> 79 ;
80 [label="gini = 0.0\nsamples = 1\nvalue = [1, 0]"] ;
78 -> 80 ;
81 [label="gini = 0.0\nsamples = 2\nvalue = [0, 2]"] ;
77 -> 81 ;
82 [label="avgloanamtrank <= 2.5\ngini = 0.42\nsamples = 10\nvalue = [7, 3]"] ;
76 -> 82 ;
83 [label="rankloannum <= 1.5\ngini = 0.346\nsamples = 9\nvalue = [7, 2]"] ;
82 -> 83 ;
84 [label="Zenith Bank <= 0.5\ngini = 0.444\nsamples = 6\nvalue = [4, 2]"] ;
83 -> 84 ;
85 [label="repaymentrank <= 2.5\ngini = 0.32\nsamples = 5\nvalue = [4, 1]"] ;
84 -> 85 ;
86 [label="GT Bank <= 0.5\ngini = 0.444\nsamples = 3\nvalue = [2, 1]"] ;
85 -> 86 ;
87 [label="gini = 0.0\nsamples = 1\nvalue = [1, 0]"] ;
86 -> 87 ;
88 [label="gini = 0.5\nsamples = 2\nvalue = [1, 1]"] ;
86 -> 88 ;
89 [label="gini = 0.0\nsamples = 2\nvalue = [2, 0]"] ;
85 -> 89 ;
90 [label="gini = 0.0\nsamples = 1\nvalue = [0, 1]"] ;
84 -> 90 ;
91 [label="gini = 0.0\nsamples = 3\nvalue = [3, 0]"] ;
83 -> 91 ;
92 [label="gini = 0.0\nsamples = 1\nvalue = [0, 1]"] ;
82 -> 92 ;
93 [label="gini = 0.0\nsamples = 2\nvalue = [0, 2]"] ;
75 -> 93 ;
94 [label="gini = 0.0\nsamples = 3\nvalue = [0, 3]"] ;
74 -> 94 ;
95 [label="Zenith Bank <= 0.5\ngini = 0.499\nsamples = 29\nvalue = [14, 15]"] ;
5 -> 95 ;
96 [label="EcoBank <= 0.5\ngini = 0.499\nsamples = 27\nvalue = [14, 13]"] ;
95 -> 96 ;
97 [label="rankloanamt <= 3.5\ngini = 0.497\nsamples = 26\nvalue = [14, 12]"] ;
96 -> 97 ;
98 [label="GT Bank <= 0.5\ngini = 0.48\nsamples = 20\nvalue = [12, 8]"] ;
97 -> 98 ;
99 [label="agerank <= 1.5\ngini = 0.49\nsamples = 7\nvalue = [3, 4]"] ;
98 -> 99 ;
100 [label="gini = 0.0\nsamples = 2\nvalue = [0, 2]"] ;
99 -> 100 ;
101 [label="rankloannum <= 1.5\ngini = 0.48\nsamples = 5\nvalue = [3, 2]"] ;
99 -> 101 ;
102 [label="gini = 0.0\nsamples = 1\nvalue = [0, 1]"] ;
101 -> 102 ;
103 [label="UBA <= 0.5\ngini = 0.375\nsamples = 4\nvalue = [3, 1]"] ;
101 -> 103 ;
104 [label="gini = 0.0\nsamples = 2\nvalue = [2, 0]"] ;
103 -> 104 ;
105 [label="avgloanamtrank <= 2.5\ngini = 0.5\nsamples = 2\nvalue = [1, 1]"] ;
103 -> 105 ;
106 [label="gini = 0.0\nsamples = 1\nvalue = [0, 1]"] ;
105 -> 106 ;
107 [label="gini = 0.0\nsamples = 1\nvalue = [1, 0]"] ;
105 -> 107 ;
108 [label="avgloanamtrank <= 2.5\ngini = 0.426\nsamples = 13\nvalue = [9, 4]"] ;
98 -> 108 ;
109 [label="Student <= 0.5\ngini = 0.5\nsamples = 4\nvalue = [2, 2]"] ;
108 -> 109 ;
110 [label="termdays <= 45.0\ngini = 0.444\nsamples = 3\nvalue = [2, 1]"] ;
109 -> 110 ;
111 [label="gini = 0.0\nsamples = 1\nvalue = [0, 1]"] ;
110 -> 111 ;
112 [label="gini = 0.0\nsamples = 2\nvalue = [2, 0]"] ;
110 -> 112 ;
113 [label="gini = 0.0\nsamples = 1\nvalue = [0, 1]"] ;
109 -> 113 ;
114 [label="Permanent <= 0.5\ngini = 0.346\nsamples = 9\nvalue = [7, 2]"] ;
108 -> 114 ;
115 [label="gini = 0.0\nsamples = 4\nvalue = [4, 0]"] ;
114 -> 115 ;
116 [label="repaymentrank <= 2.5\ngini = 0.48\nsamples = 5\nvalue = [3, 2]"] ;
114 -> 116 ;
117 [label="gini = 0.0\nsamples = 1\nvalue = [0, 1]"] ;
116 -> 117 ;
118 [label="termdays <= 45.0\ngini = 0.375\nsamples = 4\nvalue = [3, 1]"] ;
116 -> 118 ;
119 [label="rankloannum <= 1.5\ngini = 0.5\nsamples = 2\nvalue = [1, 1]"] ;
118 -> 119 ;
120 [label="gini = 0.0\nsamples = 1\nvalue = [0, 1]"] ;
119 -> 120 ;
121 [label="gini = 0.0\nsamples = 1\nvalue = [1, 0]"] ;
119 -> 121 ;
122 [label="gini = 0.0\nsamples = 2\nvalue = [2, 0]"] ;
118 -> 122 ;
123 [label="GT Bank <= 0.5\ngini = 0.444\nsamples = 6\nvalue = [2, 4]"] ;
97 -> 123 ;
124 [label="gini = 0.0\nsamples = 2\nvalue = [2, 0]"] ;
123 -> 124 ;
125 [label="gini = 0.0\nsamples = 4\nvalue = [0, 4]"] ;
123 -> 125 ;
126 [label="gini = 0.0\nsamples = 1\nvalue = [0, 1]"] ;
96 -> 126 ;
127 [label="gini = 0.0\nsamples = 2\nvalue = [0, 2]"] ;
95 -> 127 ;
128 [label="gini = 0.0\nsamples = 4\nvalue = [0, 4]"] ;
4 -> 128 ;
129 [label="gini = 0.0\nsamples = 4\nvalue = [0, 4]"] ;
3 -> 129 ;
130 [label="gini = 0.0\nsamples = 7\nvalue = [0, 7]"] ;
2 -> 130 ;
131 [label="gini = 0.0\nsamples = 7\nvalue = [0, 7]"] ;
1 -> 131 ;
132 [label="rankloanamt <= 1.5\ngini = 0.482\nsamples = 262\nvalue = [156, 106]"] ;
0 -> 132 [labeldistance=2.5, labelangle=-45, headlabel="False"] ;
133 [label="GT Bank <= 0.5\ngini = 0.441\nsamples = 146\nvalue = [98, 48]"] ;
132 -> 133 ;
134 [label="Wema Bank <= 0.5\ngini = 0.411\nsamples = 121\nvalue = [86, 35]"] ;
133 -> 134 ;
135 [label="Sterling Bank <= 0.5\ngini = 0.406\nsamples = 120\nvalue = [86, 34]"] ;
134 -> 135 ;
136 [label="Standard Chartered <= 0.5\ngini = 0.394\nsamples = 115\nvalue = [84, 31]"] ;
135 -> 136 ;
137 [label="rankloannum <= 1.5\ngini = 0.388\nsamples = 114\nvalue = [84, 30]"] ;
136 -> 137 ;
138 [label="Diamond Bank <= 0.5\ngini = 0.377\nsamples = 111\nvalue = [83, 28]"] ;
137 -> 138 ;
139 [label="Stanbic IBTC <= 0.5\ngini = 0.362\nsamples = 101\nvalue = [77, 24]"] ;
138 -> 139 ;
140 [label="FCMB <= 0.5\ngini = 0.346\nsamples = 90\nvalue = [70, 20]"] ;
139 -> 140 ;
141 [label="agerank <= 1.5\ngini = 0.334\nsamples = 85\nvalue = [67, 18]"] ;
140 -> 141 ;
142 [label="First Bank <= 0.5\ngini = 0.26\nsamples = 39\nvalue = [33, 6]"] ;
141 -> 142 ;
143 [label="Unemployed <= 0.5\ngini = 0.175\nsamples = 31\nvalue = [28, 3]"] ;
142 -> 143 ;
144 [label="repaymentrank <= 2.5\ngini = 0.133\nsamples = 28\nvalue = [26, 2]"] ;
143 -> 144 ;
145 [label="gini = 0.0\nsamples = 15\nvalue = [15, 0]"] ;
144 -> 145 ;
146 [label="Zenith Bank <= 0.5\ngini = 0.26\nsamples = 13\nvalue = [11, 2]"] ;
144 -> 146 ;
147 [label="Student <= 0.5\ngini = 0.165\nsamples = 11\nvalue = [10, 1]"] ;
146 -> 147 ;
148 [label="gini = 0.0\nsamples = 8\nvalue = [8, 0]"] ;
147 -> 148 ;
149 [label="termdays <= 22.5\ngini = 0.444\nsamples = 3\nvalue = [2, 1]"] ;
147 -> 149 ;
150 [label="gini = 0.0\nsamples = 1\nvalue = [1, 0]"] ;
149 -> 150 ;
151 [label="gini = 0.5\nsamples = 2\nvalue = [1, 1]"] ;
149 -> 151 ;
152 [label="termdays <= 22.5\ngini = 0.5\nsamples = 2\nvalue = [1, 1]"] ;
146 -> 152 ;
153 [label="gini = 0.0\nsamples = 1\nvalue = [0, 1]"] ;
152 -> 153 ;
154 [label="gini = 0.0\nsamples = 1\nvalue = [1, 0]"] ;
152 -> 154 ;
155 [label="repaymentrank <= 2.5\ngini = 0.444\nsamples = 3\nvalue = [2, 1]"] ;
143 -> 155 ;
156 [label="gini = 0.0\nsamples = 1\nvalue = [0, 1]"] ;
155 -> 156 ;
157 [label="gini = 0.0\nsamples = 2\nvalue = [2, 0]"] ;
155 -> 157 ;
158 [label="isreffered <= 0.5\ngini = 0.469\nsamples = 8\nvalue = [5, 3]"] ;
142 -> 158 ;
159 [label="Student <= 0.5\ngini = 0.5\nsamples = 6\nvalue = [3, 3]"] ;
158 -> 159 ;
160 [label="Permanent <= 0.5\ngini = 0.48\nsamples = 5\nvalue = [3, 2]"] ;
159 -> 160 ;
161 [label="termdays <= 22.5\ngini = 0.5\nsamples = 2\nvalue = [1, 1]"] ;
160 -> 161 ;
162 [label="gini = 0.0\nsamples = 1\nvalue = [1, 0]"] ;
161 -> 162 ;
163 [label="gini = 0.0\nsamples = 1\nvalue = [0, 1]"] ;
161 -> 163 ;
164 [label="termdays <= 22.5\ngini = 0.444\nsamples = 3\nvalue = [2, 1]"] ;
160 -> 164 ;
165 [label="gini = 0.0\nsamples = 1\nvalue = [0, 1]"] ;
164 -> 165 ;
166 [label="gini = 0.0\nsamples = 2\nvalue = [2, 0]"] ;
164 -> 166 ;
167 [label="gini = 0.0\nsamples = 1\nvalue = [0, 1]"] ;
159 -> 167 ;
168 [label="gini = 0.0\nsamples = 2\nvalue = [2, 0]"] ;
158 -> 168 ;
169 [label="Keystone Bank <= 0.5\ngini = 0.386\nsamples = 46\nvalue = [34, 12]"] ;
141 -> 169 ;
170 [label="Fidelity Bank <= 0.5\ngini = 0.369\nsamples = 45\nvalue = [34, 11]"] ;
169 -> 170 ;
171 [label="repaymentrank <= 2.5\ngini = 0.343\nsamples = 41\nvalue = [32, 9]"] ;
170 -> 171 ;
172 [label="termdays <= 22.5\ngini = 0.42\nsamples = 20\nvalue = [14, 6]"] ;
171 -> 172 ;
173 [label="isreffered <= 0.5\ngini = 0.245\nsamples = 7\nvalue = [6, 1]"] ;
172 -> 173 ;
174 [label="gini = 0.0\nsamples = 5\nvalue = [5, 0]"] ;
173 -> 174 ;
175 [label="Access Bank <= 0.5\ngini = 0.5\nsamples = 2\nvalue = [1, 1]"] ;
173 -> 175 ;
176 [label="gini = 0.0\nsamples = 1\nvalue = [1, 0]"] ;
175 -> 176 ;
177 [label="gini = 0.0\nsamples = 1\nvalue = [0, 1]"] ;
175 -> 177 ;
178 [label="Zenith Bank <= 0.5\ngini = 0.473\nsamples = 13\nvalue = [8, 5]"] ;
172 -> 178 ;
179 [label="repaymentrank <= 1.5\ngini = 0.42\nsamples = 10\nvalue = [7, 3]"] ;
178 -> 179 ;
180 [label="gini = 0.0\nsamples = 1\nvalue = [1, 0]"] ;
179 -> 180 ;
181 [label="UBA <= 0.5\ngini = 0.444\nsamples = 9\nvalue = [6, 3]"] ;
179 -> 181 ;
182 [label="Skye Bank <= 0.5\ngini = 0.375\nsamples = 8\nvalue = [6, 2]"] ;
181 -> 182 ;
183 [label="isreffered <= 0.5\ngini = 0.278\nsamples = 6\nvalue = [5, 1]"] ;
182 -> 183 ;
184 [label="gini = 0.0\nsamples = 2\nvalue = [2, 0]"] ;
183 -> 184 ;
185 [label="First Bank <= 0.5\ngini = 0.375\nsamples = 4\nvalue = [3, 1]"] ;
183 -> 185 ;
186 [label="gini = 0.0\nsamples = 2\nvalue = [2, 0]"] ;
185 -> 186 ;
187 [label="gini = 0.5\nsamples = 2\nvalue = [1, 1]"] ;
185 -> 187 ;
188 [label="gini = 0.5\nsamples = 2\nvalue = [1, 1]"] ;
182 -> 188 ;
189 [label="gini = 0.0\nsamples = 1\nvalue = [0, 1]"] ;
181 -> 189 ;
190 [label="agerank <= 2.5\ngini = 0.444\nsamples = 3\nvalue = [1, 2]"] ;
178 -> 190 ;
191 [label="gini = 0.5\nsamples = 2\nvalue = [1, 1]"] ;
190 -> 191 ;
192 [label="gini = 0.0\nsamples = 1\nvalue = [0, 1]"] ;
190 -> 192 ;
193 [label="EcoBank <= 0.5\ngini = 0.245\nsamples = 21\nvalue = [18, 3]"] ;
171 -> 193 ;
194 [label="isreffered <= 0.5\ngini = 0.188\nsamples = 19\nvalue = [17, 2]"] ;
193 -> 194 ;
195 [label="gini = 0.0\nsamples = 12\nvalue = [12, 0]"] ;
194 -> 195 ;
196 [label="UBA <= 0.5\ngini = 0.408\nsamples = 7\nvalue = [5, 2]"] ;
194 -> 196 ;
197 [label="Access Bank <= 0.5\ngini = 0.278\nsamples = 6\nvalue = [5, 1]"] ;
196 -> 197 ;
198 [label="gini = 0.0\nsamples = 4\nvalue = [4, 0]"] ;
197 -> 198 ;
199 [label="gini = 0.5\nsamples = 2\nvalue = [1, 1]"] ;
197 -> 199 ;
200 [label="gini = 0.0\nsamples = 1\nvalue = [0, 1]"] ;
196 -> 200 ;
201 [label="Student <= 0.5\ngini = 0.5\nsamples = 2\nvalue = [1, 1]"] ;
193 -> 201 ;
202 [label="gini = 0.0\nsamples = 1\nvalue = [1, 0]"] ;
201 -> 202 ;
203 [label="gini = 0.0\nsamples = 1\nvalue = [0, 1]"] ;
201 -> 203 ;
204 [label="termdays <= 22.5\ngini = 0.5\nsamples = 4\nvalue = [2, 2]"] ;
170 -> 204 ;
205 [label="repaymentrank <= 2.5\ngini = 0.5\nsamples = 2\nvalue = [1, 1]"] ;
204 -> 205 ;
206 [label="gini = 0.0\nsamples = 1\nvalue = [0, 1]"] ;
205 -> 206 ;
207 [label="gini = 0.0\nsamples = 1\nvalue = [1, 0]"] ;
205 -> 207 ;
208 [label="repaymentrank <= 2.5\ngini = 0.5\nsamples = 2\nvalue = [1, 1]"] ;
204 -> 208 ;
209 [label="gini = 0.0\nsamples = 1\nvalue = [1, 0]"] ;
208 -> 209 ;
210 [label="gini = 0.0\nsamples = 1\nvalue = [0, 1]"] ;
208 -> 210 ;
211 [label="gini = 0.0\nsamples = 1\nvalue = [0, 1]"] ;
169 -> 211 ;
212 [label="agerank <= 1.5\ngini = 0.48\nsamples = 5\nvalue = [3, 2]"] ;
140 -> 212 ;
213 [label="gini = 0.0\nsamples = 1\nvalue = [0, 1]"] ;
212 -> 213 ;
214 [label="Permanent <= 0.5\ngini = 0.375\nsamples = 4\nvalue = [3, 1]"] ;
212 -> 214 ;
215 [label="gini = 0.5\nsamples = 2\nvalue = [1, 1]"] ;
214 -> 215 ;
216 [label="gini = 0.0\nsamples = 2\nvalue = [2, 0]"] ;
214 -> 216 ;
217 [label="repaymentrank <= 2.5\ngini = 0.463\nsamples = 11\nvalue = [7, 4]"] ;
139 -> 217 ;
218 [label="agerank <= 1.5\ngini = 0.278\nsamples = 6\nvalue = [5, 1]"] ;
217 -> 218 ;
219 [label="gini = 0.5\nsamples = 2\nvalue = [1, 1]"] ;
218 -> 219 ;
220 [label="gini = 0.0\nsamples = 4\nvalue = [4, 0]"] ;
218 -> 220 ;
221 [label="Student <= 0.5\ngini = 0.48\nsamples = 5\nvalue = [2, 3]"] ;
217 -> 221 ;
222 [label="termdays <= 22.5\ngini = 0.5\nsamples = 4\nvalue = [2, 2]"] ;
221 -> 222 ;
223 [label="gini = 0.0\nsamples = 1\nvalue = [0, 1]"] ;
222 -> 223 ;
224 [label="agerank <= 2.5\ngini = 0.444\nsamples = 3\nvalue = [2, 1]"] ;
222 -> 224 ;
225 [label="gini = 0.0\nsamples = 2\nvalue = [2, 0]"] ;
224 -> 225 ;
226 [label="gini = 0.0\nsamples = 1\nvalue = [0, 1]"] ;
224 -> 226 ;
227 [label="gini = 0.0\nsamples = 1\nvalue = [0, 1]"] ;
221 -> 227 ;
228 [label="termdays <= 22.5\ngini = 0.48\nsamples = 10\nvalue = [6, 4]"] ;
138 -> 228 ;
229 [label="gini = 0.0\nsamples = 2\nvalue = [0, 2]"] ;
228 -> 229 ;
230 [label="Student <= 0.5\ngini = 0.375\nsamples = 8\nvalue = [6, 2]"] ;
228 -> 230 ;
231 [label="agerank <= 1.5\ngini = 0.245\nsamples = 7\nvalue = [6, 1]"] ;
230 -> 231 ;
232 [label="Permanent <= 0.5\ngini = 0.444\nsamples = 3\nvalue = [2, 1]"] ;
231 -> 232 ;
233 [label="gini = 0.0\nsamples = 1\nvalue = [1, 0]"] ;
232 -> 233 ;
234 [label="gini = 0.5\nsamples = 2\nvalue = [1, 1]"] ;
232 -> 234 ;
235 [label="gini = 0.0\nsamples = 4\nvalue = [4, 0]"] ;
231 -> 235 ;
236 [label="gini = 0.0\nsamples = 1\nvalue = [0, 1]"] ;
230 -> 236 ;
237 [label="repaymentrank <= 2.5\ngini = 0.444\nsamples = 3\nvalue = [1, 2]"] ;
137 -> 237 ;
238 [label="gini = 0.0\nsamples = 1\nvalue = [1, 0]"] ;
237 -> 238 ;
239 [label="gini = 0.0\nsamples = 2\nvalue = [0, 2]"] ;
237 -> 239 ;
240 [label="gini = 0.0\nsamples = 1\nvalue = [0, 1]"] ;
136 -> 240 ;
241 [label="agerank <= 1.5\ngini = 0.48\nsamples = 5\nvalue = [2, 3]"] ;
135 -> 241 ;
242 [label="isreffered <= 0.5\ngini = 0.444\nsamples = 3\nvalue = [1, 2]"] ;
241 -> 242 ;
243 [label="gini = 0.0\nsamples = 2\nvalue = [0, 2]"] ;
242 -> 243 ;
244 [label="gini = 0.0\nsamples = 1\nvalue = [1, 0]"] ;
242 -> 244 ;
245 [label="isreffered <= 0.5\ngini = 0.5\nsamples = 2\nvalue = [1, 1]"] ;
241 -> 245 ;
246 [label="gini = 0.0\nsamples = 1\nvalue = [1, 0]"] ;
245 -> 246 ;
247 [label="gini = 0.0\nsamples = 1\nvalue = [0, 1]"] ;
245 -> 247 ;
248 [label="gini = 0.0\nsamples = 1\nvalue = [0, 1]"] ;
134 -> 248 ;
249 [label="agerank <= 1.5\ngini = 0.499\nsamples = 25\nvalue = [12, 13]"] ;
133 -> 249 ;
250 [label="isreffered <= 0.5\ngini = 0.397\nsamples = 11\nvalue = [3, 8]"] ;
249 -> 250 ;
251 [label="avgloanamtrank <= 1.5\ngini = 0.444\nsamples = 9\nvalue = [3, 6]"] ;
250 -> 251 ;
252 [label="gini = 0.0\nsamples = 1\nvalue = [0, 1]"] ;
251 -> 252 ;
253 [label="Unemployed <= 0.5\ngini = 0.469\nsamples = 8\nvalue = [3, 5]"] ;
251 -> 253 ;
254 [label="repaymentrank <= 2.5\ngini = 0.49\nsamples = 7\nvalue = [3, 4]"] ;
253 -> 254 ;
255 [label="Student <= 0.5\ngini = 0.444\nsamples = 3\nvalue = [2, 1]"] ;
254 -> 255 ;
256 [label="termdays <= 22.5\ngini = 0.5\nsamples = 2\nvalue = [1, 1]"] ;
255 -> 256 ;
257 [label="gini = 0.0\nsamples = 1\nvalue = [0, 1]"] ;
256 -> 257 ;
258 [label="gini = 0.0\nsamples = 1\nvalue = [1, 0]"] ;
256 -> 258 ;
259 [label="gini = 0.0\nsamples = 1\nvalue = [1, 0]"] ;
255 -> 259 ;
260 [label="Student <= 0.5\ngini = 0.375\nsamples = 4\nvalue = [1, 3]"] ;
254 -> 260 ;
261 [label="termdays <= 22.5\ngini = 0.444\nsamples = 3\nvalue = [1, 2]"] ;
260 -> 261 ;
262 [label="gini = 0.5\nsamples = 2\nvalue = [1, 1]"] ;
261 -> 262 ;
263 [label="gini = 0.0\nsamples = 1\nvalue = [0, 1]"] ;
261 -> 263 ;
264 [label="gini = 0.0\nsamples = 1\nvalue = [0, 1]"] ;
260 -> 264 ;
265 [label="gini = 0.0\nsamples = 1\nvalue = [0, 1]"] ;
253 -> 265 ;
266 [label="gini = 0.0\nsamples = 2\nvalue = [0, 2]"] ;
250 -> 266 ;
267 [label="repaymentrank <= 2.5\ngini = 0.459\nsamples = 14\nvalue = [9, 5]"] ;
249 -> 267 ;
268 [label="Unemployed <= 0.5\ngini = 0.375\nsamples = 8\nvalue = [6, 2]"] ;
267 -> 268 ;
269 [label="isreffered <= 0.5\ngini = 0.245\nsamples = 7\nvalue = [6, 1]"] ;
268 -> 269 ;
270 [label="gini = 0.0\nsamples = 4\nvalue = [4, 0]"] ;
269 -> 270 ;
271 [label="termdays <= 22.5\ngini = 0.444\nsamples = 3\nvalue = [2, 1]"] ;
269 -> 271 ;
272 [label="gini = 0.5\nsamples = 2\nvalue = [1, 1]"] ;
271 -> 272 ;
273 [label="gini = 0.0\nsamples = 1\nvalue = [1, 0]"] ;
271 -> 273 ;
274 [label="gini = 0.0\nsamples = 1\nvalue = [0, 1]"] ;
268 -> 274 ;
275 [label="Unemployed <= 0.5\ngini = 0.5\nsamples = 6\nvalue = [3, 3]"] ;
267 -> 275 ;
276 [label="isreffered <= 0.5\ngini = 0.48\nsamples = 5\nvalue = [2, 3]"] ;
275 -> 276 ;
277 [label="gini = 0.0\nsamples = 2\nvalue = [0, 2]"] ;
276 -> 277 ;
278 [label="termdays <= 22.5\ngini = 0.444\nsamples = 3\nvalue = [2, 1]"] ;
276 -> 278 ;
279 [label="gini = 0.0\nsamples = 1\nvalue = [1, 0]"] ;
278 -> 279 ;
280 [label="gini = 0.5\nsamples = 2\nvalue = [1, 1]"] ;
278 -> 280 ;
281 [label="gini = 0.0\nsamples = 1\nvalue = [1, 0]"] ;
275 -> 281 ;
282 [label="First Bank <= 0.5\ngini = 0.5\nsamples = 116\nvalue = [58, 58]"] ;
132 -> 282 ;
283 [label="termdays <= 45.0\ngini = 0.497\nsamples = 102\nvalue = [47, 55]"] ;
282 -> 283 ;
284 [label="Self-Employed <= 0.5\ngini = 0.485\nsamples = 87\nvalue = [36, 51]"] ;
283 -> 284 ;
285 [label="Stanbic IBTC <= 0.5\ngini = 0.496\nsamples = 75\nvalue = [34, 41]"] ;
284 -> 285 ;
286 [label="EcoBank <= 0.5\ngini = 0.499\nsamples = 71\nvalue = [34, 37]"] ;
285 -> 286 ;
287 [label="Wema Bank <= 0.5\ngini = 0.496\nsamples = 66\nvalue = [30, 36]"] ;
286 -> 287 ;
288 [label="UBA <= 0.5\ngini = 0.498\nsamples = 64\nvalue = [30, 34]"] ;
287 -> 288 ;
289 [label="FCMB <= 0.5\ngini = 0.5\nsamples = 59\nvalue = [29, 30]"] ;
288 -> 289 ;
290 [label="Standard Chartered <= 0.5\ngini = 0.499\nsamples = 55\nvalue = [26, 29]"] ;
289 -> 290 ;
291 [label="Retired <= 0.5\ngini = 0.499\nsamples = 54\nvalue = [26, 28]"] ;
290 -> 291 ;
292 [label="GT Bank <= 0.5\ngini = 0.5\nsamples = 53\nvalue = [26, 27]"] ;
291 -> 292 ;
293 [label="agerank <= 2.5\ngini = 0.496\nsamples = 33\nvalue = [18, 15]"] ;
292 -> 293 ;
294 [label="avgloanamtrank <= 2.5\ngini = 0.48\nsamples = 30\nvalue = [18, 12]"] ;
293 -> 294 ;
295 [label="Skye Bank <= 0.5\ngini = 0.497\nsamples = 24\nvalue = [13, 11]"] ;
294 -> 295 ;
296 [label="repaymentrank <= 2.5\ngini = 0.5\nsamples = 22\nvalue = [11, 11]"] ;
295 -> 296 ;
297 [label="totalduerank <= 1.5\ngini = 0.32\nsamples = 5\nvalue = [1, 4]"] ;
296 -> 297 ;
298 [label="gini = 0.0\nsamples = 4\nvalue = [0, 4]"] ;
297 -> 298 ;
299 [label="gini = 0.0\nsamples = 1\nvalue = [1, 0]"] ;
297 -> 299 ;
300 [label="rankloannum <= 1.5\ngini = 0.484\nsamples = 17\nvalue = [10, 7]"] ;
296 -> 300 ;
301 [label="Fidelity Bank <= 0.5\ngini = 0.444\nsamples = 15\nvalue = [10, 5]"] ;
300 -> 301 ;
302 [label="Access Bank <= 0.5\ngini = 0.408\nsamples = 14\nvalue = [10, 4]"] ;
301 -> 302 ;
303 [label="isreffered <= 0.5\ngini = 0.32\nsamples = 10\nvalue = [8, 2]"] ;
302 -> 303 ;
304 [label="gini = 0.0\nsamples = 5\nvalue = [5, 0]"] ;
303 -> 304 ;
305 [label="totalduerank <= 1.5\ngini = 0.48\nsamples = 5\nvalue = [3, 2]"] ;
303 -> 305 ;
306 [label="termdays <= 22.5\ngini = 0.375\nsamples = 4\nvalue = [3, 1]"] ;
305 -> 306 ;
307 [label="Zenith Bank <= 0.5\ngini = 0.5\nsamples = 2\nvalue = [1, 1]"] ;
306 -> 307 ;
308 [label="gini = 0.0\nsamples = 1\nvalue = [1, 0]"] ;
307 -> 308 ;
309 [label="gini = 0.0\nsamples = 1\nvalue = [0, 1]"] ;
307 -> 309 ;
310 [label="gini = 0.0\nsamples = 2\nvalue = [2, 0]"] ;
306 -> 310 ;
311 [label="gini = 0.0\nsamples = 1\nvalue = [0, 1]"] ;
305 -> 311 ;
312 [label="agerank <= 1.5\ngini = 0.5\nsamples = 4\nvalue = [2, 2]"] ;
302 -> 312 ;
313 [label="gini = 0.0\nsamples = 1\nvalue = [1, 0]"] ;
312 -> 313 ;
314 [label="totalduerank <= 1.5\ngini = 0.444\nsamples = 3\nvalue = [1, 2]"] ;
312 -> 314 ;
315 [label="gini = 0.0\nsamples = 1\nvalue = [0, 1]"] ;
314 -> 315 ;
316 [label="gini = 0.5\nsamples = 2\nvalue = [1, 1]"] ;
314 -> 316 ;
317 [label="gini = 0.0\nsamples = 1\nvalue = [0, 1]"] ;
301 -> 317 ;
318 [label="gini = 0.0\nsamples = 2\nvalue = [0, 2]"] ;
300 -> 318 ;
319 [label="gini = 0.0\nsamples = 2\nvalue = [2, 0]"] ;
295 -> 319 ;
320 [label="Keystone Bank <= 0.5\ngini = 0.278\nsamples = 6\nvalue = [5, 1]"] ;
294 -> 320 ;
321 [label="gini = 0.0\nsamples = 4\nvalue = [4, 0]"] ;
320 -> 321 ;
322 [label="gini = 0.5\nsamples = 2\nvalue = [1, 1]"] ;
320 -> 322 ;
323 [label="gini = 0.0\nsamples = 3\nvalue = [0, 3]"] ;
293 -> 323 ;
324 [label="rankloannum <= 1.5\ngini = 0.48\nsamples = 20\nvalue = [8, 12]"] ;
292 -> 324 ;
325 [label="avgloanamtrank <= 2.5\ngini = 0.5\nsamples = 16\nvalue = [8, 8]"] ;
324 -> 325 ;
326 [label="Unemployed <= 0.5\ngini = 0.49\nsamples = 14\nvalue = [8, 6]"] ;
325 -> 326 ;
327 [label="repaymentrank <= 2.5\ngini = 0.444\nsamples = 12\nvalue = [8, 4]"] ;
326 -> 327 ;
328 [label="agerank <= 2.5\ngini = 0.5\nsamples = 6\nvalue = [3, 3]"] ;
327 -> 328 ;
329 [label="isreffered <= 0.5\ngini = 0.48\nsamples = 5\nvalue = [2, 3]"] ;
328 -> 329 ;
330 [label="agerank <= 1.5\ngini = 0.5\nsamples = 4\nvalue = [2, 2]"] ;
329 -> 330 ;
331 [label="gini = 0.5\nsamples = 2\nvalue = [1, 1]"] ;
330 -> 331 ;
332 [label="gini = 0.5\nsamples = 2\nvalue = [1, 1]"] ;
330 -> 332 ;
333 [label="gini = 0.0\nsamples = 1\nvalue = [0, 1]"] ;
329 -> 333 ;
334 [label="gini = 0.0\nsamples = 1\nvalue = [1, 0]"] ;
328 -> 334 ;
335 [label="Student <= 0.5\ngini = 0.278\nsamples = 6\nvalue = [5, 1]"] ;
327 -> 335 ;
336 [label="gini = 0.0\nsamples = 4\nvalue = [4, 0]"] ;
335 -> 336 ;
337 [label="agerank <= 1.5\ngini = 0.5\nsamples = 2\nvalue = [1, 1]"] ;
335 -> 337 ;
338 [label="gini = 0.0\nsamples = 1\nvalue = [1, 0]"] ;
337 -> 338 ;
339 [label="gini = 0.0\nsamples = 1\nvalue = [0, 1]"] ;
337 -> 339 ;
340 [label="gini = 0.0\nsamples = 2\nvalue = [0, 2]"] ;
326 -> 340 ;
341 [label="gini = 0.0\nsamples = 2\nvalue = [0, 2]"] ;
325 -> 341 ;
342 [label="gini = 0.0\nsamples = 4\nvalue = [0, 4]"] ;
324 -> 342 ;
343 [label="gini = 0.0\nsamples = 1\nvalue = [0, 1]"] ;
291 -> 343 ;
344 [label="gini = 0.0\nsamples = 1\nvalue = [0, 1]"] ;
290 -> 344 ;
345 [label="isreffered <= 0.5\ngini = 0.375\nsamples = 4\nvalue = [3, 1]"] ;
289 -> 345 ;
346 [label="avgloanamtrank <= 2.5\ngini = 0.5\nsamples = 2\nvalue = [1, 1]"] ;
345 -> 346 ;
347 [label="gini = 0.0\nsamples = 1\nvalue = [0, 1]"] ;
346 -> 347 ;
348 [label="gini = 0.0\nsamples = 1\nvalue = [1, 0]"] ;
346 -> 348 ;
349 [label="gini = 0.0\nsamples = 2\nvalue = [2, 0]"] ;
345 -> 349 ;
350 [label="Student <= 0.5\ngini = 0.32\nsamples = 5\nvalue = [1, 4]"] ;
288 -> 350 ;
351 [label="gini = 0.0\nsamples = 4\nvalue = [0, 4]"] ;
350 -> 351 ;
352 [label="gini = 0.0\nsamples = 1\nvalue = [1, 0]"] ;
350 -> 352 ;
353 [label="gini = 0.0\nsamples = 2\nvalue = [0, 2]"] ;
287 -> 353 ;
354 [label="avgloanamtrank <= 1.5\ngini = 0.32\nsamples = 5\nvalue = [4, 1]"] ;
286 -> 354 ;
355 [label="gini = 0.0\nsamples = 1\nvalue = [0, 1]"] ;
354 -> 355 ;
356 [label="gini = 0.0\nsamples = 4\nvalue = [4, 0]"] ;
354 -> 356 ;
357 [label="gini = 0.0\nsamples = 4\nvalue = [0, 4]"] ;
285 -> 357 ;
358 [label="Heritage Bank <= 0.5\ngini = 0.278\nsamples = 12\nvalue = [2, 10]"] ;
284 -> 358 ;
359 [label="Diamond Bank <= 0.5\ngini = 0.165\nsamples = 11\nvalue = [1, 10]"] ;
358 -> 359 ;
360 [label="gini = 0.0\nsamples = 10\nvalue = [0, 10]"] ;
359 -> 360 ;
361 [label="gini = 0.0\nsamples = 1\nvalue = [1, 0]"] ;
359 -> 361 ;
362 [label="gini = 0.0\nsamples = 1\nvalue = [1, 0]"] ;
358 -> 362 ;
363 [label="Skye Bank <= 0.5\ngini = 0.391\nsamples = 15\nvalue = [11, 4]"] ;
283 -> 363 ;
364 [label="Diamond Bank <= 0.5\ngini = 0.337\nsamples = 14\nvalue = [11, 3]"] ;
363 -> 364 ;
365 [label="rankloanamt <= 2.5\ngini = 0.26\nsamples = 13\nvalue = [11, 2]"] ;
364 -> 365 ;
366 [label="gini = 0.0\nsamples = 8\nvalue = [8, 0]"] ;
365 -> 366 ;
367 [label="avgloanamtrank <= 2.5\ngini = 0.48\nsamples = 5\nvalue = [3, 2]"] ;
365 -> 367 ;
368 [label="rankloannum <= 1.5\ngini = 0.444\nsamples = 3\nvalue = [1, 2]"] ;
367 -> 368 ;
369 [label="gini = 0.0\nsamples = 2\nvalue = [0, 2]"] ;
368 -> 369 ;
370 [label="gini = 0.0\nsamples = 1\nvalue = [1, 0]"] ;
368 -> 370 ;
371 [label="gini = 0.0\nsamples = 2\nvalue = [2, 0]"] ;
367 -> 371 ;
372 [label="gini = 0.0\nsamples = 1\nvalue = [0, 1]"] ;
364 -> 372 ;
373 [label="gini = 0.0\nsamples = 1\nvalue = [0, 1]"] ;
363 -> 373 ;
374 [label="avgloanamtrank <= 2.5\ngini = 0.337\nsamples = 14\nvalue = [11, 3]"] ;
282 -> 374 ;
375 [label="agerank <= 1.5\ngini = 0.153\nsamples = 12\nvalue = [11, 1]"] ;
374 -> 375 ;
376 [label="repaymentrank <= 2.5\ngini = 0.375\nsamples = 4\nvalue = [3, 1]"] ;
375 -> 376 ;
377 [label="avgloanamtrank <= 1.5\ngini = 0.5\nsamples = 2\nvalue = [1, 1]"] ;
376 -> 377 ;
378 [label="gini = 0.0\nsamples = 1\nvalue = [1, 0]"] ;
377 -> 378 ;
379 [label="gini = 0.0\nsamples = 1\nvalue = [0, 1]"] ;
377 -> 379 ;
380 [label="gini = 0.0\nsamples = 2\nvalue = [2, 0]"] ;
376 -> 380 ;
381 [label="gini = 0.0\nsamples = 8\nvalue = [8, 0]"] ;
375 -> 381 ;
382 [label="gini = 0.0\nsamples = 2\nvalue = [0, 2]"] ;
374 -> 382 ;
}