digraph Tree {
node [shape=box] ;
0 [label="Savings <= 0.5\nentropy = 1.0\nsamples = 400\nvalue = [200, 200]"] ;
1 [label="Zenith Bank <= 0.5\nentropy = 0.934\nsamples = 123\nvalue = [43, 80]"] ;
0 -> 1 [labeldistance=2.5, labelangle=45, headlabel="True"] ;
2 [label="Unemployed <= 0.5\nentropy = 0.959\nsamples = 110\nvalue = [42, 68]"] ;
1 -> 2 ;
3 [label="avgloanamtrank <= 1.5\nentropy = 0.966\nsamples = 107\nvalue = [42, 65]"] ;
2 -> 3 ;
4 [label="entropy = 0.0\nsamples = 3\nvalue = [0, 3]"] ;
3 -> 4 ;
5 [label="Sterling Bank <= 0.5\nentropy = 0.973\nsamples = 104\nvalue = [42, 62]"] ;
3 -> 5 ;
6 [label="agerank <= 2.5\nentropy = 0.97\nsamples = 103\nvalue = [41, 62]"] ;
5 -> 6 ;
7 [label="rankloanamt <= 1.5\nentropy = 0.979\nsamples = 99\nvalue = [41, 58]"] ;
6 -> 7 ;
8 [label="rankloannum <= 1.5\nentropy = 0.996\nsamples = 28\nvalue = [15, 13]"] ;
7 -> 8 ;
9 [label="repaymentrank <= 2.5\nentropy = 0.991\nsamples = 27\nvalue = [15, 12]"] ;
8 -> 9 ;
10 [label="UBA <= 0.5\nentropy = 0.89\nsamples = 13\nvalue = [9, 4]"] ;
9 -> 10 ;
11 [label="Permanent <= 0.5\nentropy = 0.684\nsamples = 11\nvalue = [9, 2]"] ;
10 -> 11 ;
12 [label="GT Bank <= 0.5\nentropy = 1.0\nsamples = 4\nvalue = [2, 2]"] ;
11 -> 12 ;
13 [label="entropy = 0.0\nsamples = 2\nvalue = [2, 0]"] ;
12 -> 13 ;
14 [label="entropy = 0.0\nsamples = 2\nvalue = [0, 2]"] ;
12 -> 14 ;
15 [label="entropy = 0.0\nsamples = 7\nvalue = [7, 0]"] ;
11 -> 15 ;
16 [label="entropy = 0.0\nsamples = 2\nvalue = [0, 2]"] ;
10 -> 16 ;
17 [label="UBA <= 0.5\nentropy = 0.985\nsamples = 14\nvalue = [6, 8]"] ;
9 -> 17 ;
18 [label="Access Bank <= 0.5\nentropy = 0.961\nsamples = 13\nvalue = [5, 8]"] ;
17 -> 18 ;
19 [label="Other <= 0.5\nentropy = 0.881\nsamples = 10\nvalue = [3, 7]"] ;
18 -> 19 ;
20 [label="entropy = 0.0\nsamples = 2\nvalue = [0, 2]"] ;
19 -> 20 ;
21 [label="agerank <= 1.5\nentropy = 0.954\nsamples = 8\nvalue = [3, 5]"] ;
19 -> 21 ;
22 [label="entropy = 0.0\nsamples = 1\nvalue = [1, 0]"] ;
21 -> 22 ;
23 [label="Permanent <= 0.5\nentropy = 0.863\nsamples = 7\nvalue = [2, 5]"] ;
21 -> 23 ;
24 [label="termdays <= 22.5\nentropy = 0.918\nsamples = 3\nvalue = [1, 2]"] ;
23 -> 24 ;
25 [label="entropy = 0.0\nsamples = 1\nvalue = [1, 0]"] ;
24 -> 25 ;
26 [label="entropy = 0.0\nsamples = 2\nvalue = [0, 2]"] ;
24 -> 26 ;
27 [label="termdays <= 22.5\nentropy = 0.811\nsamples = 4\nvalue = [1, 3]"] ;
23 -> 27 ;
28 [label="entropy = 0.0\nsamples = 2\nvalue = [0, 2]"] ;
27 -> 28 ;
29 [label="entropy = 1.0\nsamples = 2\nvalue = [1, 1]"] ;
27 -> 29 ;
30 [label="termdays <= 22.5\nentropy = 0.918\nsamples = 3\nvalue = [2, 1]"] ;
18 -> 30 ;
31 [label="Current <= 0.5\nentropy = 1.0\nsamples = 2\nvalue = [1, 1]"] ;
30 -> 31 ;
32 [label="entropy = 0.0\nsamples = 1\nvalue = [0, 1]"] ;
31 -> 32 ;
33 [label="entropy = 0.0\nsamples = 1\nvalue = [1, 0]"] ;
31 -> 33 ;
34 [label="entropy = 0.0\nsamples = 1\nvalue = [1, 0]"] ;
30 -> 34 ;
35 [label="entropy = 0.0\nsamples = 1\nvalue = [1, 0]"] ;
17 -> 35 ;
36 [label="entropy = 0.0\nsamples = 1\nvalue = [0, 1]"] ;
8 -> 36 ;
37 [label="termdays <= 45.0\nentropy = 0.948\nsamples = 71\nvalue = [26, 45]"] ;
7 -> 37 ;
38 [label="First Bank <= 0.5\nentropy = 0.879\nsamples = 47\nvalue = [14, 33]"] ;
37 -> 38 ;
39 [label="Self-Employed <= 0.5\nentropy = 0.837\nsamples = 45\nvalue = [12, 33]"] ;
38 -> 39 ;
40 [label="repaymentrank <= 2.5\nentropy = 0.634\nsamples = 25\nvalue = [4, 21]"] ;
39 -> 40 ;
41 [label="entropy = 0.0\nsamples = 6\nvalue = [0, 6]"] ;
40 -> 41 ;
42 [label="totalduerank <= 1.5\nentropy = 0.742\nsamples = 19\nvalue = [4, 15]"] ;
40 -> 42 ;
43 [label="EcoBank <= 0.5\nentropy = 0.954\nsamples = 8\nvalue = [3, 5]"] ;
42 -> 43 ;
44 [label="UBA <= 0.5\nentropy = 0.65\nsamples = 6\nvalue = [1, 5]"] ;
43 -> 44 ;
45 [label="entropy = 0.0\nsamples = 4\nvalue = [0, 4]"] ;
44 -> 45 ;
46 [label="rankloannum <= 1.5\nentropy = 1.0\nsamples = 2\nvalue = [1, 1]"] ;
44 -> 46 ;
47 [label="entropy = 0.0\nsamples = 1\nvalue = [0, 1]"] ;
46 -> 47 ;
48 [label="entropy = 0.0\nsamples = 1\nvalue = [1, 0]"] ;
46 -> 48 ;
49 [label="entropy = 0.0\nsamples = 2\nvalue = [2, 0]"] ;
43 -> 49 ;
50 [label="Permanent <= 0.5\nentropy = 0.439\nsamples = 11\nvalue = [1, 10]"] ;
42 -> 50 ;
51 [label="entropy = 0.0\nsamples = 1\nvalue = [1, 0]"] ;
50 -> 51 ;
52 [label="entropy = 0.0\nsamples = 10\nvalue = [0, 10]"] ;
50 -> 52 ;
53 [label="repaymentrank <= 2.5\nentropy = 0.971\nsamples = 20\nvalue = [8, 12]"] ;
39 -> 53 ;
54 [label="totalduerank <= 1.5\nentropy = 0.918\nsamples = 6\nvalue = [4, 2]"] ;
53 -> 54 ;
55 [label="avgloanamtrank <= 2.5\nentropy = 0.722\nsamples = 5\nvalue = [4, 1]"] ;
54 -> 55 ;
56 [label="entropy = 0.0\nsamples = 4\nvalue = [4, 0]"] ;
55 -> 56 ;
57 [label="entropy = 0.0\nsamples = 1\nvalue = [0, 1]"] ;
55 -> 57 ;
58 [label="entropy = 0.0\nsamples = 1\nvalue = [0, 1]"] ;
54 -> 58 ;
59 [label="Diamond Bank <= 0.5\nentropy = 0.863\nsamples = 14\nvalue = [4, 10]"] ;
53 -> 59 ;
60 [label="agerank <= 1.5\nentropy = 0.779\nsamples = 13\nvalue = [3, 10]"] ;
59 -> 60 ;
61 [label="entropy = 0.0\nsamples = 3\nvalue = [0, 3]"] ;
60 -> 61 ;
62 [label="rankloannum <= 2.5\nentropy = 0.881\nsamples = 10\nvalue = [3, 7]"] ;
60 -> 62 ;
63 [label="avgloanamtrank <= 3.5\nentropy = 0.954\nsamples = 8\nvalue = [3, 5]"] ;
62 -> 63 ;
64 [label="rankloannum <= 1.5\nentropy = 0.863\nsamples = 7\nvalue = [2, 5]"] ;
63 -> 64 ;
65 [label="entropy = 0.0\nsamples = 1\nvalue = [0, 1]"] ;
64 -> 65 ;
66 [label="FCMB <= 0.5\nentropy = 0.918\nsamples = 6\nvalue = [2, 4]"] ;
64 -> 66 ;
67 [label="GT Bank <= 0.5\nentropy = 0.971\nsamples = 5\nvalue = [2, 3]"] ;
66 -> 67 ;
68 [label="avgloanamtrank <= 2.5\nentropy = 1.0\nsamples = 2\nvalue = [1, 1]"] ;
67 -> 68 ;
69 [label="entropy = 0.0\nsamples = 1\nvalue = [0, 1]"] ;
68 -> 69 ;
70 [label="entropy = 0.0\nsamples = 1\nvalue = [1, 0]"] ;
68 -> 70 ;
71 [label="avgloanamtrank <= 2.5\nentropy = 0.918\nsamples = 3\nvalue = [1, 2]"] ;
67 -> 71 ;
72 [label="rankloanamt <= 2.5\nentropy = 1.0\nsamples = 2\nvalue = [1, 1]"] ;
71 -> 72 ;
73 [label="entropy = 0.0\nsamples = 1\nvalue = [1, 0]"] ;
72 -> 73 ;
74 [label="entropy = 0.0\nsamples = 1\nvalue = [0, 1]"] ;
72 -> 74 ;
75 [label="entropy = 0.0\nsamples = 1\nvalue = [0, 1]"] ;
71 -> 75 ;
76 [label="entropy = 0.0\nsamples = 1\nvalue = [0, 1]"] ;
66 -> 76 ;
77 [label="entropy = 0.0\nsamples = 1\nvalue = [1, 0]"] ;
63 -> 77 ;
78 [label="entropy = 0.0\nsamples = 2\nvalue = [0, 2]"] ;
62 -> 78 ;
79 [label="entropy = 0.0\nsamples = 1\nvalue = [1, 0]"] ;
59 -> 79 ;
80 [label="entropy = 0.0\nsamples = 2\nvalue = [2, 0]"] ;
38 -> 80 ;
81 [label="GT Bank <= 0.5\nentropy = 1.0\nsamples = 24\nvalue = [12, 12]"] ;
37 -> 81 ;
82 [label="Permanent <= 0.5\nentropy = 0.946\nsamples = 11\nvalue = [4, 7]"] ;
81 -> 82 ;
83 [label="entropy = 0.0\nsamples = 4\nvalue = [0, 4]"] ;
82 -> 83 ;
84 [label="UBA <= 0.5\nentropy = 0.985\nsamples = 7\nvalue = [4, 3]"] ;
82 -> 84 ;
85 [label="agerank <= 1.5\nentropy = 0.918\nsamples = 6\nvalue = [4, 2]"] ;
84 -> 85 ;
86 [label="entropy = 0.0\nsamples = 2\nvalue = [2, 0]"] ;
85 -> 86 ;
87 [label="Fidelity Bank <= 0.5\nentropy = 1.0\nsamples = 4\nvalue = [2, 2]"] ;
85 -> 87 ;
88 [label="First Bank <= 0.5\nentropy = 0.918\nsamples = 3\nvalue = [1, 2]"] ;
87 -> 88 ;
89 [label="entropy = 1.0\nsamples = 2\nvalue = [1, 1]"] ;
88 -> 89 ;
90 [label="entropy = 0.0\nsamples = 1\nvalue = [0, 1]"] ;
88 -> 90 ;
91 [label="entropy = 0.0\nsamples = 1\nvalue = [1, 0]"] ;
87 -> 91 ;
92 [label="entropy = 0.0\nsamples = 1\nvalue = [0, 1]"] ;
84 -> 92 ;
93 [label="rankloannum <= 2.5\nentropy = 0.961\nsamples = 13\nvalue = [8, 5]"] ;
81 -> 93 ;
94 [label="Permanent <= 0.5\nentropy = 0.918\nsamples = 12\nvalue = [8, 4]"] ;
93 -> 94 ;
95 [label="entropy = 0.0\nsamples = 4\nvalue = [4, 0]"] ;
94 -> 95 ;
96 [label="agerank <= 1.5\nentropy = 1.0\nsamples = 8\nvalue = [4, 4]"] ;
94 -> 96 ;
97 [label="rankloannum <= 1.5\nentropy = 0.918\nsamples = 6\nvalue = [4, 2]"] ;
96 -> 97 ;
98 [label="avgloanamtrank <= 2.5\nentropy = 0.811\nsamples = 4\nvalue = [3, 1]"] ;
97 -> 98 ;
99 [label="entropy = 0.0\nsamples = 2\nvalue = [2, 0]"] ;
98 -> 99 ;
100 [label="rankloanamt <= 2.5\nentropy = 1.0\nsamples = 2\nvalue = [1, 1]"] ;
98 -> 100 ;
101 [label="entropy = 0.0\nsamples = 1\nvalue = [0, 1]"] ;
100 -> 101 ;
102 [label="entropy = 0.0\nsamples = 1\nvalue = [1, 0]"] ;
100 -> 102 ;
103 [label="avgloanamtrank <= 2.5\nentropy = 1.0\nsamples = 2\nvalue = [1, 1]"] ;
97 -> 103 ;
104 [label="entropy = 0.0\nsamples = 1\nvalue = [0, 1]"] ;
103 -> 104 ;
105 [label="entropy = 0.0\nsamples = 1\nvalue = [1, 0]"] ;
103 -> 105 ;
106 [label="entropy = 0.0\nsamples = 2\nvalue = [0, 2]"] ;
96 -> 106 ;
107 [label="entropy = 0.0\nsamples = 1\nvalue = [0, 1]"] ;
93 -> 107 ;
108 [label="entropy = 0.0\nsamples = 4\nvalue = [0, 4]"] ;
6 -> 108 ;
109 [label="entropy = 0.0\nsamples = 1\nvalue = [1, 0]"] ;
5 -> 109 ;
110 [label="entropy = 0.0\nsamples = 3\nvalue = [0, 3]"] ;
2 -> 110 ;
111 [label="totalduerank <= 1.5\nentropy = 0.391\nsamples = 13\nvalue = [1, 12]"] ;
1 -> 111 ;
112 [label="entropy = 0.0\nsamples = 7\nvalue = [0, 7]"] ;
111 -> 112 ;
113 [label="avgloanamtrank <= 2.5\nentropy = 0.65\nsamples = 6\nvalue = [1, 5]"] ;
111 -> 113 ;
114 [label="Permanent <= 0.5\nentropy = 1.0\nsamples = 2\nvalue = [1, 1]"] ;
113 -> 114 ;
115 [label="entropy = 0.0\nsamples = 1\nvalue = [1, 0]"] ;
114 -> 115 ;
116 [label="entropy = 0.0\nsamples = 1\nvalue = [0, 1]"] ;
114 -> 116 ;
117 [label="entropy = 0.0\nsamples = 4\nvalue = [0, 4]"] ;
113 -> 117 ;
118 [label="rankloanamt <= 1.5\nentropy = 0.987\nsamples = 277\nvalue = [157, 120]"] ;
0 -> 118 [labeldistance=2.5, labelangle=-45, headlabel="False"] ;
119 [label="rankloannum <= 1.5\nentropy = 0.941\nsamples = 151\nvalue = [97, 54]"] ;
118 -> 119 ;
120 [label="Diamond Bank <= 0.5\nentropy = 0.921\nsamples = 146\nvalue = [97, 49]"] ;
119 -> 120 ;
121 [label="GT Bank <= 0.5\nentropy = 0.898\nsamples = 137\nvalue = [94, 43]"] ;
120 -> 121 ;
122 [label="Standard Chartered <= 0.5\nentropy = 0.848\nsamples = 113\nvalue = [82, 31]"] ;
121 -> 122 ;
123 [label="repaymentrank <= 2.5\nentropy = 0.838\nsamples = 112\nvalue = [82, 30]"] ;
122 -> 123 ;
124 [label="Unemployed <= 0.5\nentropy = 0.688\nsamples = 49\nvalue = [40, 9]"] ;
123 -> 124 ;
125 [label="EcoBank <= 0.5\nentropy = 0.65\nsamples = 48\nvalue = [40, 8]"] ;
124 -> 125 ;
126 [label="Student <= 0.5\nentropy = 0.693\nsamples = 43\nvalue = [35, 8]"] ;
125 -> 126 ;
127 [label="isreffered <= 0.5\nentropy = 0.732\nsamples = 39\nvalue = [31, 8]"] ;
126 -> 127 ;
128 [label="UBA <= 0.5\nentropy = 0.637\nsamples = 31\nvalue = [26, 5]"] ;
127 -> 128 ;
129 [label="Access Bank <= 0.5\nentropy = 0.706\nsamples = 26\nvalue = [21, 5]"] ;
128 -> 129 ;
130 [label="Skye Bank <= 0.5\nentropy = 0.755\nsamples = 23\nvalue = [18, 5]"] ;
129 -> 130 ;
131 [label="FCMB <= 0.5\nentropy = 0.792\nsamples = 21\nvalue = [16, 5]"] ;
130 -> 131 ;
132 [label="agerank <= 1.5\nentropy = 0.831\nsamples = 19\nvalue = [14, 5]"] ;
131 -> 132 ;
133 [label="Stanbic IBTC <= 0.5\nentropy = 0.954\nsamples = 8\nvalue = [5, 3]"] ;
132 -> 133 ;
134 [label="Self-Employed <= 0.5\nentropy = 0.722\nsamples = 5\nvalue = [4, 1]"] ;
133 -> 134 ;
135 [label="entropy = 0.0\nsamples = 3\nvalue = [3, 0]"] ;
134 -> 135 ;
136 [label="termdays <= 22.5\nentropy = 1.0\nsamples = 2\nvalue = [1, 1]"] ;
134 -> 136 ;
137 [label="entropy = 0.0\nsamples = 1\nvalue = [1, 0]"] ;
136 -> 137 ;
138 [label="entropy = 0.0\nsamples = 1\nvalue = [0, 1]"] ;
136 -> 138 ;
139 [label="termdays <= 22.5\nentropy = 0.918\nsamples = 3\nvalue = [1, 2]"] ;
133 -> 139 ;
140 [label="entropy = 0.0\nsamples = 1\nvalue = [0, 1]"] ;
139 -> 140 ;
141 [label="entropy = 1.0\nsamples = 2\nvalue = [1, 1]"] ;
139 -> 141 ;
142 [label="Stanbic IBTC <= 0.5\nentropy = 0.684\nsamples = 11\nvalue = [9, 2]"] ;
132 -> 142 ;
143 [label="First Bank <= 0.5\nentropy = 0.811\nsamples = 8\nvalue = [6, 2]"] ;
142 -> 143 ;
144 [label="Sterling Bank <= 0.5\nentropy = 0.918\nsamples = 6\nvalue = [4, 2]"] ;
143 -> 144 ;
145 [label="Zenith Bank <= 0.5\nentropy = 0.971\nsamples = 5\nvalue = [3, 2]"] ;
144 -> 145 ;
146 [label="termdays <= 22.5\nentropy = 1.0\nsamples = 2\nvalue = [1, 1]"] ;
145 -> 146 ;
147 [label="entropy = 0.0\nsamples = 1\nvalue = [0, 1]"] ;
146 -> 147 ;
148 [label="entropy = 0.0\nsamples = 1\nvalue = [1, 0]"] ;
146 -> 148 ;
149 [label="agerank <= 2.5\nentropy = 0.918\nsamples = 3\nvalue = [2, 1]"] ;
145 -> 149 ;
150 [label="entropy = 0.0\nsamples = 1\nvalue = [1, 0]"] ;
149 -> 150 ;
151 [label="termdays <= 22.5\nentropy = 1.0\nsamples = 2\nvalue = [1, 1]"] ;
149 -> 151 ;
152 [label="entropy = 0.0\nsamples = 1\nvalue = [1, 0]"] ;
151 -> 152 ;
153 [label="entropy = 0.0\nsamples = 1\nvalue = [0, 1]"] ;
151 -> 153 ;
154 [label="entropy = 0.0\nsamples = 1\nvalue = [1, 0]"] ;
144 -> 154 ;
155 [label="entropy = 0.0\nsamples = 2\nvalue = [2, 0]"] ;
143 -> 155 ;
156 [label="entropy = 0.0\nsamples = 3\nvalue = [3, 0]"] ;
142 -> 156 ;
157 [label="entropy = 0.0\nsamples = 2\nvalue = [2, 0]"] ;
131 -> 157 ;
158 [label="entropy = 0.0\nsamples = 2\nvalue = [2, 0]"] ;
130 -> 158 ;
159 [label="entropy = 0.0\nsamples = 3\nvalue = [3, 0]"] ;
129 -> 159 ;
160 [label="entropy = 0.0\nsamples = 5\nvalue = [5, 0]"] ;
128 -> 160 ;
161 [label="agerank <= 1.5\nentropy = 0.954\nsamples = 8\nvalue = [5, 3]"] ;
127 -> 161 ;
162 [label="entropy = 0.0\nsamples = 1\nvalue = [1, 0]"] ;
161 -> 162 ;
163 [label="UBA <= 0.5\nentropy = 0.985\nsamples = 7\nvalue = [4, 3]"] ;
161 -> 163 ;
164 [label="Union Bank <= 0.5\nentropy = 0.918\nsamples = 6\nvalue = [4, 2]"] ;
163 -> 164 ;
165 [label="termdays <= 22.5\nentropy = 0.971\nsamples = 5\nvalue = [3, 2]"] ;
164 -> 165 ;
166 [label="Access Bank <= 0.5\nentropy = 1.0\nsamples = 2\nvalue = [1, 1]"] ;
165 -> 166 ;
167 [label="entropy = 0.0\nsamples = 1\nvalue = [1, 0]"] ;
166 -> 167 ;
168 [label="entropy = 0.0\nsamples = 1\nvalue = [0, 1]"] ;
166 -> 168 ;
169 [label="Access Bank <= 0.5\nentropy = 0.918\nsamples = 3\nvalue = [2, 1]"] ;
165 -> 169 ;
170 [label="entropy = 1.0\nsamples = 2\nvalue = [1, 1]"] ;
169 -> 170 ;
171 [label="entropy = 0.0\nsamples = 1\nvalue = [1, 0]"] ;
169 -> 171 ;
172 [label="entropy = 0.0\nsamples = 1\nvalue = [1, 0]"] ;
164 -> 172 ;
173 [label="entropy = 0.0\nsamples = 1\nvalue = [0, 1]"] ;
163 -> 173 ;
174 [label="entropy = 0.0\nsamples = 4\nvalue = [4, 0]"] ;
126 -> 174 ;
175 [label="entropy = 0.0\nsamples = 5\nvalue = [5, 0]"] ;
125 -> 175 ;
176 [label="entropy = 0.0\nsamples = 1\nvalue = [0, 1]"] ;
124 -> 176 ;
177 [label="Union Bank <= 0.5\nentropy = 0.918\nsamples = 63\nvalue = [42, 21]"] ;
123 -> 177 ;
178 [label="Fidelity Bank <= 0.5\nentropy = 0.907\nsamples = 62\nvalue = [42, 20]"] ;
177 -> 178 ;
179 [label="termdays <= 22.5\nentropy = 0.887\nsamples = 59\nvalue = [41, 18]"] ;
178 -> 179 ;
180 [label="agerank <= 1.5\nentropy = 0.971\nsamples = 20\nvalue = [12, 8]"] ;
179 -> 180 ;
181 [label="EcoBank <= 0.5\nentropy = 0.946\nsamples = 11\nvalue = [4, 7]"] ;
180 -> 181 ;
182 [label="isreffered <= 0.5\nentropy = 0.881\nsamples = 10\nvalue = [3, 7]"] ;
181 -> 182 ;
183 [label="UBA <= 0.5\nentropy = 0.592\nsamples = 7\nvalue = [1, 6]"] ;
182 -> 183 ;
184 [label="entropy = 0.0\nsamples = 5\nvalue = [0, 5]"] ;
183 -> 184 ;
185 [label="Permanent <= 0.5\nentropy = 1.0\nsamples = 2\nvalue = [1, 1]"] ;
183 -> 185 ;
186 [label="entropy = 0.0\nsamples = 1\nvalue = [1, 0]"] ;
185 -> 186 ;
187 [label="entropy = 0.0\nsamples = 1\nvalue = [0, 1]"] ;
185 -> 187 ;
188 [label="Stanbic IBTC <= 0.5\nentropy = 0.918\nsamples = 3\nvalue = [2, 1]"] ;
182 -> 188 ;
189 [label="entropy = 0.0\nsamples = 2\nvalue = [2, 0]"] ;
188 -> 189 ;
190 [label="entropy = 0.0\nsamples = 1\nvalue = [0, 1]"] ;
188 -> 190 ;
191 [label="entropy = 0.0\nsamples = 1\nvalue = [1, 0]"] ;
181 -> 191 ;
192 [label="EcoBank <= 0.5\nentropy = 0.503\nsamples = 9\nvalue = [8, 1]"] ;
180 -> 192 ;
193 [label="entropy = 0.0\nsamples = 8\nvalue = [8, 0]"] ;
192 -> 193 ;
194 [label="entropy = 0.0\nsamples = 1\nvalue = [0, 1]"] ;
192 -> 194 ;
195 [label="agerank <= 1.5\nentropy = 0.821\nsamples = 39\nvalue = [29, 10]"] ;
179 -> 195 ;
196 [label="Skye Bank <= 0.5\nentropy = 0.391\nsamples = 13\nvalue = [12, 1]"] ;
195 -> 196 ;
197 [label="entropy = 0.0\nsamples = 10\nvalue = [10, 0]"] ;
196 -> 197 ;
198 [label="isreffered <= 0.5\nentropy = 0.918\nsamples = 3\nvalue = [2, 1]"] ;
196 -> 198 ;
199 [label="entropy = 1.0\nsamples = 2\nvalue = [1, 1]"] ;
198 -> 199 ;
200 [label="entropy = 0.0\nsamples = 1\nvalue = [1, 0]"] ;
198 -> 200 ;
201 [label="Keystone Bank <= 0.5\nentropy = 0.931\nsamples = 26\nvalue = [17, 9]"] ;
195 -> 201 ;
202 [label="avgloanamtrank <= 1.5\nentropy = 0.904\nsamples = 25\nvalue = [17, 8]"] ;
201 -> 202 ;
203 [label="entropy = 0.0\nsamples = 2\nvalue = [2, 0]"] ;
202 -> 203 ;
204 [label="FCMB <= 0.5\nentropy = 0.932\nsamples = 23\nvalue = [15, 8]"] ;
202 -> 204 ;
205 [label="Self-Employed <= 0.5\nentropy = 0.959\nsamples = 21\nvalue = [13, 8]"] ;
204 -> 205 ;
206 [label="Wema Bank <= 0.5\nentropy = 0.934\nsamples = 20\nvalue = [13, 7]"] ;
205 -> 206 ;
207 [label="Zenith Bank <= 0.5\nentropy = 0.949\nsamples = 19\nvalue = [12, 7]"] ;
206 -> 207 ;
208 [label="First Bank <= 0.5\nentropy = 0.964\nsamples = 18\nvalue = [11, 7]"] ;
207 -> 208 ;
209 [label="isreffered <= 0.5\nentropy = 0.985\nsamples = 14\nvalue = [8, 6]"] ;
208 -> 209 ;
210 [label="Access Bank <= 0.5\nentropy = 1.0\nsamples = 10\nvalue = [5, 5]"] ;
209 -> 210 ;
211 [label="Permanent <= 0.5\nentropy = 0.991\nsamples = 9\nvalue = [4, 5]"] ;
210 -> 211 ;
212 [label="entropy = 0.0\nsamples = 2\nvalue = [0, 2]"] ;
211 -> 212 ;
213 [label="Skye Bank <= 0.5\nentropy = 0.985\nsamples = 7\nvalue = [4, 3]"] ;
211 -> 213 ;
214 [label="EcoBank <= 0.5\nentropy = 0.918\nsamples = 6\nvalue = [4, 2]"] ;
213 -> 214 ;
215 [label="agerank <= 2.5\nentropy = 0.971\nsamples = 5\nvalue = [3, 2]"] ;
214 -> 215 ;
216 [label="UBA <= 0.5\nentropy = 1.0\nsamples = 4\nvalue = [2, 2]"] ;
215 -> 216 ;
217 [label="entropy = 1.0\nsamples = 2\nvalue = [1, 1]"] ;
216 -> 217 ;
218 [label="entropy = 1.0\nsamples = 2\nvalue = [1, 1]"] ;
216 -> 218 ;
219 [label="entropy = 0.0\nsamples = 1\nvalue = [1, 0]"] ;
215 -> 219 ;
220 [label="entropy = 0.0\nsamples = 1\nvalue = [1, 0]"] ;
214 -> 220 ;
221 [label="entropy = 0.0\nsamples = 1\nvalue = [0, 1]"] ;
213 -> 221 ;
222 [label="entropy = 0.0\nsamples = 1\nvalue = [1, 0]"] ;
210 -> 222 ;
223 [label="Access Bank <= 0.5\nentropy = 0.811\nsamples = 4\nvalue = [3, 1]"] ;
209 -> 223 ;
224 [label="entropy = 0.0\nsamples = 3\nvalue = [3, 0]"] ;
223 -> 224 ;
225 [label="entropy = 0.0\nsamples = 1\nvalue = [0, 1]"] ;
223 -> 225 ;
226 [label="isreffered <= 0.5\nentropy = 0.811\nsamples = 4\nvalue = [3, 1]"] ;
208 -> 226 ;
227 [label="entropy = 0.0\nsamples = 2\nvalue = [2, 0]"] ;
226 -> 227 ;
228 [label="entropy = 1.0\nsamples = 2\nvalue = [1, 1]"] ;
226 -> 228 ;
229 [label="entropy = 0.0\nsamples = 1\nvalue = [1, 0]"] ;
207 -> 229 ;
230 [label="entropy = 0.0\nsamples = 1\nvalue = [1, 0]"] ;
206 -> 230 ;
231 [label="entropy = 0.0\nsamples = 1\nvalue = [0, 1]"] ;
205 -> 231 ;
232 [label="entropy = 0.0\nsamples = 2\nvalue = [2, 0]"] ;
204 -> 232 ;
233 [label="entropy = 0.0\nsamples = 1\nvalue = [0, 1]"] ;
201 -> 233 ;
234 [label="agerank <= 1.5\nentropy = 0.918\nsamples = 3\nvalue = [1, 2]"] ;
178 -> 234 ;
235 [label="entropy = 0.0\nsamples = 2\nvalue = [0, 2]"] ;
234 -> 235 ;
236 [label="entropy = 0.0\nsamples = 1\nvalue = [1, 0]"] ;
234 -> 236 ;
237 [label="entropy = 0.0\nsamples = 1\nvalue = [0, 1]"] ;
177 -> 237 ;
238 [label="entropy = 0.0\nsamples = 1\nvalue = [0, 1]"] ;
122 -> 238 ;
239 [label="Retired <= 0.5\nentropy = 1.0\nsamples = 24\nvalue = [12, 12]"] ;
121 -> 239 ;
240 [label="isreffered <= 0.5\nentropy = 0.999\nsamples = 23\nvalue = [11, 12]"] ;
239 -> 240 ;
241 [label="repaymentrank <= 2.5\nentropy = 0.971\nsamples = 15\nvalue = [6, 9]"] ;
240 -> 241 ;
242 [label="Unemployed <= 0.5\nentropy = 0.971\nsamples = 5\nvalue = [3, 2]"] ;
241 -> 242 ;
243 [label="entropy = 0.0\nsamples = 3\nvalue = [3, 0]"] ;
242 -> 243 ;
244 [label="entropy = 0.0\nsamples = 2\nvalue = [0, 2]"] ;
242 -> 244 ;
245 [label="Unemployed <= 0.5\nentropy = 0.881\nsamples = 10\nvalue = [3, 7]"] ;
241 -> 245 ;
246 [label="agerank <= 1.5\nentropy = 0.764\nsamples = 9\nvalue = [2, 7]"] ;
245 -> 246 ;
247 [label="Permanent <= 0.5\nentropy = 0.971\nsamples = 5\nvalue = [2, 3]"] ;
246 -> 247 ;
248 [label="Student <= 0.5\nentropy = 0.811\nsamples = 4\nvalue = [1, 3]"] ;
247 -> 248 ;
249 [label="termdays <= 22.5\nentropy = 0.918\nsamples = 3\nvalue = [1, 2]"] ;
248 -> 249 ;
250 [label="entropy = 1.0\nsamples = 2\nvalue = [1, 1]"] ;
249 -> 250 ;
251 [label="entropy = 0.0\nsamples = 1\nvalue = [0, 1]"] ;
249 -> 251 ;
252 [label="entropy = 0.0\nsamples = 1\nvalue = [0, 1]"] ;
248 -> 252 ;
253 [label="entropy = 0.0\nsamples = 1\nvalue = [1, 0]"] ;
247 -> 253 ;
254 [label="entropy = 0.0\nsamples = 4\nvalue = [0, 4]"] ;
246 -> 254 ;
255 [label="entropy = 0.0\nsamples = 1\nvalue = [1, 0]"] ;
245 -> 255 ;
256 [label="repaymentrank <= 2.5\nentropy = 0.954\nsamples = 8\nvalue = [5, 3]"] ;
240 -> 256 ;
257 [label="agerank <= 1.5\nentropy = 1.0\nsamples = 4\nvalue = [2, 2]"] ;
256 -> 257 ;
258 [label="entropy = 0.0\nsamples = 1\nvalue = [0, 1]"] ;
257 -> 258 ;
259 [label="Permanent <= 0.5\nentropy = 0.918\nsamples = 3\nvalue = [2, 1]"] ;
257 -> 259 ;
260 [label="entropy = 0.0\nsamples = 1\nvalue = [1, 0]"] ;
259 -> 260 ;
261 [label="termdays <= 22.5\nentropy = 1.0\nsamples = 2\nvalue = [1, 1]"] ;
259 -> 261 ;
262 [label="entropy = 0.0\nsamples = 1\nvalue = [0, 1]"] ;
261 -> 262 ;
263 [label="entropy = 0.0\nsamples = 1\nvalue = [1, 0]"] ;
261 -> 263 ;
264 [label="Self-Employed <= 0.5\nentropy = 0.811\nsamples = 4\nvalue = [3, 1]"] ;
256 -> 264 ;
265 [label="entropy = 0.0\nsamples = 3\nvalue = [3, 0]"] ;
264 -> 265 ;
266 [label="entropy = 0.0\nsamples = 1\nvalue = [0, 1]"] ;
264 -> 266 ;
267 [label="entropy = 0.0\nsamples = 1\nvalue = [1, 0]"] ;
239 -> 267 ;
268 [label="repaymentrank <= 2.5\nentropy = 0.918\nsamples = 9\nvalue = [3, 6]"] ;
120 -> 268 ;
269 [label="agerank <= 1.5\nentropy = 0.971\nsamples = 5\nvalue = [3, 2]"] ;
268 -> 269 ;
270 [label="termdays <= 22.5\nentropy = 0.918\nsamples = 3\nvalue = [1, 2]"] ;
269 -> 270 ;
271 [label="entropy = 0.0\nsamples = 1\nvalue = [1, 0]"] ;
270 -> 271 ;
272 [label="entropy = 0.0\nsamples = 2\nvalue = [0, 2]"] ;
270 -> 272 ;
273 [label="entropy = 0.0\nsamples = 2\nvalue = [2, 0]"] ;
269 -> 273 ;
274 [label="entropy = 0.0\nsamples = 4\nvalue = [0, 4]"] ;
268 -> 274 ;
275 [label="entropy = 0.0\nsamples = 5\nvalue = [0, 5]"] ;
119 -> 275 ;
276 [label="First Bank <= 0.5\nentropy = 0.998\nsamples = 126\nvalue = [60, 66]"] ;
118 -> 276 ;
277 [label="Student <= 0.5\nentropy = 0.993\nsamples = 115\nvalue = [52, 63]"] ;
276 -> 277 ;
278 [label="termdays <= 22.5\nentropy = 0.986\nsamples = 109\nvalue = [47, 62]"] ;
277 -> 278 ;
279 [label="repaymentrank <= 2.5\nentropy = 0.918\nsamples = 12\nvalue = [8, 4]"] ;
278 -> 279 ;
280 [label="entropy = 0.0\nsamples = 3\nvalue = [3, 0]"] ;
279 -> 280 ;
281 [label="Stanbic IBTC <= 0.5\nentropy = 0.991\nsamples = 9\nvalue = [5, 4]"] ;
279 -> 281 ;
282 [label="Access Bank <= 0.5\nentropy = 0.954\nsamples = 8\nvalue = [5, 3]"] ;
281 -> 282 ;
283 [label="rankloannum <= 1.5\nentropy = 0.863\nsamples = 7\nvalue = [5, 2]"] ;
282 -> 283 ;
284 [label="UBA <= 0.5\nentropy = 0.65\nsamples = 6\nvalue = [5, 1]"] ;
283 -> 284 ;
285 [label="entropy = 0.0\nsamples = 4\nvalue = [4, 0]"] ;
284 -> 285 ;
286 [label="entropy = 1.0\nsamples = 2\nvalue = [1, 1]"] ;
284 -> 286 ;
287 [label="entropy = 0.0\nsamples = 1\nvalue = [0, 1]"] ;
283 -> 287 ;
288 [label="entropy = 0.0\nsamples = 1\nvalue = [0, 1]"] ;
282 -> 288 ;
289 [label="entropy = 0.0\nsamples = 1\nvalue = [0, 1]"] ;
281 -> 289 ;
290 [label="termdays <= 45.0\nentropy = 0.972\nsamples = 97\nvalue = [39, 58]"] ;
278 -> 290 ;
291 [label="EcoBank <= 0.5\nentropy = 0.948\nsamples = 79\nvalue = [29, 50]"] ;
290 -> 291 ;
292 [label="Heritage Bank <= 0.5\nentropy = 0.927\nsamples = 73\nvalue = [25, 48]"] ;
291 -> 292 ;
293 [label="Self-Employed <= 0.5\nentropy = 0.918\nsamples = 72\nvalue = [24, 48]"] ;
292 -> 293 ;
294 [label="Zenith Bank <= 0.5\nentropy = 0.953\nsamples = 59\nvalue = [22, 37]"] ;
293 -> 294 ;
295 [label="repaymentrank <= 3.5\nentropy = 0.924\nsamples = 53\nvalue = [18, 35]"] ;
294 -> 295 ;
296 [label="FCMB <= 0.5\nentropy = 0.912\nsamples = 52\nvalue = [17, 35]"] ;
295 -> 296 ;
297 [label="agerank <= 2.5\nentropy = 0.879\nsamples = 47\nvalue = [14, 33]"] ;
296 -> 297 ;
298 [label="Sterling Bank <= 0.5\nentropy = 0.918\nsamples = 39\nvalue = [13, 26]"] ;
297 -> 298 ;
299 [label="Fidelity Bank <= 0.5\nentropy = 0.9\nsamples = 38\nvalue = [12, 26]"] ;
298 -> 299 ;
300 [label="Permanent <= 0.5\nentropy = 0.878\nsamples = 37\nvalue = [11, 26]"] ;
299 -> 300 ;
301 [label="entropy = 0.0\nsamples = 2\nvalue = [0, 2]"] ;
300 -> 301 ;
302 [label="Skye Bank <= 0.5\nentropy = 0.898\nsamples = 35\nvalue = [11, 24]"] ;
300 -> 302 ;
303 [label="isreffered <= 0.5\nentropy = 0.874\nsamples = 34\nvalue = [10, 24]"] ;
302 -> 303 ;
304 [label="Wema Bank <= 0.5\nentropy = 0.907\nsamples = 31\nvalue = [10, 21]"] ;
303 -> 304 ;
305 [label="Standard Chartered <= 0.5\nentropy = 0.918\nsamples = 30\nvalue = [10, 20]"] ;
304 -> 305 ;
306 [label="Stanbic IBTC <= 0.5\nentropy = 0.929\nsamples = 29\nvalue = [10, 19]"] ;
305 -> 306 ;
307 [label="agerank <= 1.5\nentropy = 0.954\nsamples = 24\nvalue = [9, 15]"] ;
306 -> 307 ;
308 [label="avgloanamtrank <= 2.5\nentropy = 0.845\nsamples = 11\nvalue = [3, 8]"] ;
307 -> 308 ;
309 [label="Access Bank <= 0.5\nentropy = 0.881\nsamples = 10\nvalue = [3, 7]"] ;
308 -> 309 ;
310 [label="rankloannum <= 1.5\nentropy = 0.918\nsamples = 9\nvalue = [3, 6]"] ;
309 -> 310 ;
311 [label="Diamond Bank <= 0.5\nentropy = 0.863\nsamples = 7\nvalue = [2, 5]"] ;
310 -> 311 ;
312 [label="UBA <= 0.5\nentropy = 0.918\nsamples = 6\nvalue = [2, 4]"] ;
311 -> 312 ;
313 [label="totalduerank <= 1.5\nentropy = 0.811\nsamples = 4\nvalue = [1, 3]"] ;
312 -> 313 ;
314 [label="entropy = 1.0\nsamples = 2\nvalue = [1, 1]"] ;
313 -> 314 ;
315 [label="entropy = 0.0\nsamples = 2\nvalue = [0, 2]"] ;
313 -> 315 ;
316 [label="repaymentrank <= 2.5\nentropy = 1.0\nsamples = 2\nvalue = [1, 1]"] ;
312 -> 316 ;
317 [label="entropy = 0.0\nsamples = 1\nvalue = [0, 1]"] ;
316 -> 317 ;
318 [label="entropy = 0.0\nsamples = 1\nvalue = [1, 0]"] ;
316 -> 318 ;
319 [label="entropy = 0.0\nsamples = 1\nvalue = [0, 1]"] ;
311 -> 319 ;
320 [label="repaymentrank <= 2.5\nentropy = 1.0\nsamples = 2\nvalue = [1, 1]"] ;
310 -> 320 ;
321 [label="entropy = 0.0\nsamples = 1\nvalue = [1, 0]"] ;
320 -> 321 ;
322 [label="entropy = 0.0\nsamples = 1\nvalue = [0, 1]"] ;
320 -> 322 ;
323 [label="entropy = 0.0\nsamples = 1\nvalue = [0, 1]"] ;
309 -> 323 ;
324 [label="entropy = 0.0\nsamples = 1\nvalue = [0, 1]"] ;
308 -> 324 ;
325 [label="rankloannum <= 1.5\nentropy = 0.996\nsamples = 13\nvalue = [6, 7]"] ;
307 -> 325 ;
326 [label="avgloanamtrank <= 2.5\nentropy = 0.954\nsamples = 8\nvalue = [3, 5]"] ;
325 -> 326 ;
327 [label="GT Bank <= 0.5\nentropy = 1.0\nsamples = 6\nvalue = [3, 3]"] ;
326 -> 327 ;
328 [label="totalduerank <= 1.5\nentropy = 0.811\nsamples = 4\nvalue = [1, 3]"] ;
327 -> 328 ;
329 [label="entropy = 0.0\nsamples = 2\nvalue = [0, 2]"] ;
328 -> 329 ;
330 [label="entropy = 1.0\nsamples = 2\nvalue = [1, 1]"] ;
328 -> 330 ;
331 [label="entropy = 0.0\nsamples = 2\nvalue = [2, 0]"] ;
327 -> 331 ;
332 [label="entropy = 0.0\nsamples = 2\nvalue = [0, 2]"] ;
326 -> 332 ;
333 [label="GT Bank <= 0.5\nentropy = 0.971\nsamples = 5\nvalue = [3, 2]"] ;
325 -> 333 ;
334 [label="Keystone Bank <= 0.5\nentropy = 0.811\nsamples = 4\nvalue = [3, 1]"] ;
333 -> 334 ;
335 [label="entropy = 0.0\nsamples = 2\nvalue = [2, 0]"] ;
334 -> 335 ;
336 [label="entropy = 1.0\nsamples = 2\nvalue = [1, 1]"] ;
334 -> 336 ;
337 [label="entropy = 0.0\nsamples = 1\nvalue = [0, 1]"] ;
333 -> 337 ;
338 [label="totalduerank <= 1.5\nentropy = 0.722\nsamples = 5\nvalue = [1, 4]"] ;
306 -> 338 ;
339 [label="repaymentrank <= 2.5\nentropy = 0.918\nsamples = 3\nvalue = [1, 2]"] ;
338 -> 339 ;
340 [label="entropy = 0.0\nsamples = 1\nvalue = [0, 1]"] ;
339 -> 340 ;
341 [label="agerank <= 1.5\nentropy = 1.0\nsamples = 2\nvalue = [1, 1]"] ;
339 -> 341 ;
342 [label="entropy = 0.0\nsamples = 1\nvalue = [1, 0]"] ;
341 -> 342 ;
343 [label="entropy = 0.0\nsamples = 1\nvalue = [0, 1]"] ;
341 -> 343 ;
344 [label="entropy = 0.0\nsamples = 2\nvalue = [0, 2]"] ;
338 -> 344 ;
345 [label="entropy = 0.0\nsamples = 1\nvalue = [0, 1]"] ;
305 -> 345 ;
346 [label="entropy = 0.0\nsamples = 1\nvalue = [0, 1]"] ;
304 -> 346 ;
347 [label="entropy = 0.0\nsamples = 3\nvalue = [0, 3]"] ;
303 -> 347 ;
348 [label="entropy = 0.0\nsamples = 1\nvalue = [1, 0]"] ;
302 -> 348 ;
349 [label="entropy = 0.0\nsamples = 1\nvalue = [1, 0]"] ;
299 -> 349 ;
350 [label="entropy = 0.0\nsamples = 1\nvalue = [1, 0]"] ;
298 -> 350 ;
351 [label="repaymentrank <= 2.5\nentropy = 0.544\nsamples = 8\nvalue = [1, 7]"] ;
297 -> 351 ;
352 [label="entropy = 0.0\nsamples = 1\nvalue = [1, 0]"] ;
351 -> 352 ;
353 [label="entropy = 0.0\nsamples = 7\nvalue = [0, 7]"] ;
351 -> 353 ;
354 [label="totalduerank <= 1.5\nentropy = 0.971\nsamples = 5\nvalue = [3, 2]"] ;
296 -> 354 ;
355 [label="entropy = 0.0\nsamples = 2\nvalue = [2, 0]"] ;
354 -> 355 ;
356 [label="avgloanamtrank <= 2.5\nentropy = 0.918\nsamples = 3\nvalue = [1, 2]"] ;
354 -> 356 ;
357 [label="entropy = 0.0\nsamples = 1\nvalue = [0, 1]"] ;
356 -> 357 ;
358 [label="entropy = 1.0\nsamples = 2\nvalue = [1, 1]"] ;
356 -> 358 ;
359 [label="entropy = 0.0\nsamples = 1\nvalue = [1, 0]"] ;
295 -> 359 ;
360 [label="repaymentrank <= 2.5\nentropy = 0.918\nsamples = 6\nvalue = [4, 2]"] ;
294 -> 360 ;
361 [label="entropy = 0.0\nsamples = 1\nvalue = [0, 1]"] ;
360 -> 361 ;
362 [label="rankloannum <= 1.5\nentropy = 0.722\nsamples = 5\nvalue = [4, 1]"] ;
360 -> 362 ;
363 [label="avgloanamtrank <= 2.5\nentropy = 0.918\nsamples = 3\nvalue = [2, 1]"] ;
362 -> 363 ;
364 [label="entropy = 0.0\nsamples = 2\nvalue = [2, 0]"] ;
363 -> 364 ;
365 [label="entropy = 0.0\nsamples = 1\nvalue = [0, 1]"] ;
363 -> 365 ;
366 [label="entropy = 0.0\nsamples = 2\nvalue = [2, 0]"] ;
362 -> 366 ;
367 [label="Diamond Bank <= 0.5\nentropy = 0.619\nsamples = 13\nvalue = [2, 11]"] ;
293 -> 367 ;
368 [label="repaymentrank <= 2.5\nentropy = 0.414\nsamples = 12\nvalue = [1, 11]"] ;
367 -> 368 ;
369 [label="GT Bank <= 0.5\nentropy = 0.811\nsamples = 4\nvalue = [1, 3]"] ;
368 -> 369 ;
370 [label="entropy = 0.0\nsamples = 3\nvalue = [0, 3]"] ;
369 -> 370 ;
371 [label="entropy = 0.0\nsamples = 1\nvalue = [1, 0]"] ;
369 -> 371 ;
372 [label="entropy = 0.0\nsamples = 8\nvalue = [0, 8]"] ;
368 -> 372 ;
373 [label="entropy = 0.0\nsamples = 1\nvalue = [1, 0]"] ;
367 -> 373 ;
374 [label="entropy = 0.0\nsamples = 1\nvalue = [1, 0]"] ;
292 -> 374 ;
375 [label="avgloanamtrank <= 1.5\nentropy = 0.918\nsamples = 6\nvalue = [4, 2]"] ;
291 -> 375 ;
376 [label="entropy = 0.0\nsamples = 1\nvalue = [0, 1]"] ;
375 -> 376 ;
377 [label="totalduerank <= 1.5\nentropy = 0.722\nsamples = 5\nvalue = [4, 1]"] ;
375 -> 377 ;
378 [label="isreffered <= 0.5\nentropy = 0.918\nsamples = 3\nvalue = [2, 1]"] ;
377 -> 378 ;
379 [label="agerank <= 1.5\nentropy = 1.0\nsamples = 2\nvalue = [1, 1]"] ;
378 -> 379 ;
380 [label="entropy = 0.0\nsamples = 1\nvalue = [0, 1]"] ;
379 -> 380 ;
381 [label="entropy = 0.0\nsamples = 1\nvalue = [1, 0]"] ;
379 -> 381 ;
382 [label="entropy = 0.0\nsamples = 1\nvalue = [1, 0]"] ;
378 -> 382 ;
383 [label="entropy = 0.0\nsamples = 2\nvalue = [2, 0]"] ;
377 -> 383 ;
384 [label="Diamond Bank <= 0.5\nentropy = 0.991\nsamples = 18\nvalue = [10, 8]"] ;
290 -> 384 ;
385 [label="rankloanamt <= 2.5\nentropy = 0.954\nsamples = 16\nvalue = [10, 6]"] ;
384 -> 385 ;
386 [label="Union Bank <= 0.5\nentropy = 0.503\nsamples = 9\nvalue = [8, 1]"] ;
385 -> 386 ;
387 [label="entropy = 0.0\nsamples = 8\nvalue = [8, 0]"] ;
386 -> 387 ;
388 [label="entropy = 0.0\nsamples = 1\nvalue = [0, 1]"] ;
386 -> 388 ;
389 [label="Zenith Bank <= 0.5\nentropy = 0.863\nsamples = 7\nvalue = [2, 5]"] ;
385 -> 389 ;
390 [label="GT Bank <= 0.5\nentropy = 0.65\nsamples = 6\nvalue = [1, 5]"] ;
389 -> 390 ;
391 [label="entropy = 0.0\nsamples = 3\nvalue = [0, 3]"] ;
390 -> 391 ;
392 [label="rankloannum <= 1.5\nentropy = 0.918\nsamples = 3\nvalue = [1, 2]"] ;
390 -> 392 ;
393 [label="entropy = 0.0\nsamples = 2\nvalue = [0, 2]"] ;
392 -> 393 ;
394 [label="entropy = 0.0\nsamples = 1\nvalue = [1, 0]"] ;
392 -> 394 ;
395 [label="entropy = 0.0\nsamples = 1\nvalue = [1, 0]"] ;
389 -> 395 ;
396 [label="entropy = 0.0\nsamples = 2\nvalue = [0, 2]"] ;
384 -> 396 ;
397 [label="totalduerank <= 1.5\nentropy = 0.65\nsamples = 6\nvalue = [5, 1]"] ;
277 -> 397 ;
398 [label="agerank <= 2.5\nentropy = 1.0\nsamples = 2\nvalue = [1, 1]"] ;
397 -> 398 ;
399 [label="entropy = 0.0\nsamples = 1\nvalue = [0, 1]"] ;
398 -> 399 ;
400 [label="entropy = 0.0\nsamples = 1\nvalue = [1, 0]"] ;
398 -> 400 ;
401 [label="entropy = 0.0\nsamples = 4\nvalue = [4, 0]"] ;
397 -> 401 ;
402 [label="repaymentrank <= 2.5\nentropy = 0.845\nsamples = 11\nvalue = [8, 3]"] ;
276 -> 402 ;
403 [label="entropy = 0.0\nsamples = 4\nvalue = [4, 0]"] ;
402 -> 403 ;
404 [label="Student <= 0.5\nentropy = 0.985\nsamples = 7\nvalue = [4, 3]"] ;
402 -> 404 ;
405 [label="Self-Employed <= 0.5\nentropy = 0.918\nsamples = 6\nvalue = [4, 2]"] ;
404 -> 405 ;
406 [label="termdays <= 45.0\nentropy = 0.971\nsamples = 5\nvalue = [3, 2]"] ;
405 -> 406 ;
407 [label="rankloanamt <= 2.5\nentropy = 1.0\nsamples = 4\nvalue = [2, 2]"] ;
406 -> 407 ;
408 [label="agerank <= 2.5\nentropy = 0.918\nsamples = 3\nvalue = [2, 1]"] ;
407 -> 408 ;
409 [label="rankloannum <= 1.5\nentropy = 1.0\nsamples = 2\nvalue = [1, 1]"] ;
408 -> 409 ;
410 [label="entropy = 0.0\nsamples = 1\nvalue = [0, 1]"] ;
409 -> 410 ;
411 [label="entropy = 0.0\nsamples = 1\nvalue = [1, 0]"] ;
409 -> 411 ;
412 [label="entropy = 0.0\nsamples = 1\nvalue = [1, 0]"] ;
408 -> 412 ;
413 [label="entropy = 0.0\nsamples = 1\nvalue = [0, 1]"] ;
407 -> 413 ;
414 [label="entropy = 0.0\nsamples = 1\nvalue = [1, 0]"] ;
406 -> 414 ;
415 [label="entropy = 0.0\nsamples = 1\nvalue = [1, 0]"] ;
405 -> 415 ;
416 [label="entropy = 0.0\nsamples = 1\nvalue = [0, 1]"] ;
404 -> 416 ;
}